<?xml version="1.0"?>
<opencv_storage>
<cascade>
  <stageType>BOOST</stageType>
  <featureType>HAAR</featureType>
  <height>5</height>
  <width>20</width>
  <stageParams>
    <boostType>GAB</boostType>
    <minHitRate>9.9900001287460327e-01</minHitRate>
    <maxFalseAlarm>5.0000000000000000e-01</maxFalseAlarm>
    <weightTrimRate>9.4999999999999996e-01</weightTrimRate>
    <maxDepth>1</maxDepth>
    <maxWeakCount>100</maxWeakCount></stageParams>
  <featureParams>
    <maxCatCount>0</maxCatCount>
    <featSize>1</featSize>
    <mode>ALL</mode></featureParams>
  <stageNum>50</stageNum>
  <stages>
    <!-- stage 0 -->
    <_>
      <maxWeakCount>16</maxWeakCount>
      <stageThreshold>-1.0575388669967651e+00</stageThreshold>
      <weakClassifiers>
        <_>
          <internalNodes>
            0 -1 1292 -7.4216619133949280e-02</internalNodes>
          <leafValues>
            -7.7777779102325439e-01 5.0382846593856812e-01</leafValues></_>
        <_>
          <internalNodes>
            0 -1 1546 7.5081218965351582e-03</internalNodes>
          <leafValues>
            -3.5204935073852539e-01 5.3460645675659180e-01</leafValues></_>
        <_>
          <internalNodes>
            0 -1 1007 -1.7839667201042175e-01</internalNodes>
          <leafValues>
            -7.6839405298233032e-01 2.1347275376319885e-01</leafValues></_>
        <_>
          <internalNodes>
            0 -1 1854 6.8282121792435646e-03</internalNodes>
          <leafValues>
            -3.1274703145027161e-01 3.8799747824668884e-01</leafValues></_>
        <_>
          <internalNodes>
            0 -1 1320 4.8483163118362427e-03</internalNodes>
          <leafValues>
            -2.6946565508842468e-01 4.4017377495765686e-01</leafValues></_>
        <_>
          <internalNodes>
            0 -1 466 1.5545126982033253e-02</internalNodes>
          <leafValues>
            -1.8925093114376068e-01 5.8607119321823120e-01</leafValues></_>
        <_>
          <internalNodes>
            0 -1 147 -9.2971123754978180e-02</internalNodes>
          <leafValues>
            5.9718018770217896e-01 -2.3801028728485107e-01</leafValues></_>
        <_>
          <internalNodes>
            0 -1 932 -1.2690353393554688e-01</internalNodes>
          <leafValues>
            -6.5111297369003296e-01 2.1678020060062408e-01</leafValues></_>
        <_>
          <internalNodes>
            0 -1 2108 -4.8271209001541138e-02</internalNodes>
          <leafValues>
            5.7803452014923096e-01 -2.0509527623653412e-01</leafValues></_>
        <_>
          <internalNodes>
            0 -1 1666 -3.2611358910799026e-03</internalNodes>
          <leafValues>
            4.3846863508224487e-01 -2.2887501120567322e-01</leafValues></_>
        <_>
          <internalNodes>
            0 -1 1273 -7.0486054755747318e-03</internalNodes>
          <leafValues>
            4.1752749681472778e-01 -2.6703923940658569e-01</leafValues></_>
        <_>
          <internalNodes>
            0 -1 297 3.4265440702438354e-01</internalNodes>
          <leafValues>
            1.5835547447204590e-01 -6.8811583518981934e-01</leafValues></_>
        <_>
          <internalNodes>
            0 -1 161 -1.3293913006782532e-01</internalNodes>
          <leafValues>
            -7.5124055147171021e-01 1.1155027151107788e-01</leafValues></_>
        <_>
          <internalNodes>
            0 -1 1669 2.1378593519330025e-03</internalNodes>
          <leafValues>
            -2.8075802326202393e-01 3.2192996144294739e-01</leafValues></_>
        <_>
          <internalNodes>
            0 -1 995 1.6584921628236771e-02</internalNodes>
          <leafValues>
            -2.5479742884635925e-01 3.3801269531250000e-01</leafValues></_>
        <_>
          <internalNodes>
            0 -1 515 -7.9420953989028931e-03</internalNodes>
          <leafValues>
            3.5801473259925842e-01 -2.3874258995056152e-01</leafValues></_></weakClassifiers></_>
    <!-- stage 1 -->
    <_>
      <maxWeakCount>22</maxWeakCount>
      <stageThreshold>-1.0112881660461426e+00</stageThreshold>
      <weakClassifiers>
        <_>
          <internalNodes>
            0 -1 1547 2.4455836974084377e-03</internalNodes>
          <leafValues>
            -4.8780485987663269e-02 6.2639820575714111e-01</leafValues></_>
        <_>
          <internalNodes>
            0 -1 458 -3.8705408573150635e-01</internalNodes>
          <leafValues>
            -6.2452852725982666e-01 2.3515075445175171e-01</leafValues></_>
        <_>
          <internalNodes>
            0 -1 1842 2.1392083726823330e-03</internalNodes>
          <leafValues>
            -2.9844367504119873e-01 3.0151483416557312e-01</leafValues></_>
        <_>
          <internalNodes>
            0 -1 1154 3.9334287866950035e-03</internalNodes>
          <leafValues>
            -2.0943996310234070e-01 3.8014701008796692e-01</leafValues></_>
        <_>
          <internalNodes>
            0 -1 1154 -3.5806203959509730e-04</internalNodes>
          <leafValues>
            3.0976244807243347e-01 -3.1195220351219177e-01</leafValues></_>
        <_>
          <internalNodes>
            0 -1 840 -3.3553875982761383e-02</internalNodes>
          <leafValues>
            4.8506152629852295e-01 -1.1654826998710632e-01</leafValues></_>
        <_>
          <internalNodes>
            0 -1 95 -3.5220049321651459e-02</internalNodes>
          <leafValues>
            4.9427098035812378e-01 -1.8457718193531036e-01</leafValues></_>
        <_>
          <internalNodes>
            0 -1 1568 2.5540462229400873e-03</internalNodes>
          <leafValues>
            -2.4924208223819733e-01 3.4351438283920288e-01</leafValues></_>
        <_>
          <internalNodes>
            0 -1 1555 6.5848022699356079e-02</internalNodes>
          <leafValues>
            9.2539176344871521e-02 -8.8758742809295654e-01</leafValues></_>
        <_>
          <internalNodes>
            0 -1 1781 1.3308585039339960e-04</internalNodes>
          <leafValues>
            -2.9116666316986084e-01 2.5624155998229980e-01</leafValues></_>
        <_>
          <internalNodes>
            0 -1 169 1.6474130749702454e-01</internalNodes>
          <leafValues>
            8.8157139718532562e-02 -7.5680130720138550e-01</leafValues></_>
        <_>
          <internalNodes>
            0 -1 2110 -4.7740921378135681e-02</internalNodes>
          <leafValues>
            4.4632399082183838e-01 -1.6831538081169128e-01</leafValues></_>
        <_>
          <internalNodes>
            0 -1 1126 2.5323858857154846e-01</internalNodes>
          <leafValues>
            1.0737094283103943e-01 -8.3187001943588257e-01</leafValues></_>
        <_>
          <internalNodes>
            0 -1 1666 -2.5014462880790234e-03</internalNodes>
          <leafValues>
            2.7784046530723572e-01 -2.7028274536132812e-01</leafValues></_>
        <_>
          <internalNodes>
            0 -1 1234 -1.8366675823926926e-02</internalNodes>
          <leafValues>
            4.6134045720100403e-01 -1.6856579482555389e-01</leafValues></_>
        <_>
          <internalNodes>
            0 -1 28 -9.6191272139549255e-02</internalNodes>
          <leafValues>
            6.0637563467025757e-01 -9.0465381741523743e-02</leafValues></_>
        <_>
          <internalNodes>
            0 -1 1868 -7.9821614781394601e-04</internalNodes>
          <leafValues>
            3.0679050087928772e-01 -2.0096220076084137e-01</leafValues></_>
        <_>
          <internalNodes>
            0 -1 1393 4.5427151024341583e-02</internalNodes>
          <leafValues>
            7.3469012975692749e-02 -7.8399443626403809e-01</leafValues></_>
        <_>
          <internalNodes>
            0 -1 271 3.1790867447853088e-02</internalNodes>
          <leafValues>
            -1.6210810840129852e-01 4.0826505422592163e-01</leafValues></_>
        <_>
          <internalNodes>
            0 -1 470 -9.4791762530803680e-03</internalNodes>
          <leafValues>
            3.6310553550720215e-01 -2.0130839943885803e-01</leafValues></_>
        <_>
          <internalNodes>
            0 -1 1441 -4.3356874957680702e-03</internalNodes>
          <leafValues>
            3.2918736338615417e-01 -2.0255301892757416e-01</leafValues></_>
        <_>
          <internalNodes>
            0 -1 1009 -1.0493516921997070e-01</internalNodes>
          <leafValues>
            -4.3196174502372742e-01 1.4133873581886292e-01</leafValues></_></weakClassifiers></_>
    <!-- stage 2 -->
    <_>
      <maxWeakCount>34</maxWeakCount>
      <stageThreshold>-9.0771305561065674e-01</stageThreshold>
      <weakClassifiers>
        <_>
          <internalNodes>
            0 -1 1530 2.0147381350398064e-02</internalNodes>
          <leafValues>
            7.6923079788684845e-02 6.1489087343215942e-01</leafValues></_>
        <_>
          <internalNodes>
            0 -1 2106 -4.2271194979548454e-04</internalNodes>
          <leafValues>
            3.2091516256332397e-01 -2.6941022276878357e-01</leafValues></_>
        <_>
          <internalNodes>
            0 -1 227 5.7882882654666901e-02</internalNodes>
          <leafValues>
            -1.6779296100139618e-01 4.2427864670753479e-01</leafValues></_>
        <_>
          <internalNodes>
            0 -1 146 -3.6515280604362488e-02</internalNodes>
          <leafValues>
            3.4076783061027527e-01 -2.6766988635063171e-01</leafValues></_>
        <_>
          <internalNodes>
            0 -1 1570 -3.1146015971899033e-02</internalNodes>
          <leafValues>
            -6.4725464582443237e-01 1.3996346294879913e-01</leafValues></_>
        <_>
          <internalNodes>
            0 -1 1822 7.4002505280077457e-03</internalNodes>
          <leafValues>
            -2.5429791212081909e-01 2.7802416682243347e-01</leafValues></_>
        <_>
          <internalNodes>
            0 -1 336 -3.3292394876480103e-01</internalNodes>
          <leafValues>
            -8.7287753820419312e-01 6.5940111875534058e-02</leafValues></_>
        <_>
          <internalNodes>
            0 -1 1521 3.6135703325271606e-02</internalNodes>
          <leafValues>
            6.6676542162895203e-02 -8.2637041807174683e-01</leafValues></_>
        <_>
          <internalNodes>
            0 -1 1188 -3.8497939705848694e-02</internalNodes>
          <leafValues>
            4.1024717688560486e-01 -1.7507077753543854e-01</leafValues></_>
        <_>
          <internalNodes>
            0 -1 469 4.7526270151138306e-02</internalNodes>
          <leafValues>
            -1.3107445836067200e-01 4.5524239540100098e-01</leafValues></_>
        <_>
          <internalNodes>
            0 -1 1408 -1.3411675393581390e-01</internalNodes>
          <leafValues>
            7.4971240758895874e-01 -5.9752989560365677e-02</leafValues></_>
        <_>
          <internalNodes>
            0 -1 1757 -5.9268097393214703e-03</internalNodes>
          <leafValues>
            2.8252595663070679e-01 -2.0255808532238007e-01</leafValues></_>
        <_>
          <internalNodes>
            0 -1 1785 -6.1254024505615234e-02</internalNodes>
          <leafValues>
            -5.5967932939529419e-01 1.0042671859264374e-01</leafValues></_>
        <_>
          <internalNodes>
            0 -1 408 2.1872419118881226e-01</internalNodes>
          <leafValues>
            9.2266865074634552e-02 -6.0184592008590698e-01</leafValues></_>
        <_>
          <internalNodes>
            0 -1 2004 -8.1043131649494171e-03</internalNodes>
          <leafValues>
            3.6818793416023254e-01 -1.4074191451072693e-01</leafValues></_>
        <_>
          <internalNodes>
            0 -1 1520 -3.3723246306180954e-02</internalNodes>
          <leafValues>
            -7.3697543144226074e-01 7.4273504316806793e-02</leafValues></_>
        <_>
          <internalNodes>
            0 -1 1266 2.7591714262962341e-01</internalNodes>
          <leafValues>
            3.9947658777236938e-02 -9.2937129735946655e-01</leafValues></_>
        <_>
          <internalNodes>
            0 -1 2075 4.8797354102134705e-03</internalNodes>
          <leafValues>
            -1.8819169700145721e-01 2.5971904397010803e-01</leafValues></_>
        <_>
          <internalNodes>
            0 -1 2051 -1.9539462402462959e-02</internalNodes>
          <leafValues>
            4.1676187515258789e-01 -1.3106709718704224e-01</leafValues></_>
        <_>
          <internalNodes>
            0 -1 1629 -2.2196519374847412e-01</internalNodes>
          <leafValues>
            -6.3984417915344238e-01 7.7338121831417084e-02</leafValues></_>
        <_>
          <internalNodes>
            0 -1 850 -7.8538261353969574e-02</internalNodes>
          <leafValues>
            3.2792073488235474e-01 -1.4660777151584625e-01</leafValues></_>
        <_>
          <internalNodes>
            0 -1 993 4.1635155677795410e-02</internalNodes>
          <leafValues>
            -1.2704151868820190e-01 3.7067365646362305e-01</leafValues></_>
        <_>
          <internalNodes>
            0 -1 116 -2.8532975912094116e-01</internalNodes>
          <leafValues>
            4.5471924543380737e-01 -1.0060473531484604e-01</leafValues></_>
        <_>
          <internalNodes>
            0 -1 1940 -1.2706871144473553e-02</internalNodes>
          <leafValues>
            3.3826172351837158e-01 -1.5144278109073639e-01</leafValues></_>
        <_>
          <internalNodes>
            0 -1 144 4.5731678605079651e-02</internalNodes>
          <leafValues>
            1.1438170820474625e-01 -5.0366085767745972e-01</leafValues></_>
        <_>
          <internalNodes>
            0 -1 1439 -5.0191059708595276e-03</internalNodes>
          <leafValues>
            2.9787448048591614e-01 -1.5205970406532288e-01</leafValues></_>
        <_>
          <internalNodes>
            0 -1 1076 6.2839232385158539e-02</internalNodes>
          <leafValues>
            -1.1013818532228470e-01 4.1239333152770996e-01</leafValues></_>
        <_>
          <internalNodes>
            0 -1 1850 9.7127817571163177e-03</internalNodes>
          <leafValues>
            -1.5289910137653351e-01 3.0887666344642639e-01</leafValues></_>
        <_>
          <internalNodes>
            0 -1 2135 3.2646577805280685e-02</internalNodes>
          <leafValues>
            -1.0443322360515594e-01 4.1324949264526367e-01</leafValues></_>
        <_>
          <internalNodes>
            0 -1 977 -2.2347047924995422e-01</internalNodes>
          <leafValues>
            -6.2301826477050781e-01 7.7886916697025299e-02</leafValues></_>
        <_>
          <internalNodes>
            0 -1 111 1.4675541222095490e-01</internalNodes>
          <leafValues>
            6.7550376057624817e-02 -5.9151476621627808e-01</leafValues></_>
        <_>
          <internalNodes>
            0 -1 1533 4.1452620644122362e-04</internalNodes>
          <leafValues>
            -2.0281074941158295e-01 2.3069950938224792e-01</leafValues></_>
        <_>
          <internalNodes>
            0 -1 1533 1.8943313509225845e-02</internalNodes>
          <leafValues>
            9.8166242241859436e-02 -4.6568101644515991e-01</leafValues></_>
        <_>
          <internalNodes>
            0 -1 1422 1.2491779401898384e-02</internalNodes>
          <leafValues>
            -1.2347831577062607e-01 3.4573596715927124e-01</leafValues></_></weakClassifiers></_>
    <!-- stage 3 -->
    <_>
      <maxWeakCount>43</maxWeakCount>
      <stageThreshold>-9.7834265232086182e-01</stageThreshold>
      <weakClassifiers>
        <_>
          <internalNodes>
            0 -1 1550 7.4191098101437092e-03</internalNodes>
          <leafValues>
            3.2590050250291824e-02 5.7966101169586182e-01</leafValues></_>
        <_>
          <internalNodes>
            0 -1 1250 7.1727991104125977e-02</internalNodes>
          <leafValues>
            1.3610717654228210e-01 -6.9737821817398071e-01</leafValues></_>
        <_>
          <internalNodes>
            0 -1 1156 2.1693293005228043e-02</internalNodes>
          <leafValues>
            -1.5079453587532043e-01 4.6079003810882568e-01</leafValues></_>
        <_>
          <internalNodes>
            0 -1 1503 8.3983615040779114e-02</internalNodes>
          <leafValues>
            9.2194288969039917e-02 -7.3925757408142090e-01</leafValues></_>
        <_>
          <internalNodes>
            0 -1 2110 -4.3801590800285339e-02</internalNodes>
          <leafValues>
            3.5358551144599915e-01 -1.6903106868267059e-01</leafValues></_>
        <_>
          <internalNodes>
            0 -1 1336 4.4809930026531219e-02</internalNodes>
          <leafValues>
            -1.7502866685390472e-01 3.1046628952026367e-01</leafValues></_>
        <_>
          <internalNodes>
            0 -1 99 -1.8038597702980042e-01</internalNodes>
          <leafValues>
            5.3926289081573486e-01 -1.1416913568973541e-01</leafValues></_>
        <_>
          <internalNodes>
            0 -1 147 1.0997904837131500e-01</internalNodes>
          <leafValues>
            -1.5002004802227020e-01 4.7349414229393005e-01</leafValues></_>
        <_>
          <internalNodes>
            0 -1 17 5.5729955434799194e-02</internalNodes>
          <leafValues>
            1.3039077818393707e-01 -5.4120904207229614e-01</leafValues></_>
        <_>
          <internalNodes>
            0 -1 1297 -2.1876558661460876e-01</internalNodes>
          <leafValues>
            -6.4136987924575806e-01 5.4154168814420700e-02</leafValues></_>
        <_>
          <internalNodes>
            0 -1 1846 1.1729994788765907e-02</internalNodes>
          <leafValues>
            -1.6712871193885803e-01 2.5687488913536072e-01</leafValues></_>
        <_>
          <internalNodes>
            0 -1 332 1.8214966356754303e-01</internalNodes>
          <leafValues>
            -9.9040813744068146e-02 4.2437937855720520e-01</leafValues></_>
        <_>
          <internalNodes>
            0 -1 47 -1.3532163202762604e-01</internalNodes>
          <leafValues>
            3.4022808074951172e-01 -1.6084630787372589e-01</leafValues></_>
        <_>
          <internalNodes>
            0 -1 1799 2.9383774846792221e-02</internalNodes>
          <leafValues>
            -1.7185194790363312e-01 2.7669611573219299e-01</leafValues></_>
        <_>
          <internalNodes>
            0 -1 1056 2.3869384080171585e-02</internalNodes>
          <leafValues>
            -1.4986211061477661e-01 3.1028848886489868e-01</leafValues></_>
        <_>
          <internalNodes>
            0 -1 2147 3.2072339206933975e-02</internalNodes>
          <leafValues>
            -1.1159433424472809e-01 4.2063188552856445e-01</leafValues></_>
        <_>
          <internalNodes>
            0 -1 1486 -3.3124275505542755e-02</internalNodes>
          <leafValues>
            -6.1428380012512207e-01 7.9677239060401917e-02</leafValues></_>
        <_>
          <internalNodes>
            0 -1 1040 -1.4223016798496246e-01</internalNodes>
          <leafValues>
            -6.3813519477844238e-01 5.1195211708545685e-02</leafValues></_>
        <_>
          <internalNodes>
            0 -1 1244 5.2105195820331573e-02</internalNodes>
          <leafValues>
            5.1392905414104462e-02 -6.4218276739120483e-01</leafValues></_>
        <_>
          <internalNodes>
            0 -1 1146 -1.0449679195880890e-01</internalNodes>
          <leafValues>
            -5.4726618528366089e-01 5.8240365236997604e-02</leafValues></_>
        <_>
          <internalNodes>
            0 -1 1127 -3.7822953891009092e-03</internalNodes>
          <leafValues>
            2.3938490450382233e-01 -1.4676859974861145e-01</leafValues></_>
        <_>
          <internalNodes>
            0 -1 1394 5.0216816365718842e-02</internalNodes>
          <leafValues>
            5.0209153443574905e-02 -7.7180415391921997e-01</leafValues></_>
        <_>
          <internalNodes>
            0 -1 738 4.3990246951580048e-02</internalNodes>
          <leafValues>
            -7.7415190637111664e-02 5.0799268484115601e-01</leafValues></_>
        <_>
          <internalNodes>
            0 -1 1428 -2.8730968013405800e-02</internalNodes>
          <leafValues>
            3.5706973075866699e-01 -9.7480207681655884e-02</leafValues></_>
        <_>
          <internalNodes>
            0 -1 1434 1.1577948927879333e-02</internalNodes>
          <leafValues>
            -9.0177424252033234e-02 3.5645613074302673e-01</leafValues></_>
        <_>
          <internalNodes>
            0 -1 1483 -1.6116414219141006e-02</internalNodes>
          <leafValues>
            -6.2726259231567383e-01 6.0864560306072235e-02</leafValues></_>
        <_>
          <internalNodes>
            0 -1 1735 6.4610794186592102e-02</internalNodes>
          <leafValues>
            -1.2681336700916290e-01 2.8658437728881836e-01</leafValues></_>
        <_>
          <internalNodes>
            0 -1 1560 3.4505624789744616e-03</internalNodes>
          <leafValues>
            -1.6035862267017365e-01 2.4069802463054657e-01</leafValues></_>
        <_>
          <internalNodes>
            0 -1 2044 -1.8118534982204437e-01</internalNodes>
          <leafValues>
            -7.8630363941192627e-01 4.5178130269050598e-02</leafValues></_>
        <_>
          <internalNodes>
            0 -1 762 3.9917878806591034e-02</internalNodes>
          <leafValues>
            -1.3833184540271759e-01 2.7786505222320557e-01</leafValues></_>
        <_>
          <internalNodes>
            0 -1 245 1.5460476279258728e-01</internalNodes>
          <leafValues>
            -1.1368677765130997e-01 4.1466498374938965e-01</leafValues></_>
        <_>
          <internalNodes>
            0 -1 1414 -6.0920547693967819e-02</internalNodes>
          <leafValues>
            3.0227270722389221e-01 -1.3745217025279999e-01</leafValues></_>
        <_>
          <internalNodes>
            0 -1 152 -1.6512018442153931e-01</internalNodes>
          <leafValues>
            5.4402548074722290e-01 -8.0551087856292725e-02</leafValues></_>
        <_>
          <internalNodes>
            0 -1 1190 -3.6658621393144131e-03</internalNodes>
          <leafValues>
            2.3372055590152740e-01 -1.7329415678977966e-01</leafValues></_>
        <_>
          <internalNodes>
            0 -1 1054 -1.1394888162612915e-02</internalNodes>
          <leafValues>
            3.0952411890029907e-01 -1.4174519479274750e-01</leafValues></_>
        <_>
          <internalNodes>
            0 -1 1128 2.3004703689366579e-03</internalNodes>
          <leafValues>
            -2.1167820692062378e-01 2.0916847884654999e-01</leafValues></_>
        <_>
          <internalNodes>
            0 -1 1637 -3.0081418808549643e-03</internalNodes>
          <leafValues>
            2.0626695454120636e-01 -1.5697042644023895e-01</leafValues></_>
        <_>
          <internalNodes>
            0 -1 1364 1.0537844151258469e-02</internalNodes>
          <leafValues>
            -1.4037455618381500e-01 2.6130500435829163e-01</leafValues></_>
        <_>
          <internalNodes>
            0 -1 357 1.9395175576210022e-01</internalNodes>
          <leafValues>
            5.9733740985393524e-02 -6.2060296535491943e-01</leafValues></_>
        <_>
          <internalNodes>
            0 -1 1595 -1.3661171495914459e-01</internalNodes>
          <leafValues>
            -5.0317186117172241e-01 5.7279340922832489e-02</leafValues></_>
        <_>
          <internalNodes>
            0 -1 24 -1.1595705151557922e-01</internalNodes>
          <leafValues>
            6.8213921785354614e-01 -5.3852461278438568e-02</leafValues></_>
        <_>
          <internalNodes>
            0 -1 294 2.7971822023391724e-01</internalNodes>
          <leafValues>
            -7.3120564222335815e-02 4.3446439504623413e-01</leafValues></_>
        <_>
          <internalNodes>
            0 -1 1759 -8.0240055918693542e-02</internalNodes>
          <leafValues>
            6.4715147018432617e-01 -5.4125867784023285e-02</leafValues></_></weakClassifiers></_>
    <!-- stage 4 -->
    <_>
      <maxWeakCount>43</maxWeakCount>
      <stageThreshold>-9.1707533597946167e-01</stageThreshold>
      <weakClassifiers>
        <_>
          <internalNodes>
            0 -1 299 -3.3947503566741943e-01</internalNodes>
          <leafValues>
            -2.4705882370471954e-01 4.9051937460899353e-01</leafValues></_>
        <_>
          <internalNodes>
            0 -1 1496 3.3007770776748657e-02</internalNodes>
          <leafValues>
            -2.3020774126052856e-01 3.8526806235313416e-01</leafValues></_>
        <_>
          <internalNodes>
            0 -1 1083 4.4266454875469208e-02</internalNodes>
          <leafValues>
            -1.5958766639232635e-01 4.3690150976181030e-01</leafValues></_>
        <_>
          <internalNodes>
            0 -1 1323 -1.4494722709059715e-02</internalNodes>
          <leafValues>
            5.0252294540405273e-01 -9.4999149441719055e-02</leafValues></_>
        <_>
          <internalNodes>
            0 -1 1823 1.5068346634507179e-02</internalNodes>
          <leafValues>
            -2.1804006397724152e-01 2.5321790575981140e-01</leafValues></_>
        <_>
          <internalNodes>
            0 -1 1319 -5.1828441210091114e-03</internalNodes>
          <leafValues>
            2.5719159841537476e-01 -2.4255472421646118e-01</leafValues></_>
        <_>
          <internalNodes>
            0 -1 2097 -4.6187373809516430e-03</internalNodes>
          <leafValues>
            2.5345921516418457e-01 -2.0432996749877930e-01</leafValues></_>
        <_>
          <internalNodes>
            0 -1 109 -2.7898243069648743e-01</internalNodes>
          <leafValues>
            3.8482841849327087e-01 -1.3924105465412140e-01</leafValues></_>
        <_>
          <internalNodes>
            0 -1 803 3.4615024924278259e-02</internalNodes>
          <leafValues>
            -6.2122017145156860e-02 6.8393200635910034e-01</leafValues></_>
        <_>
          <internalNodes>
            0 -1 485 1.5673717483878136e-02</internalNodes>
          <leafValues>
            -8.6024381220340729e-02 4.8857080936431885e-01</leafValues></_>
        <_>
          <internalNodes>
            0 -1 713 2.7997655794024467e-02</internalNodes>
          <leafValues>
            -1.4860472083091736e-01 2.9849761724472046e-01</leafValues></_>
        <_>
          <internalNodes>
            0 -1 802 2.5379888247698545e-03</internalNodes>
          <leafValues>
            -1.6153611242771149e-01 2.7314087748527527e-01</leafValues></_>
        <_>
          <internalNodes>
            0 -1 1948 -2.4256595969200134e-01</internalNodes>
          <leafValues>
            -8.5444152355194092e-01 5.9090584516525269e-02</leafValues></_>
        <_>
          <internalNodes>
            0 -1 1921 1.3484957814216614e-01</internalNodes>
          <leafValues>
            4.9876019358634949e-02 -6.3063430786132812e-01</leafValues></_>
        <_>
          <internalNodes>
            0 -1 2125 -3.5454824566841125e-02</internalNodes>
          <leafValues>
            5.4335892200469971e-01 -8.0420665442943573e-02</leafValues></_>
        <_>
          <internalNodes>
            0 -1 1987 1.3183980248868465e-02</internalNodes>
          <leafValues>
            -1.4874434471130371e-01 2.7328598499298096e-01</leafValues></_>
        <_>
          <internalNodes>
            0 -1 2015 1.0351555421948433e-02</internalNodes>
          <leafValues>
            -1.7192234098911285e-01 2.8107944130897522e-01</leafValues></_>
        <_>
          <internalNodes>
            0 -1 459 4.0365874767303467e-01</internalNodes>
          <leafValues>
            7.7401295304298401e-02 -6.2981408834457397e-01</leafValues></_>
        <_>
          <internalNodes>
            0 -1 962 5.2520000934600830e-01</internalNodes>
          <leafValues>
            4.3373990803956985e-02 -8.2337498664855957e-01</leafValues></_>
        <_>
          <internalNodes>
            0 -1 719 -4.9135163426399231e-02</internalNodes>
          <leafValues>
            3.2833102345466614e-01 -1.3353636860847473e-01</leafValues></_>
        <_>
          <internalNodes>
            0 -1 773 2.8535586316138506e-03</internalNodes>
          <leafValues>
            -1.7836999893188477e-01 2.4525915086269379e-01</leafValues></_>
        <_>
          <internalNodes>
            0 -1 718 -7.6877459883689880e-02</internalNodes>
          <leafValues>
            3.6716333031654358e-01 -1.1525468528270721e-01</leafValues></_>
        <_>
          <internalNodes>
            0 -1 894 2.3351320624351501e-01</internalNodes>
          <leafValues>
            9.1584905982017517e-02 -4.3672344088554382e-01</leafValues></_>
        <_>
          <internalNodes>
            0 -1 1064 -6.0558202676475048e-03</internalNodes>
          <leafValues>
            2.5403571128845215e-01 -1.5895600616931915e-01</leafValues></_>
        <_>
          <internalNodes>
            0 -1 349 -8.5178837180137634e-03</internalNodes>
          <leafValues>
            2.0550863444805145e-01 -1.8978790938854218e-01</leafValues></_>
        <_>
          <internalNodes>
            0 -1 113 2.3240426182746887e-01</internalNodes>
          <leafValues>
            -9.8056003451347351e-02 3.5285639762878418e-01</leafValues></_>
        <_>
          <internalNodes>
            0 -1 460 -3.4216966014355421e-04</internalNodes>
          <leafValues>
            1.8929919600486755e-01 -1.7575763165950775e-01</leafValues></_>
        <_>
          <internalNodes>
            0 -1 124 -2.9830688238143921e-01</internalNodes>
          <leafValues>
            -6.6733598709106445e-01 5.1012247800827026e-02</leafValues></_>
        <_>
          <internalNodes>
            0 -1 465 -1.4613047242164612e-01</internalNodes>
          <leafValues>
            5.7328128814697266e-01 -6.4461842179298401e-02</leafValues></_>
        <_>
          <internalNodes>
            0 -1 1619 1.9759491086006165e-01</internalNodes>
          <leafValues>
            4.4582422822713852e-02 -9.5403122901916504e-01</leafValues></_>
        <_>
          <internalNodes>
            0 -1 2005 -9.9370637908577919e-03</internalNodes>
          <leafValues>
            3.0352881550788879e-01 -1.4201752841472626e-01</leafValues></_>
        <_>
          <internalNodes>
            0 -1 2011 9.9422596395015717e-03</internalNodes>
          <leafValues>
            -1.5480707585811615e-01 3.0089479684829712e-01</leafValues></_>
        <_>
          <internalNodes>
            0 -1 1099 1.0178647935390472e-02</internalNodes>
          <leafValues>
            -1.6280119121074677e-01 2.2169749438762665e-01</leafValues></_>
        <_>
          <internalNodes>
            0 -1 1656 -8.9840993285179138e-02</internalNodes>
          <leafValues>
            -6.0365861654281616e-01 6.6181682050228119e-02</leafValues></_>
        <_>
          <internalNodes>
            0 -1 1666 -3.2352718990296125e-03</internalNodes>
          <leafValues>
            1.8549348413944244e-01 -1.9123899936676025e-01</leafValues></_>
        <_>
          <internalNodes>
            0 -1 2068 2.6781249791383743e-02</internalNodes>
          <leafValues>
            -1.1154351383447647e-01 3.1395348906517029e-01</leafValues></_>
        <_>
          <internalNodes>
            0 -1 1375 -1.0283172130584717e-01</internalNodes>
          <leafValues>
            -6.0924601554870605e-01 6.5744020044803619e-02</leafValues></_>
        <_>
          <internalNodes>
            0 -1 1654 1.5488969162106514e-02</internalNodes>
          <leafValues>
            -1.2166769057512283e-01 3.0646091699600220e-01</leafValues></_>
        <_>
          <internalNodes>
            0 -1 190 -9.9704042077064514e-02</internalNodes>
          <leafValues>
            3.6240479350090027e-01 -9.8599113523960114e-02</leafValues></_>
        <_>
          <internalNodes>
            0 -1 700 -1.1988793313503265e-01</internalNodes>
          <leafValues>
            -6.5249681472778320e-01 5.6798532605171204e-02</leafValues></_>
        <_>
          <internalNodes>
            0 -1 866 -3.8283437490463257e-02</internalNodes>
          <leafValues>
            8.2715505361557007e-01 -5.4684687405824661e-02</leafValues></_>
        <_>
          <internalNodes>
            0 -1 1739 -1.1266012489795685e-01</internalNodes>
          <leafValues>
            -7.3166733980178833e-01 5.6289076805114746e-02</leafValues></_>
        <_>
          <internalNodes>
            0 -1 2085 3.2517447834834456e-04</internalNodes>
          <leafValues>
            -1.7323252558708191e-01 2.0172533392906189e-01</leafValues></_></weakClassifiers></_>
    <!-- stage 5 -->
    <_>
      <maxWeakCount>57</maxWeakCount>
      <stageThreshold>-1.0790511369705200e+00</stageThreshold>
      <weakClassifiers>
        <_>
          <internalNodes>
            0 -1 1151 1.0868149995803833e-01</internalNodes>
          <leafValues>
            4.3651390075683594e-01 -3.5766422748565674e-01</leafValues></_>
        <_>
          <internalNodes>
            0 -1 1136 5.5038876831531525e-02</internalNodes>
          <leafValues>
            -5.7995583862066269e-02 7.4043238162994385e-01</leafValues></_>
        <_>
          <internalNodes>
            0 -1 1255 6.8009108304977417e-02</internalNodes>
          <leafValues>
            6.6287584602832794e-02 -6.0496717691421509e-01</leafValues></_>
        <_>
          <internalNodes>
            0 -1 446 -1.7682832479476929e-01</internalNodes>
          <leafValues>
            -6.5741527080535889e-01 6.1024658381938934e-02</leafValues></_>
        <_>
          <internalNodes>
            0 -1 525 -1.9814211875200272e-02</internalNodes>
          <leafValues>
            -3.4850680828094482e-01 1.5115293860435486e-01</leafValues></_>
        <_>
          <internalNodes>
            0 -1 1404 7.5835362076759338e-03</internalNodes>
          <leafValues>
            -2.6955050230026245e-01 1.7358504235744476e-01</leafValues></_>
        <_>
          <internalNodes>
            0 -1 167 2.1961180865764618e-01</internalNodes>
          <leafValues>
            1.0346394032239914e-01 -5.6559157371520996e-01</leafValues></_>
        <_>
          <internalNodes>
            0 -1 1854 6.8046282976865768e-03</internalNodes>
          <leafValues>
            -2.1674387156963348e-01 2.5511109828948975e-01</leafValues></_>
        <_>
          <internalNodes>
            0 -1 426 8.8649429380893707e-02</internalNodes>
          <leafValues>
            -8.3486020565032959e-02 5.7142692804336548e-01</leafValues></_>
        <_>
          <internalNodes>
            0 -1 1718 6.1387911438941956e-02</internalNodes>
          <leafValues>
            4.0447711944580078e-02 -7.4531948566436768e-01</leafValues></_>
        <_>
          <internalNodes>
            0 -1 1718 -2.0089376717805862e-02</internalNodes>
          <leafValues>
            -4.7970366477966309e-01 7.8026428818702698e-02</leafValues></_>
        <_>
          <internalNodes>
            0 -1 75 3.2514330744743347e-01</internalNodes>
          <leafValues>
            8.1646859645843506e-02 -4.9575826525688171e-01</leafValues></_>
        <_>
          <internalNodes>
            0 -1 2064 2.5816991925239563e-02</internalNodes>
          <leafValues>
            -8.4274791181087494e-02 4.2683425545692444e-01</leafValues></_>
        <_>
          <internalNodes>
            0 -1 1964 -6.9430181756615639e-03</internalNodes>
          <leafValues>
            -3.2903781533241272e-01 1.0371910780668259e-01</leafValues></_>
        <_>
          <internalNodes>
            0 -1 2115 2.1038293838500977e-02</internalNodes>
          <leafValues>
            -7.5521223247051239e-02 4.4411602616310120e-01</leafValues></_>
        <_>
          <internalNodes>
            0 -1 1521 2.4672091007232666e-02</internalNodes>
          <leafValues>
            8.0787718296051025e-02 -4.5527172088623047e-01</leafValues></_>
        <_>
          <internalNodes>
            0 -1 1521 -2.0711187273263931e-02</internalNodes>
          <leafValues>
            -4.6538969874382019e-01 9.0883933007717133e-02</leafValues></_>
        <_>
          <internalNodes>
            0 -1 780 1.4813655987381935e-02</internalNodes>
          <leafValues>
            -1.4914306998252869e-01 2.4530266225337982e-01</leafValues></_>
        <_>
          <internalNodes>
            0 -1 110 -4.7411045432090759e-01</internalNodes>
          <leafValues>
            3.7666597962379456e-01 -8.9900068938732147e-02</leafValues></_>
        <_>
          <internalNodes>
            0 -1 2017 -4.7199986875057220e-02</internalNodes>
          <leafValues>
            7.4667829275131226e-01 -3.8390878587961197e-02</leafValues></_>
        <_>
          <internalNodes>
            0 -1 54 3.5127583146095276e-01</internalNodes>
          <leafValues>
            -6.2570519745349884e-02 4.9523073434829712e-01</leafValues></_>
        <_>
          <internalNodes>
            0 -1 1529 -3.5012487322092056e-02</internalNodes>
          <leafValues>
            4.9465996026992798e-01 -6.6531665623188019e-02</leafValues></_>
        <_>
          <internalNodes>
            0 -1 1522 6.1980178579688072e-03</internalNodes>
          <leafValues>
            -1.8216916918754578e-01 2.5210189819335938e-01</leafValues></_>
        <_>
          <internalNodes>
            0 -1 146 -5.9725075960159302e-02</internalNodes>
          <leafValues>
            2.7954393625259399e-01 -1.3883575797080994e-01</leafValues></_>
        <_>
          <internalNodes>
            0 -1 970 8.5099555552005768e-02</internalNodes>
          <leafValues>
            -1.1339250206947327e-01 3.7164682149887085e-01</leafValues></_>
        <_>
          <internalNodes>
            0 -1 633 8.2654803991317749e-02</internalNodes>
          <leafValues>
            -4.4242892414331436e-02 7.6291209459304810e-01</leafValues></_>
        <_>
          <internalNodes>
            0 -1 283 5.2096590399742126e-02</internalNodes>
          <leafValues>
            1.0951101034879684e-01 -3.4076544642448425e-01</leafValues></_>
        <_>
          <internalNodes>
            0 -1 1924 -1.6674986481666565e-01</internalNodes>
          <leafValues>
            -6.8658280372619629e-01 5.0232540816068649e-02</leafValues></_>
        <_>
          <internalNodes>
            0 -1 1946 -3.1339712440967560e-02</internalNodes>
          <leafValues>
            3.1317225098609924e-01 -1.1792613565921783e-01</leafValues></_>
        <_>
          <internalNodes>
            0 -1 2078 4.5218043029308319e-02</internalNodes>
          <leafValues>
            -7.5573928654193878e-02 4.7115346789360046e-01</leafValues></_>
        <_>
          <internalNodes>
            0 -1 185 6.3274420797824860e-02</internalNodes>
          <leafValues>
            9.0791076421737671e-02 -4.1555130481719971e-01</leafValues></_>
        <_>
          <internalNodes>
            0 -1 172 -1.1794669553637505e-02</internalNodes>
          <leafValues>
            -3.3594906330108643e-01 9.4677500426769257e-02</leafValues></_>
        <_>
          <internalNodes>
            0 -1 1723 -8.1233784556388855e-02</internalNodes>
          <leafValues>
            -8.1740456819534302e-01 3.9788898080587387e-02</leafValues></_>
        <_>
          <internalNodes>
            0 -1 2008 3.0610177665948868e-02</internalNodes>
          <leafValues>
            -1.6300389170646667e-01 2.1522548794746399e-01</leafValues></_>
        <_>
          <internalNodes>
            0 -1 981 -2.6791159063577652e-02</internalNodes>
          <leafValues>
            5.7275170087814331e-01 -5.1953673362731934e-02</leafValues></_>
        <_>
          <internalNodes>
            0 -1 77 2.7089631184935570e-03</internalNodes>
          <leafValues>
            1.3999314606189728e-01 -2.2518570721149445e-01</leafValues></_>
        <_>
          <internalNodes>
            0 -1 1104 6.1033152043819427e-02</internalNodes>
          <leafValues>
            -8.4683567285537720e-02 4.0635496377944946e-01</leafValues></_>
        <_>
          <internalNodes>
            0 -1 1638 -5.7468794286251068e-02</internalNodes>
          <leafValues>
            -7.3104792833328247e-01 4.4599935412406921e-02</leafValues></_>
        <_>
          <internalNodes>
            0 -1 1382 -8.2828953862190247e-02</internalNodes>
          <leafValues>
            -6.3235682249069214e-01 4.3516017496585846e-02</leafValues></_>
        <_>
          <internalNodes>
            0 -1 584 -1.5212607383728027e-01</internalNodes>
          <leafValues>
            5.7780098915100098e-01 -6.1405602842569351e-02</leafValues></_>
        <_>
          <internalNodes>
            0 -1 159 -1.5387840569019318e-01</internalNodes>
          <leafValues>
            -7.8584015369415283e-01 4.6077340841293335e-02</leafValues></_>
        <_>
          <internalNodes>
            0 -1 1771 3.1467743217945099e-02</internalNodes>
          <leafValues>
            -4.8539567738771439e-02 8.1681668758392334e-01</leafValues></_>
        <_>
          <internalNodes>
            0 -1 1534 -6.9120004773139954e-02</internalNodes>
          <leafValues>
            -7.5806337594985962e-01 5.2782282233238220e-02</leafValues></_>
        <_>
          <internalNodes>
            0 -1 990 4.1198518127202988e-02</internalNodes>
          <leafValues>
            5.4079350084066391e-02 -5.0707185268402100e-01</leafValues></_>
        <_>
          <internalNodes>
            0 -1 628 4.1076363413594663e-04</internalNodes>
          <leafValues>
            -1.6288612782955170e-01 1.8057741224765778e-01</leafValues></_>
        <_>
          <internalNodes>
            0 -1 592 -1.5494172461330891e-02</internalNodes>
          <leafValues>
            2.3273001611232758e-01 -1.3843759894371033e-01</leafValues></_>
        <_>
          <internalNodes>
            0 -1 888 1.9653809070587158e-01</internalNodes>
          <leafValues>
            4.9816321581602097e-02 -5.9830814599990845e-01</leafValues></_>
        <_>
          <internalNodes>
            0 -1 1855 1.1381862685084343e-02</internalNodes>
          <leafValues>
            -8.5451506078243256e-02 3.7668439745903015e-01</leafValues></_>
        <_>
          <internalNodes>
            0 -1 1823 4.9083707854151726e-03</internalNodes>
          <leafValues>
            -1.9883738458156586e-01 1.6906182467937469e-01</leafValues></_>
        <_>
          <internalNodes>
            0 -1 1941 5.2352041006088257e-02</internalNodes>
          <leafValues>
            -5.8068104088306427e-02 5.7198578119277954e-01</leafValues></_>
        <_>
          <internalNodes>
            0 -1 1894 1.2886177003383636e-01</internalNodes>
          <leafValues>
            8.3065472543239594e-02 -4.0046015381813049e-01</leafValues></_>
        <_>
          <internalNodes>
            0 -1 119 3.6904063820838928e-01</internalNodes>
          <leafValues>
            2.7772251516580582e-02 -1.</leafValues></_>
        <_>
          <internalNodes>
            0 -1 1947 -1.0686433315277100e-01</internalNodes>
          <leafValues>
            -4.8851367831230164e-01 5.2356924861669540e-02</leafValues></_>
        <_>
          <internalNodes>
            0 -1 65 -1.0513598918914795e+00</internalNodes>
          <leafValues>
            -7.1072459220886230e-01 4.3749872595071793e-02</leafValues></_>
        <_>
          <internalNodes>
            0 -1 175 4.6408693306148052e-03</internalNodes>
          <leafValues>
            1.4238366484642029e-01 -2.5100964307785034e-01</leafValues></_>
        <_>
          <internalNodes>
            0 -1 903 1.4265778660774231e-01</internalNodes>
          <leafValues>
            -2.9934030026197433e-02 1.</leafValues></_>
        <_>
          <internalNodes>
            0 -1 783 -9.0413950383663177e-03</internalNodes>
          <leafValues>
            2.2270834445953369e-01 -1.5265893936157227e-01</leafValues></_></weakClassifiers></_>
    <!-- stage 6 -->
    <_>
      <maxWeakCount>39</maxWeakCount>
      <stageThreshold>-9.2764067649841309e-01</stageThreshold>
      <weakClassifiers>
        <_>
          <internalNodes>
            0 -1 859 9.5833674073219299e-02</internalNodes>
          <leafValues>
            2.3454698920249939e-01 8.8850176334381104e-01</leafValues></_>
        <_>
          <internalNodes>
            0 -1 1530 3.1888648867607117e-02</internalNodes>
          <leafValues>
            -1.6158750653266907e-01 3.8134455680847168e-01</leafValues></_>
        <_>
          <internalNodes>
            0 -1 126 -3.4397548437118530e-01</internalNodes>
          <leafValues>
            6.9627094268798828e-01 -1.2863868474960327e-01</leafValues></_>
        <_>
          <internalNodes>
            0 -1 73 -2.0612855255603790e-01</internalNodes>
          <leafValues>
            5.7189434766769409e-01 -1.2119014561176300e-01</leafValues></_>
        <_>
          <internalNodes>
            0 -1 1847 -6.0358215123414993e-03</internalNodes>
          <leafValues>
            -3.1509262323379517e-01 2.0004014670848846e-01</leafValues></_>
        <_>
          <internalNodes>
            0 -1 520 -6.1286590062081814e-03</internalNodes>
          <leafValues>
            -3.1443575024604797e-01 1.7526292800903320e-01</leafValues></_>
        <_>
          <internalNodes>
            0 -1 2120 -8.4648981690406799e-02</internalNodes>
          <leafValues>
            7.0473861694335938e-01 -7.6891444623470306e-02</leafValues></_>
        <_>
          <internalNodes>
            0 -1 1620 1.8385429680347443e-01</internalNodes>
          <leafValues>
            9.1077335178852081e-02 -7.3478847742080688e-01</leafValues></_>
        <_>
          <internalNodes>
            0 -1 2045 -7.2058560326695442e-03</internalNodes>
          <leafValues>
            -3.3023327589035034e-01 1.2415021657943726e-01</leafValues></_>
        <_>
          <internalNodes>
            0 -1 1467 -2.4474249780178070e-01</internalNodes>
          <leafValues>
            -6.3548499345779419e-01 8.2848235964775085e-02</leafValues></_>
        <_>
          <internalNodes>
            0 -1 1283 -1.7017774283885956e-02</internalNodes>
          <leafValues>
            -3.0436512827873230e-01 1.6173300147056580e-01</leafValues></_>
        <_>
          <internalNodes>
            0 -1 577 -1.6332021355628967e-01</internalNodes>
          <leafValues>
            6.0394150018692017e-01 -8.6208105087280273e-02</leafValues></_>
        <_>
          <internalNodes>
            0 -1 1597 2.2832849621772766e-01</internalNodes>
          <leafValues>
            -5.3509537130594254e-02 6.9766110181808472e-01</leafValues></_>
        <_>
          <internalNodes>
            0 -1 1602 3.5685695707798004e-02</internalNodes>
          <leafValues>
            8.3179362118244171e-02 -7.5102740526199341e-01</leafValues></_>
        <_>
          <internalNodes>
            0 -1 1665 -1.0056450963020325e-01</internalNodes>
          <leafValues>
            6.9224375486373901e-01 -7.6965548098087311e-02</leafValues></_>
        <_>
          <internalNodes>
            0 -1 1927 -2.2718358784914017e-02</internalNodes>
          <leafValues>
            3.4972256422042847e-01 -1.1964289098978043e-01</leafValues></_>
        <_>
          <internalNodes>
            0 -1 289 2.3092699050903320e-01</internalNodes>
          <leafValues>
            -8.4165126085281372e-02 5.3403478860855103e-01</leafValues></_>
        <_>
          <internalNodes>
            0 -1 2083 -1.1332010850310326e-02</internalNodes>
          <leafValues>
            -3.2162168622016907e-01 1.4027620851993561e-01</leafValues></_>
        <_>
          <internalNodes>
            0 -1 452 -1.7167668044567108e-01</internalNodes>
          <leafValues>
            -3.7409687042236328e-01 1.2121886014938354e-01</leafValues></_>
        <_>
          <internalNodes>
            0 -1 1502 4.4316826388239861e-03</internalNodes>
          <leafValues>
            2.1427752077579498e-01 -2.7194547653198242e-01</leafValues></_>
        <_>
          <internalNodes>
            0 -1 1635 2.4760019034147263e-02</internalNodes>
          <leafValues>
            6.6225342452526093e-02 -6.4803248643875122e-01</leafValues></_>
        <_>
          <internalNodes>
            0 -1 1606 2.1526660770177841e-02</internalNodes>
          <leafValues>
            8.5192322731018066e-02 -5.6682229042053223e-01</leafValues></_>
        <_>
          <internalNodes>
            0 -1 863 2.3777630925178528e-01</internalNodes>
          <leafValues>
            -5.7642254978418350e-02 8.5482698678970337e-01</leafValues></_>
        <_>
          <internalNodes>
            0 -1 1965 -1.5617727302014828e-02</internalNodes>
          <leafValues>
            -3.9415284991264343e-01 1.2115314602851868e-01</leafValues></_>
        <_>
          <internalNodes>
            0 -1 1589 -2.2807250916957855e-01</internalNodes>
          <leafValues>
            -5.4086792469024658e-01 7.1471452713012695e-02</leafValues></_>
        <_>
          <internalNodes>
            0 -1 1939 1.4784052036702633e-03</internalNodes>
          <leafValues>
            1.7900186777114868e-01 -2.2937020659446716e-01</leafValues></_>
        <_>
          <internalNodes>
            0 -1 102 -4.0752291679382324e-01</internalNodes>
          <leafValues>
            7.1969032287597656e-01 -6.3576735556125641e-02</leafValues></_>
        <_>
          <internalNodes>
            0 -1 66 2.9449042677879333e-01</internalNodes>
          <leafValues>
            -3.1458761543035507e-02 9.2558962106704712e-01</leafValues></_>
        <_>
          <internalNodes>
            0 -1 174 6.4322692342102528e-03</internalNodes>
          <leafValues>
            1.4636725187301636e-01 -3.0052059888839722e-01</leafValues></_>
        <_>
          <internalNodes>
            0 -1 706 4.5241255313158035e-02</internalNodes>
          <leafValues>
            -9.7223512828350067e-02 4.0481364727020264e-01</leafValues></_>
        <_>
          <internalNodes>
            0 -1 13 6.1329007148742676e-03</internalNodes>
          <leafValues>
            1.6910429298877716e-01 -2.4051751196384430e-01</leafValues></_>
        <_>
          <internalNodes>
            0 -1 1468 3.3321529626846313e-02</internalNodes>
          <leafValues>
            -9.5044448971748352e-02 4.0614923834800720e-01</leafValues></_>
        <_>
          <internalNodes>
            0 -1 1476 -4.4978775084018707e-02</internalNodes>
          <leafValues>
            4.7342765331268311e-01 -1.0983642935752869e-01</leafValues></_>
        <_>
          <internalNodes>
            0 -1 134 -4.3205964565277100e-01</internalNodes>
          <leafValues>
            6.8051284551620483e-01 -4.5831549912691116e-02</leafValues></_>
        <_>
          <internalNodes>
            0 -1 182 8.0800034105777740e-02</internalNodes>
          <leafValues>
            -8.7057314813137054e-02 4.1119563579559326e-01</leafValues></_>
        <_>
          <internalNodes>
            0 -1 2002 4.8513270914554596e-02</internalNodes>
          <leafValues>
            -1.4082914590835571e-01 3.0426248908042908e-01</leafValues></_>
        <_>
          <internalNodes>
            0 -1 1488 3.1299956142902374e-02</internalNodes>
          <leafValues>
            5.7424481958150864e-02 -8.1638675928115845e-01</leafValues></_>
        <_>
          <internalNodes>
            0 -1 604 -8.1078752875328064e-02</internalNodes>
          <leafValues>
            6.7704641819000244e-01 -6.9169476628303528e-02</leafValues></_>
        <_>
          <internalNodes>
            0 -1 1275 -4.6880386769771576e-02</internalNodes>
          <leafValues>
            3.9453792572021484e-01 -7.7922388911247253e-02</leafValues></_></weakClassifiers></_>
    <!-- stage 7 -->
    <_>
      <maxWeakCount>45</maxWeakCount>
      <stageThreshold>-9.7161954641342163e-01</stageThreshold>
      <weakClassifiers>
        <_>
          <internalNodes>
            0 -1 1071 5.9574842453002930e-02</internalNodes>
          <leafValues>
            2.6332795619964600e-01 8.9565217494964600e-01</leafValues></_>
        <_>
          <internalNodes>
            0 -1 874 -4.3603450059890747e-02</internalNodes>
          <leafValues>
            4.6455982327461243e-01 -1.0479178279638290e-01</leafValues></_>
        <_>
          <internalNodes>
            0 -1 767 -2.5131791830062866e-01</internalNodes>
          <leafValues>
            5.3413838148117065e-01 -1.1030670255422592e-01</leafValues></_>
        <_>
          <internalNodes>
            0 -1 721 -2.4368208646774292e-01</internalNodes>
          <leafValues>
            6.8651157617568970e-01 -1.0060811787843704e-01</leafValues></_>
        <_>
          <internalNodes>
            0 -1 1117 -1.2506571412086487e-01</internalNodes>
          <leafValues>
            -3.8319566845893860e-01 1.5663833916187286e-01</leafValues></_>
        <_>
          <internalNodes>
            0 -1 2160 3.6738656461238861e-02</internalNodes>
          <leafValues>
            -1.0160104930400848e-01 5.7406663894653320e-01</leafValues></_>
        <_>
          <internalNodes>
            0 -1 1934 1.4584168791770935e-01</internalNodes>
          <leafValues>
            -9.6875585615634918e-02 4.7812151908874512e-01</leafValues></_>
        <_>
          <internalNodes>
            0 -1 710 -2.5764065980911255e-01</internalNodes>
          <leafValues>
            -6.3611513376235962e-01 8.0314800143241882e-02</leafValues></_>
        <_>
          <internalNodes>
            0 -1 1965 -6.0554798692464828e-03</internalNodes>
          <leafValues>
            -3.0986288189888000e-01 1.3645347952842712e-01</leafValues></_>
        <_>
          <internalNodes>
            0 -1 2043 -2.0996242761611938e-01</internalNodes>
          <leafValues>
            -7.0410877466201782e-01 5.5004730820655823e-02</leafValues></_>
        <_>
          <internalNodes>
            0 -1 818 -7.6119005680084229e-02</internalNodes>
          <leafValues>
            4.2717179656028748e-01 -9.8785310983657837e-02</leafValues></_>
        <_>
          <internalNodes>
            0 -1 1372 -2.4008093401789665e-02</internalNodes>
          <leafValues>
            3.0880439281463623e-01 -1.3449366390705109e-01</leafValues></_>
        <_>
          <internalNodes>
            0 -1 1485 -1.1516334488987923e-02</internalNodes>
          <leafValues>
            -4.5075133442878723e-01 1.0767843574285507e-01</leafValues></_>
        <_>
          <internalNodes>
            0 -1 403 1.7831659317016602e-01</internalNodes>
          <leafValues>
            -8.3059780299663544e-02 5.0600594282150269e-01</leafValues></_>
        <_>
          <internalNodes>
            0 -1 1779 -7.5896391645073891e-03</internalNodes>
          <leafValues>
            3.0864581465721130e-01 -1.3665764033794403e-01</leafValues></_>
        <_>
          <internalNodes>
            0 -1 288 -2.2641927003860474e-01</internalNodes>
          <leafValues>
            6.5216922760009766e-01 -6.5028786659240723e-02</leafValues></_>
        <_>
          <internalNodes>
            0 -1 1439 1.1655459180474281e-02</internalNodes>
          <leafValues>
            1.0808547586202621e-01 -3.4387797117233276e-01</leafValues></_>
        <_>
          <internalNodes>
            0 -1 1122 -2.2868308424949646e-01</internalNodes>
          <leafValues>
            -6.7556780576705933e-01 5.4499879479408264e-02</leafValues></_>
        <_>
          <internalNodes>
            0 -1 397 9.5859602093696594e-02</internalNodes>
          <leafValues>
            -4.7179501503705978e-02 7.7558845281600952e-01</leafValues></_>
        <_>
          <internalNodes>
            0 -1 1966 5.1604667678475380e-03</internalNodes>
          <leafValues>
            1.4999707043170929e-01 -2.2109526395797729e-01</leafValues></_>
        <_>
          <internalNodes>
            0 -1 1912 6.7431464791297913e-02</internalNodes>
          <leafValues>
            4.6644233167171478e-02 -6.8448722362518311e-01</leafValues></_>
        <_>
          <internalNodes>
            0 -1 1528 4.9787133932113647e-02</internalNodes>
          <leafValues>
            -9.3087300658226013e-02 3.8831895589828491e-01</leafValues></_>
        <_>
          <internalNodes>
            0 -1 1546 3.8187533617019653e-02</internalNodes>
          <leafValues>
            6.9896325469017029e-02 -5.2411061525344849e-01</leafValues></_>
        <_>
          <internalNodes>
            0 -1 564 -1.4842447638511658e-01</internalNodes>
          <leafValues>
            4.6775415539741516e-01 -7.5037173926830292e-02</leafValues></_>
        <_>
          <internalNodes>
            0 -1 714 -2.2660461068153381e-01</internalNodes>
          <leafValues>
            -5.4693049192428589e-01 7.5896605849266052e-02</leafValues></_>
        <_>
          <internalNodes>
            0 -1 136 2.1899294108152390e-02</internalNodes>
          <leafValues>
            5.7906642556190491e-02 -5.2701193094253540e-01</leafValues></_>
        <_>
          <internalNodes>
            0 -1 339 1.5406876336783171e-03</internalNodes>
          <leafValues>
            1.4884001016616821e-01 -2.0474909245967865e-01</leafValues></_>
        <_>
          <internalNodes>
            0 -1 441 1.2366802245378494e-01</internalNodes>
          <leafValues>
            -7.7007591724395752e-02 4.0506953001022339e-01</leafValues></_>
        <_>
          <internalNodes>
            0 -1 1397 3.1035382300615311e-02</internalNodes>
          <leafValues>
            -8.0615602433681488e-02 3.8762468099594116e-01</leafValues></_>
        <_>
          <internalNodes>
            0 -1 1181 1.1488584801554680e-02</internalNodes>
          <leafValues>
            -1.3211964070796967e-01 2.4787862598896027e-01</leafValues></_>
        <_>
          <internalNodes>
            0 -1 681 -7.9518295824527740e-03</internalNodes>
          <leafValues>
            -2.2838477790355682e-01 1.4264519512653351e-01</leafValues></_>
        <_>
          <internalNodes>
            0 -1 1350 -1.8584236502647400e-01</internalNodes>
          <leafValues>
            7.0747214555740356e-01 -5.1602706313133240e-02</leafValues></_>
        <_>
          <internalNodes>
            0 -1 1342 3.5096265375614166e-02</internalNodes>
          <leafValues>
            -8.1394225358963013e-02 3.4324848651885986e-01</leafValues></_>
        <_>
          <internalNodes>
            0 -1 2161 -6.1904983595013618e-03</internalNodes>
          <leafValues>
            -2.1381628513336182e-01 1.5675207972526550e-01</leafValues></_>
        <_>
          <internalNodes>
            0 -1 2177 -2.7928862720727921e-02</internalNodes>
          <leafValues>
            3.6093148589134216e-01 -8.9775830507278442e-02</leafValues></_>
        <_>
          <internalNodes>
            0 -1 0 2.1490440703928471e-03</internalNodes>
          <leafValues>
            1.4288227260112762e-01 -2.3387105762958527e-01</leafValues></_>
        <_>
          <internalNodes>
            0 -1 2 -3.2621342688798904e-03</internalNodes>
          <leafValues>
            -2.3547440767288208e-01 1.7715178430080414e-01</leafValues></_>
        <_>
          <internalNodes>
            0 -1 940 -6.4440757036209106e-02</internalNodes>
          <leafValues>
            9.3180513381958008e-01 -3.5125959664583206e-02</leafValues></_>
        <_>
          <internalNodes>
            0 -1 2 9.6976161003112793e-03</internalNodes>
          <leafValues>
            1.2279454618692398e-01 -2.9680699110031128e-01</leafValues></_>
        <_>
          <internalNodes>
            0 -1 871 4.6687297523021698e-02</internalNodes>
          <leafValues>
            -8.3957523107528687e-02 4.1248601675033569e-01</leafValues></_>
        <_>
          <internalNodes>
            0 -1 396 -5.2652889490127563e-01</internalNodes>
          <leafValues>
            -6.1141639947891235e-01 6.3484229147434235e-02</leafValues></_>
        <_>
          <internalNodes>
            0 -1 1695 -3.2900180667638779e-02</internalNodes>
          <leafValues>
            -2.6652485132217407e-01 1.3029292225837708e-01</leafValues></_>
        <_>
          <internalNodes>
            0 -1 1067 -9.8375871777534485e-02</internalNodes>
          <leafValues>
            -3.9673343300819397e-01 1.1101955175399780e-01</leafValues></_>
        <_>
          <internalNodes>
            0 -1 1275 -3.6515645682811737e-02</internalNodes>
          <leafValues>
            3.2916760444641113e-01 -1.2756767868995667e-01</leafValues></_>
        <_>
          <internalNodes>
            0 -1 155 -2.3445944488048553e-01</internalNodes>
          <leafValues>
            6.8527221679687500e-01 -5.6056335568428040e-02</leafValues></_></weakClassifiers></_>
    <!-- stage 8 -->
    <_>
      <maxWeakCount>51</maxWeakCount>
      <stageThreshold>-7.1306765079498291e-01</stageThreshold>
      <weakClassifiers>
        <_>
          <internalNodes>
            0 -1 971 7.2636544704437256e-02</internalNodes>
          <leafValues>
            2.4666072428226471e-01 7.3913043737411499e-01</leafValues></_>
        <_>
          <internalNodes>
            0 -1 1528 3.2011114060878754e-02</internalNodes>
          <leafValues>
            -1.2504908442497253e-01 3.5052061080932617e-01</leafValues></_>
        <_>
          <internalNodes>
            0 -1 725 -1.0062669217586517e-01</internalNodes>
          <leafValues>
            4.6282747387886047e-01 -1.5065540373325348e-01</leafValues></_>
        <_>
          <internalNodes>
            0 -1 2062 -5.3787514567375183e-02</internalNodes>
          <leafValues>
            3.5507765412330627e-01 -8.8842555880546570e-02</leafValues></_>
        <_>
          <internalNodes>
            0 -1 1582 4.9371004104614258e-02</internalNodes>
          <leafValues>
            -8.3741605281829834e-02 5.4777348041534424e-01</leafValues></_>
        <_>
          <internalNodes>
            0 -1 2084 4.4951671734452248e-03</internalNodes>
          <leafValues>
            1.3423979282379150e-01 -2.6896634697914124e-01</leafValues></_>
        <_>
          <internalNodes>
            0 -1 633 -9.0758666396141052e-02</internalNodes>
          <leafValues>
            8.5165840387344360e-01 -4.5611958950757980e-02</leafValues></_>
        <_>
          <internalNodes>
            0 -1 1521 2.7316249907016754e-02</internalNodes>
          <leafValues>
            6.5295614302158356e-02 -5.5866944789886475e-01</leafValues></_>
        <_>
          <internalNodes>
            0 -1 1734 -1.2777277827262878e-01</internalNodes>
          <leafValues>
            -5.1318961381912231e-01 6.4105890691280365e-02</leafValues></_>
        <_>
          <internalNodes>
            0 -1 2121 -7.5752481818199158e-02</internalNodes>
          <leafValues>
            4.2473936080932617e-01 -8.1056825816631317e-02</leafValues></_>
        <_>
          <internalNodes>
            0 -1 570 2.9623535275459290e-01</internalNodes>
          <leafValues>
            -7.0205479860305786e-02 5.0585472583770752e-01</leafValues></_>
        <_>
          <internalNodes>
            0 -1 626 3.3016246557235718e-01</internalNodes>
          <leafValues>
            -2.8198981657624245e-02 1.</leafValues></_>
        <_>
          <internalNodes>
            0 -1 67 4.8047316074371338e-01</internalNodes>
          <leafValues>
            -3.9924155920743942e-02 5.9038132429122925e-01</leafValues></_>
        <_>
          <internalNodes>
            0 -1 795 1.8382120132446289e-01</internalNodes>
          <leafValues>
            7.9170495271682739e-02 -3.8787665963172913e-01</leafValues></_>
        <_>
          <internalNodes>
            0 -1 383 1.4949735999107361e-01</internalNodes>
          <leafValues>
            7.4769072234630585e-02 -4.7671821713447571e-01</leafValues></_>
        <_>
          <internalNodes>
            0 -1 1303 -9.4071868807077408e-03</internalNodes>
          <leafValues>
            -2.8280410170555115e-01 1.3345411419868469e-01</leafValues></_>
        <_>
          <internalNodes>
            0 -1 1449 -6.0924314893782139e-03</internalNodes>
          <leafValues>
            2.1446108818054199e-01 -1.8097658455371857e-01</leafValues></_>
        <_>
          <internalNodes>
            0 -1 1546 5.0465982407331467e-02</internalNodes>
          <leafValues>
            4.6168297529220581e-02 -7.7439802885055542e-01</leafValues></_>
        <_>
          <internalNodes>
            0 -1 1524 3.3470336347818375e-02</internalNodes>
          <leafValues>
            -1.7379568517208099e-01 1.7099118232727051e-01</leafValues></_>
        <_>
          <internalNodes>
            0 -1 79 -1.5614490257576108e-03</internalNodes>
          <leafValues>
            -1.9205369055271149e-01 1.6663570702075958e-01</leafValues></_>
        <_>
          <internalNodes>
            0 -1 1184 6.6598886623978615e-03</internalNodes>
          <leafValues>
            1.5012247860431671e-01 -2.1301321685314178e-01</leafValues></_>
        <_>
          <internalNodes>
            0 -1 2020 2.7222875505685806e-02</internalNodes>
          <leafValues>
            -7.8352048993110657e-02 3.7385553121566772e-01</leafValues></_>
        <_>
          <internalNodes>
            0 -1 77 4.3169520795345306e-03</internalNodes>
          <leafValues>
            1.1502521485090256e-01 -2.4674898386001587e-01</leafValues></_>
        <_>
          <internalNodes>
            0 -1 806 -7.6742336153984070e-02</internalNodes>
          <leafValues>
            6.7156732082366943e-01 -3.9212312549352646e-02</leafValues></_>
        <_>
          <internalNodes>
            0 -1 822 -1.5070270746946335e-02</internalNodes>
          <leafValues>
            -3.0974075198173523e-01 1.0569285601377487e-01</leafValues></_>
        <_>
          <internalNodes>
            0 -1 668 -9.2466831207275391e-02</internalNodes>
          <leafValues>
            3.9566540718078613e-01 -7.1536250412464142e-02</leafValues></_>
        <_>
          <internalNodes>
            0 -1 929 3.5783346742391586e-02</internalNodes>
          <leafValues>
            -1.1437688767910004e-01 3.2641533017158508e-01</leafValues></_>
        <_>
          <internalNodes>
            0 -1 1632 1.2646049261093140e-02</internalNodes>
          <leafValues>
            8.6965166032314301e-02 -3.5576477646827698e-01</leafValues></_>
        <_>
          <internalNodes>
            0 -1 1561 -6.2824459746479988e-03</internalNodes>
          <leafValues>
            -2.5541102886199951e-01 1.0001002997159958e-01</leafValues></_>
        <_>
          <internalNodes>
            0 -1 1964 -8.7995119392871857e-03</internalNodes>
          <leafValues>
            -3.2881847023963928e-01 8.2752868533134460e-02</leafValues></_>
        <_>
          <internalNodes>
            0 -1 1870 -5.3534200415015221e-03</internalNodes>
          <leafValues>
            -2.0280340313911438e-01 1.4235183596611023e-01</leafValues></_>
        <_>
          <internalNodes>
            0 -1 1868 2.9603829607367516e-03</internalNodes>
          <leafValues>
            1.4534497261047363e-01 -2.4666841328144073e-01</leafValues></_>
        <_>
          <internalNodes>
            0 -1 1780 -6.2078796327114105e-02</internalNodes>
          <leafValues>
            9.0505582094192505e-01 -3.3825471997261047e-02</leafValues></_>
        <_>
          <internalNodes>
            0 -1 1328 2.1624913439154625e-02</internalNodes>
          <leafValues>
            -8.8361576199531555e-02 2.7525195479393005e-01</leafValues></_>
        <_>
          <internalNodes>
            0 -1 1381 -8.1827253103256226e-02</internalNodes>
          <leafValues>
            -6.4735794067382812e-01 4.6821765601634979e-02</leafValues></_>
        <_>
          <internalNodes>
            0 -1 1259 1.5928189456462860e-01</internalNodes>
          <leafValues>
            7.2438128292560577e-02 -3.9689368009567261e-01</leafValues></_>
        <_>
          <internalNodes>
            0 -1 1443 5.9343732893466949e-02</internalNodes>
          <leafValues>
            -1.2585802376270294e-01 2.6514348387718201e-01</leafValues></_>
        <_>
          <internalNodes>
            0 -1 2142 -2.6463113725185394e-02</internalNodes>
          <leafValues>
            5.1540809869766235e-01 -5.6579928845167160e-02</leafValues></_>
        <_>
          <internalNodes>
            0 -1 71 3.4937918186187744e-01</internalNodes>
          <leafValues>
            -5.4341744631528854e-02 5.0605857372283936e-01</leafValues></_>
        <_>
          <internalNodes>
            0 -1 1707 -2.1143184974789619e-02</internalNodes>
          <leafValues>
            2.2918771207332611e-01 -1.3624991476535797e-01</leafValues></_>
        <_>
          <internalNodes>
            0 -1 996 8.9165568351745605e-02</internalNodes>
          <leafValues>
            -7.6728880405426025e-02 3.4815621376037598e-01</leafValues></_>
        <_>
          <internalNodes>
            0 -1 599 7.3673106729984283e-02</internalNodes>
          <leafValues>
            -6.5113767981529236e-02 3.9894819259643555e-01</leafValues></_>
        <_>
          <internalNodes>
            0 -1 1039 -1.3570028543472290e-01</internalNodes>
          <leafValues>
            -5.7400184869766235e-01 5.1723804324865341e-02</leafValues></_>
        <_>
          <internalNodes>
            0 -1 174 8.2108546048402786e-03</internalNodes>
          <leafValues>
            9.7076401114463806e-02 -2.7939862012863159e-01</leafValues></_>
        <_>
          <internalNodes>
            0 -1 139 -8.4856450557708740e-02</internalNodes>
          <leafValues>
            6.1877000331878662e-01 -4.6109393239021301e-02</leafValues></_>
        <_>
          <internalNodes>
            0 -1 839 7.8945934772491455e-02</internalNodes>
          <leafValues>
            -4.6816255897283554e-02 4.9076226353645325e-01</leafValues></_>
        <_>
          <internalNodes>
            0 -1 355 4.0866780281066895e-01</internalNodes>
          <leafValues>
            -5.5212218314409256e-02 4.6869948506355286e-01</leafValues></_>
        <_>
          <internalNodes>
            0 -1 1174 7.6078325510025024e-02</internalNodes>
          <leafValues>
            9.4293065369129181e-02 -3.4982460737228394e-01</leafValues></_>
        <_>
          <internalNodes>
            0 -1 729 -8.5524171590805054e-03</internalNodes>
          <leafValues>
            -2.5025522708892822e-01 1.1187298595905304e-01</leafValues></_>
        <_>
          <internalNodes>
            0 -1 1519 -4.1573075577616692e-03</internalNodes>
          <leafValues>
            -2.2172665596008301e-01 1.2244809418916702e-01</leafValues></_>
        <_>
          <internalNodes>
            0 -1 1521 2.4683000519871712e-03</internalNodes>
          <leafValues>
            1.4390486478805542e-01 -1.8683485686779022e-01</leafValues></_></weakClassifiers></_>
    <!-- stage 9 -->
    <_>
      <maxWeakCount>57</maxWeakCount>
      <stageThreshold>-7.8650826215744019e-01</stageThreshold>
      <weakClassifiers>
        <_>
          <internalNodes>
            0 -1 1530 4.1000790894031525e-02</internalNodes>
          <leafValues>
            1.8820860981941223e-01 6.2457334995269775e-01</leafValues></_>
        <_>
          <internalNodes>
            0 -1 1088 1.1219093203544617e-01</internalNodes>
          <leafValues>
            -6.1368878930807114e-02 5.8861005306243896e-01</leafValues></_>
        <_>
          <internalNodes>
            0 -1 2132 2.6346612721681595e-02</internalNodes>
          <leafValues>
            -1.3345134258270264e-01 3.2027250528335571e-01</leafValues></_>
        <_>
          <internalNodes>
            0 -1 2084 -8.6166895925998688e-03</internalNodes>
          <leafValues>
            -3.3239141106605530e-01 9.8486483097076416e-02</leafValues></_>
        <_>
          <internalNodes>
            0 -1 1895 2.9697544872760773e-02</internalNodes>
          <leafValues>
            1.1392636597156525e-01 -3.1939607858657837e-01</leafValues></_>
        <_>
          <internalNodes>
            0 -1 657 -2.7238264679908752e-02</internalNodes>
          <leafValues>
            3.9872866868972778e-01 -1.0122504830360413e-01</leafValues></_>
        <_>
          <internalNodes>
            0 -1 121 3.1809824705123901e-01</internalNodes>
          <leafValues>
            -5.0025481730699539e-02 6.1294698715209961e-01</leafValues></_>
        <_>
          <internalNodes>
            0 -1 1320 -4.5719365589320660e-03</internalNodes>
          <leafValues>
            -2.5873517990112305e-01 1.5119419991970062e-01</leafValues></_>
        <_>
          <internalNodes>
            0 -1 1847 1.6679547727108002e-02</internalNodes>
          <leafValues>
            -1.6439750790596008e-01 2.3824079334735870e-01</leafValues></_>
        <_>
          <internalNodes>
            0 -1 1747 -2.3670804500579834e-01</internalNodes>
          <leafValues>
            5.3526854515075684e-01 -6.9975130259990692e-02</leafValues></_>
        <_>
          <internalNodes>
            0 -1 1050 -3.4646920859813690e-02</internalNodes>
          <leafValues>
            4.7352012991905212e-01 -6.7482925951480865e-02</leafValues></_>
        <_>
          <internalNodes>
            0 -1 407 -1.4797606505453587e-02</internalNodes>
          <leafValues>
            2.1844585239887238e-01 -1.7276072502136230e-01</leafValues></_>
        <_>
          <internalNodes>
            0 -1 1060 5.6064430624246597e-02</internalNodes>
          <leafValues>
            -1.0932645946741104e-01 3.3075028657913208e-01</leafValues></_>
        <_>
          <internalNodes>
            0 -1 1444 -4.5797061175107956e-02</internalNodes>
          <leafValues>
            5.2970808744430542e-01 -5.7571679353713989e-02</leafValues></_>
        <_>
          <internalNodes>
            0 -1 1359 -2.0622429437935352e-03</internalNodes>
          <leafValues>
            1.7461058497428894e-01 -1.9831395149230957e-01</leafValues></_>
        <_>
          <internalNodes>
            0 -1 1538 1.2176852673292160e-02</internalNodes>
          <leafValues>
            1.4971311390399933e-01 -2.0874735713005066e-01</leafValues></_>
        <_>
          <internalNodes>
            0 -1 817 7.8380756080150604e-02</internalNodes>
          <leafValues>
            -7.5595319271087646e-02 4.0451562404632568e-01</leafValues></_>
        <_>
          <internalNodes>
            0 -1 1521 -3.6738902330398560e-02</internalNodes>
          <leafValues>
            -6.1178827285766602e-01 5.4861918091773987e-02</leafValues></_>
        <_>
          <internalNodes>
            0 -1 31 -6.0727443546056747e-02</internalNodes>
          <leafValues>
            -4.5893704891204834e-01 5.6968260556459427e-02</leafValues></_>
        <_>
          <internalNodes>
            0 -1 140 4.8117544502019882e-03</internalNodes>
          <leafValues>
            1.4545778930187225e-01 -2.3440356552600861e-01</leafValues></_>
        <_>
          <internalNodes>
            0 -1 1632 -3.9990930818021297e-03</internalNodes>
          <leafValues>
            -2.9632520675659180e-01 1.1848647892475128e-01</leafValues></_>
        <_>
          <internalNodes>
            0 -1 469 -1.1403696238994598e-01</internalNodes>
          <leafValues>
            8.1680440902709961e-01 -3.7853460758924484e-02</leafValues></_>
        <_>
          <internalNodes>
            0 -1 1596 1.2521165609359741e-01</internalNodes>
          <leafValues>
            -3.6283355206251144e-02 6.0002052783966064e-01</leafValues></_>
        <_>
          <internalNodes>
            0 -1 1901 -1.9000403583049774e-02</internalNodes>
          <leafValues>
            2.3357816040515900e-01 -1.4181132614612579e-01</leafValues></_>
        <_>
          <internalNodes>
            0 -1 1457 -4.0328361093997955e-02</internalNodes>
          <leafValues>
            -3.3839088678359985e-01 1.0273023694753647e-01</leafValues></_>
        <_>
          <internalNodes>
            0 -1 759 4.8662358522415161e-01</internalNodes>
          <leafValues>
            3.5969428718090057e-02 -8.3947241306304932e-01</leafValues></_>
        <_>
          <internalNodes>
            0 -1 2056 1.7017822712659836e-02</internalNodes>
          <leafValues>
            9.8975792527198792e-02 -2.7748957276344299e-01</leafValues></_>
        <_>
          <internalNodes>
            0 -1 1933 -7.8878507018089294e-02</internalNodes>
          <leafValues>
            3.7154227495193481e-01 -7.8784644603729248e-02</leafValues></_>
        <_>
          <internalNodes>
            0 -1 2083 -5.7856090366840363e-02</internalNodes>
          <leafValues>
            8.7730914354324341e-01 -3.0590984970331192e-02</leafValues></_>
        <_>
          <internalNodes>
            0 -1 260 -5.5005806498229504e-03</internalNodes>
          <leafValues>
            -1.8990640342235565e-01 1.4385893940925598e-01</leafValues></_>
        <_>
          <internalNodes>
            0 -1 2122 -1.0268305242061615e-01</internalNodes>
          <leafValues>
            7.3631292581558228e-01 -3.7697568535804749e-02</leafValues></_>
        <_>
          <internalNodes>
            0 -1 1534 4.1047763079404831e-02</internalNodes>
          <leafValues>
            7.0154204964637756e-02 -5.1132977008819580e-01</leafValues></_>
        <_>
          <internalNodes>
            0 -1 394 -4.4927620887756348e-01</internalNodes>
          <leafValues>
            -5.3398108482360840e-01 5.1912002265453339e-02</leafValues></_>
        <_>
          <internalNodes>
            0 -1 536 2.2098077461123466e-02</internalNodes>
          <leafValues>
            1.0817171633243561e-01 -2.9806557297706604e-01</leafValues></_>
        <_>
          <internalNodes>
            0 -1 455 -3.1099629402160645e-01</internalNodes>
          <leafValues>
            -3.8458684086799622e-01 8.7340682744979858e-02</leafValues></_>
        <_>
          <internalNodes>
            0 -1 1855 -1.5425584279000759e-02</internalNodes>
          <leafValues>
            3.2763162255287170e-01 -9.3970306217670441e-02</leafValues></_>
        <_>
          <internalNodes>
            0 -1 1661 1.4547514915466309e-01</internalNodes>
          <leafValues>
            4.2284470051527023e-02 -6.8807333707809448e-01</leafValues></_>
        <_>
          <internalNodes>
            0 -1 961 -3.0539861321449280e-01</internalNodes>
          <leafValues>
            -7.9466766119003296e-01 2.7233796194195747e-02</leafValues></_>
        <_>
          <internalNodes>
            0 -1 519 -1.1717717163264751e-02</internalNodes>
          <leafValues>
            -3.4799340367317200e-01 7.8274585306644440e-02</leafValues></_>
        <_>
          <internalNodes>
            0 -1 683 3.0099872499704361e-02</internalNodes>
          <leafValues>
            -9.1565310955047607e-02 3.2509577274322510e-01</leafValues></_>
        <_>
          <internalNodes>
            0 -1 71 -3.1145006418228149e-01</internalNodes>
          <leafValues>
            4.4984039664268494e-01 -6.8849407136440277e-02</leafValues></_>
        <_>
          <internalNodes>
            0 -1 1605 1.1982336640357971e-02</internalNodes>
          <leafValues>
            -1.6687771677970886e-01 1.7748571932315826e-01</leafValues></_>
        <_>
          <internalNodes>
            0 -1 765 6.0522347688674927e-02</internalNodes>
          <leafValues>
            -1.1676289141178131e-01 2.7276173233985901e-01</leafValues></_>
        <_>
          <internalNodes>
            0 -1 1810 -8.1112957559525967e-04</internalNodes>
          <leafValues>
            -1.9116376340389252e-01 1.4681811630725861e-01</leafValues></_>
        <_>
          <internalNodes>
            0 -1 149 -1.0141249001026154e-01</internalNodes>
          <leafValues>
            -3.0110239982604980e-01 8.9174300432205200e-02</leafValues></_>
        <_>
          <internalNodes>
            0 -1 367 3.7945287767797709e-03</internalNodes>
          <leafValues>
            1.3238842785358429e-01 -2.1958826482295990e-01</leafValues></_>
        <_>
          <internalNodes>
            0 -1 308 -1.2752267718315125e-01</internalNodes>
          <leafValues>
            4.2125332355499268e-01 -6.5061204135417938e-02</leafValues></_>
        <_>
          <internalNodes>
            0 -1 1131 1.8798641860485077e-02</internalNodes>
          <leafValues>
            7.2740875184535980e-02 -4.4095486402511597e-01</leafValues></_>
        <_>
          <internalNodes>
            0 -1 317 1.7560109496116638e-01</internalNodes>
          <leafValues>
            7.5973339378833771e-02 -3.8860973715782166e-01</leafValues></_>
        <_>
          <internalNodes>
            0 -1 2125 -5.8755565434694290e-02</internalNodes>
          <leafValues>
            6.5844219923019409e-01 -4.5244686305522919e-02</leafValues></_>
        <_>
          <internalNodes>
            0 -1 1340 4.3528389185667038e-02</internalNodes>
          <leafValues>
            -9.7241200506687164e-02 2.8798535466194153e-01</leafValues></_>
        <_>
          <internalNodes>
            0 -1 873 5.0063915550708771e-02</internalNodes>
          <leafValues>
            -7.0504270493984222e-02 4.0123212337493896e-01</leafValues></_>
        <_>
          <internalNodes>
            0 -1 1243 6.1350718140602112e-02</internalNodes>
          <leafValues>
            4.6868365257978439e-02 -6.8575930595397949e-01</leafValues></_>
        <_>
          <internalNodes>
            0 -1 401 -1.7110782861709595e-01</internalNodes>
          <leafValues>
            5.9235000610351562e-01 -5.3221005946397781e-02</leafValues></_>
        <_>
          <internalNodes>
            0 -1 1965 -1.5129108913242817e-02</internalNodes>
          <leafValues>
            -3.3165434002876282e-01 8.2844629883766174e-02</leafValues></_>
        <_>
          <internalNodes>
            0 -1 1880 8.8264018297195435e-02</internalNodes>
          <leafValues>
            -3.5241175442934036e-02 8.7236338853836060e-01</leafValues></_>
        <_>
          <internalNodes>
            0 -1 678 2.4710331112146378e-02</internalNodes>
          <leafValues>
            -4.3103173375129700e-02 4.8698601126670837e-01</leafValues></_></weakClassifiers></_>
    <!-- stage 10 -->
    <_>
      <maxWeakCount>58</maxWeakCount>
      <stageThreshold>-8.7453144788742065e-01</stageThreshold>
      <weakClassifiers>
        <_>
          <internalNodes>
            0 -1 2120 -6.8423368036746979e-02</internalNodes>
          <leafValues>
            8.7214612960815430e-01 2.7301841974258423e-01</leafValues></_>
        <_>
          <internalNodes>
            0 -1 1769 -3.4446328878402710e-02</internalNodes>
          <leafValues>
            5.8065849542617798e-01 -4.5582514256238937e-02</leafValues></_>
        <_>
          <internalNodes>
            0 -1 487 3.4549064934253693e-02</internalNodes>
          <leafValues>
            -8.0212384462356567e-02 5.5347877740859985e-01</leafValues></_>
        <_>
          <internalNodes>
            0 -1 1786 3.2565709203481674e-02</internalNodes>
          <leafValues>
            -1.6041058301925659e-01 2.3649929463863373e-01</leafValues></_>
        <_>
          <internalNodes>
            0 -1 1971 -7.9510286450386047e-03</internalNodes>
          <leafValues>
            -2.8600606322288513e-01 1.2002183496952057e-01</leafValues></_>
        <_>
          <internalNodes>
            0 -1 1646 -2.7785181999206543e-02</internalNodes>
          <leafValues>
            -2.3858620226383209e-01 1.6666924953460693e-01</leafValues></_>
        <_>
          <internalNodes>
            0 -1 1963 -3.0373675748705864e-02</internalNodes>
          <leafValues>
            -4.0961602330207825e-01 8.1598915159702301e-02</leafValues></_>
        <_>
          <internalNodes>
            0 -1 1323 -2.8094016015529633e-02</internalNodes>
          <leafValues>
            5.6403011083602905e-01 -5.8776225894689560e-02</leafValues></_>
        <_>
          <internalNodes>
            0 -1 1436 3.3955525606870651e-02</internalNodes>
          <leafValues>
            -5.6996669620275497e-02 5.1005518436431885e-01</leafValues></_>
        <_>
          <internalNodes>
            0 -1 620 5.8854901790618896e-01</internalNodes>
          <leafValues>
            5.0644323229789734e-02 -6.0209226608276367e-01</leafValues></_>
        <_>
          <internalNodes>
            0 -1 1583 -1.8723193556070328e-02</internalNodes>
          <leafValues>
            -2.6016974449157715e-01 1.1550993472337723e-01</leafValues></_>
        <_>
          <internalNodes>
            0 -1 645 3.1820169091224670e-01</internalNodes>
          <leafValues>
            4.3516565114259720e-02 -6.4212661981582642e-01</leafValues></_>
        <_>
          <internalNodes>
            0 -1 682 -2.0323116332292557e-02</internalNodes>
          <leafValues>
            5.3419792652130127e-01 -6.1168078333139420e-02</leafValues></_>
        <_>
          <internalNodes>
            0 -1 204 2.6843706145882607e-03</internalNodes>
          <leafValues>
            1.5687446296215057e-01 -2.1967720985412598e-01</leafValues></_>
        <_>
          <internalNodes>
            0 -1 239 6.9207623600959778e-03</internalNodes>
          <leafValues>
            1.6113862395286560e-01 -2.0127880573272705e-01</leafValues></_>
        <_>
          <internalNodes>
            0 -1 1632 -1.3193937949836254e-02</internalNodes>
          <leafValues>
            -5.3266847133636475e-01 6.3751600682735443e-02</leafValues></_>
        <_>
          <internalNodes>
            0 -1 1489 2.3975240066647530e-02</internalNodes>
          <leafValues>
            -1.8903379142284393e-01 2.1039251983165741e-01</leafValues></_>
        <_>
          <internalNodes>
            0 -1 1254 1.3713786005973816e-01</internalNodes>
          <leafValues>
            5.9017755091190338e-02 -5.6660366058349609e-01</leafValues></_>
        <_>
          <internalNodes>
            0 -1 1748 -1.1780896782875061e-01</internalNodes>
          <leafValues>
            2.9087334871292114e-01 -1.2183788418769836e-01</leafValues></_>
        <_>
          <internalNodes>
            0 -1 2120 -5.6833423674106598e-02</internalNodes>
          <leafValues>
            4.9008324742317200e-01 -7.1739345788955688e-02</leafValues></_>
        <_>
          <internalNodes>
            0 -1 462 -5.0098605453968048e-02</internalNodes>
          <leafValues>
            9.5245826244354248e-01 -3.1322516500949860e-02</leafValues></_>
        <_>
          <internalNodes>
            0 -1 1923 1.1391308903694153e-01</internalNodes>
          <leafValues>
            5.9210397303104401e-02 -6.3133507966995239e-01</leafValues></_>
        <_>
          <internalNodes>
            0 -1 22 -3.1440079212188721e-02</internalNodes>
          <leafValues>
            -2.5975343585014343e-01 1.1215131729841232e-01</leafValues></_>
        <_>
          <internalNodes>
            0 -1 519 -8.4301903843879700e-03</internalNodes>
          <leafValues>
            -3.1040471792221069e-01 1.0495674610137939e-01</leafValues></_>
        <_>
          <internalNodes>
            0 -1 1949 1.6739252209663391e-01</internalNodes>
          <leafValues>
            -3.1149581074714661e-02 9.6274304389953613e-01</leafValues></_>
        <_>
          <internalNodes>
            0 -1 1864 2.8211131691932678e-02</internalNodes>
          <leafValues>
            -9.8231017589569092e-02 2.8798407316207886e-01</leafValues></_>
        <_>
          <internalNodes>
            0 -1 1474 -1.7312039434909821e-01</internalNodes>
          <leafValues>
            -6.0035693645477295e-01 4.7251254320144653e-02</leafValues></_>
        <_>
          <internalNodes>
            0 -1 1444 -3.9950452744960785e-02</internalNodes>
          <leafValues>
            4.2879688739776611e-01 -7.5838923454284668e-02</leafValues></_>
        <_>
          <internalNodes>
            0 -1 412 -3.0765742063522339e-01</internalNodes>
          <leafValues>
            8.0978834629058838e-01 -3.2973390072584152e-02</leafValues></_>
        <_>
          <internalNodes>
            0 -1 1652 -1.2286363169550896e-02</internalNodes>
          <leafValues>
            -3.2213553786277771e-01 1.1275051534175873e-01</leafValues></_>
        <_>
          <internalNodes>
            0 -1 1135 3.0664714053273201e-02</internalNodes>
          <leafValues>
            -1.0489176213741302e-01 2.6954737305641174e-01</leafValues></_>
        <_>
          <internalNodes>
            0 -1 2022 3.2328309025615454e-03</internalNodes>
          <leafValues>
            1.2264655530452728e-01 -2.5986599922180176e-01</leafValues></_>
        <_>
          <internalNodes>
            0 -1 2026 -5.3618531674146652e-03</internalNodes>
          <leafValues>
            -2.2490395605564117e-01 1.4947593212127686e-01</leafValues></_>
        <_>
          <internalNodes>
            0 -1 505 -8.9876517653465271e-02</internalNodes>
          <leafValues>
            -5.2492088079452515e-01 6.1218947172164917e-02</leafValues></_>
        <_>
          <internalNodes>
            0 -1 776 -2.3540632799267769e-02</internalNodes>
          <leafValues>
            3.4132984280586243e-01 -9.1896981000900269e-02</leafValues></_>
        <_>
          <internalNodes>
            0 -1 462 3.0295960605144501e-02</internalNodes>
          <leafValues>
            -7.2377093136310577e-02 4.3297147750854492e-01</leafValues></_>
        <_>
          <internalNodes>
            0 -1 1060 -1.1974532902240753e-01</internalNodes>
          <leafValues>
            9.2728489637374878e-01 -2.8436670079827309e-02</leafValues></_>
        <_>
          <internalNodes>
            0 -1 478 7.1890786290168762e-02</internalNodes>
          <leafValues>
            -7.1319885551929474e-02 4.0388908982276917e-01</leafValues></_>
        <_>
          <internalNodes>
            0 -1 1938 4.7832977026700974e-02</internalNodes>
          <leafValues>
            -3.8266260176897049e-02 7.4663132429122925e-01</leafValues></_>
        <_>
          <internalNodes>
            0 -1 1857 4.2414449853822589e-04</internalNodes>
          <leafValues>
            -1.9103352725505829e-01 1.6256192326545715e-01</leafValues></_>
        <_>
          <internalNodes>
            0 -1 42 3.6188572645187378e-02</internalNodes>
          <leafValues>
            1.1521655321121216e-01 -2.6947519183158875e-01</leafValues></_>
        <_>
          <internalNodes>
            0 -1 2028 -1.1849239468574524e-01</internalNodes>
          <leafValues>
            5.1445454359054565e-01 -5.8475445955991745e-02</leafValues></_>
        <_>
          <internalNodes>
            0 -1 1260 1.3727182149887085e-01</internalNodes>
          <leafValues>
            1.1681827902793884e-01 -2.5785005092620850e-01</leafValues></_>
        <_>
          <internalNodes>
            0 -1 641 1.3895632326602936e-01</internalNodes>
          <leafValues>
            4.2945571243762970e-02 -6.6703879833221436e-01</leafValues></_>
        <_>
          <internalNodes>
            0 -1 18 -2.0098298788070679e-02</internalNodes>
          <leafValues>
            -2.5794002413749695e-01 1.0388212651014328e-01</leafValues></_>
        <_>
          <internalNodes>
            0 -1 606 -1.9230598211288452e-01</internalNodes>
          <leafValues>
            -5.9493625164031982e-01 4.4804636389017105e-02</leafValues></_>
        <_>
          <internalNodes>
            0 -1 847 -4.8822760581970215e-02</internalNodes>
          <leafValues>
            4.2883762717247009e-01 -7.1955420076847076e-02</leafValues></_>
        <_>
          <internalNodes>
            0 -1 1500 -6.2010031193494797e-02</internalNodes>
          <leafValues>
            -5.7314902544021606e-01 5.8432251214981079e-02</leafValues></_>
        <_>
          <internalNodes>
            0 -1 1499 5.0264321267604828e-02</internalNodes>
          <leafValues>
            3.4075871109962463e-02 -7.3025262355804443e-01</leafValues></_>
        <_>
          <internalNodes>
            0 -1 901 -7.5341910123825073e-02</internalNodes>
          <leafValues>
            9.0779864788055420e-01 -3.9736505597829819e-02</leafValues></_>
        <_>
          <internalNodes>
            0 -1 1979 1.2301677837967873e-02</internalNodes>
          <leafValues>
            1.2510122358798981e-01 -2.5526228547096252e-01</leafValues></_>
        <_>
          <internalNodes>
            0 -1 600 -1.1734043061733246e-01</internalNodes>
          <leafValues>
            -4.9473765492439270e-01 6.2267735600471497e-02</leafValues></_>
        <_>
          <internalNodes>
            0 -1 268 -1.5119139570742846e-03</internalNodes>
          <leafValues>
            -1.8671473860740662e-01 1.9052875041961670e-01</leafValues></_>
        <_>
          <internalNodes>
            0 -1 34 3.2999023795127869e-01</internalNodes>
          <leafValues>
            5.4244659841060638e-02 -6.2420070171356201e-01</leafValues></_>
        <_>
          <internalNodes>
            0 -1 1812 -1.2824518606066704e-02</internalNodes>
          <leafValues>
            2.4179713428020477e-01 -1.2941657006740570e-01</leafValues></_>
        <_>
          <internalNodes>
            0 -1 509 -9.7432143986225128e-02</internalNodes>
          <leafValues>
            3.6526954174041748e-01 -9.9732108414173126e-02</leafValues></_>
        <_>
          <internalNodes>
            0 -1 628 2.9007257893681526e-02</internalNodes>
          <leafValues>
            -4.8110239207744598e-02 5.8002567291259766e-01</leafValues></_>
        <_>
          <internalNodes>
            0 -1 108 -4.0977844595909119e-01</internalNodes>
          <leafValues>
            5.3813183307647705e-01 -5.2236821502447128e-02</leafValues></_></weakClassifiers></_>
    <!-- stage 11 -->
    <_>
      <maxWeakCount>74</maxWeakCount>
      <stageThreshold>-8.0545932054519653e-01</stageThreshold>
      <weakClassifiers>
        <_>
          <internalNodes>
            0 -1 573 1.1569532752037048e-01</internalNodes>
          <leafValues>
            2.6906958222389221e-01 7.6727271080017090e-01</leafValues></_>
        <_>
          <internalNodes>
            0 -1 2107 -5.5087707936763763e-02</internalNodes>
          <leafValues>
            5.3969782590866089e-01 -5.3076792508363724e-02</leafValues></_>
        <_>
          <internalNodes>
            0 -1 1496 3.1558819115161896e-02</internalNodes>
          <leafValues>
            -1.9174718856811523e-01 1.8503992259502411e-01</leafValues></_>
        <_>
          <internalNodes>
            0 -1 1323 -2.8145004063844681e-02</internalNodes>
          <leafValues>
            5.2805441617965698e-01 -8.6517341434955597e-02</leafValues></_>
        <_>
          <internalNodes>
            0 -1 1854 7.0637078024446964e-03</internalNodes>
          <leafValues>
            -1.4836280047893524e-01 1.8511962890625000e-01</leafValues></_>
        <_>
          <internalNodes>
            0 -1 1503 7.9244598746299744e-02</internalNodes>
          <leafValues>
            5.1208760589361191e-02 -5.9049326181411743e-01</leafValues></_>
        <_>
          <internalNodes>
            0 -1 2011 -5.4569423198699951e-02</internalNodes>
          <leafValues>
            4.6856999397277832e-01 -5.7486832141876221e-02</leafValues></_>
        <_>
          <internalNodes>
            0 -1 1958 -5.2449710667133331e-02</internalNodes>
          <leafValues>
            -3.4130102396011353e-01 8.0349817872047424e-02</leafValues></_>
        <_>
          <internalNodes>
            0 -1 1435 1.8076837062835693e-02</internalNodes>
          <leafValues>
            -7.6051585376262665e-02 3.7484800815582275e-01</leafValues></_>
        <_>
          <internalNodes>
            0 -1 1632 -6.3610924407839775e-03</internalNodes>
          <leafValues>
            -3.0411490797996521e-01 1.0082624107599258e-01</leafValues></_>
        <_>
          <internalNodes>
            0 -1 770 -1.6167449951171875e-01</internalNodes>
          <leafValues>
            5.0773322582244873e-01 -5.8107331395149231e-02</leafValues></_>
        <_>
          <internalNodes>
            0 -1 542 7.0585906505584717e-02</internalNodes>
          <leafValues>
            8.4445625543594360e-02 -3.1662431359291077e-01</leafValues></_>
        <_>
          <internalNodes>
            0 -1 1057 -7.1191564202308655e-02</internalNodes>
          <leafValues>
            3.9183178544044495e-01 -7.2972796857357025e-02</leafValues></_>
        <_>
          <internalNodes>
            0 -1 1235 -4.1148267686367035e-02</internalNodes>
          <leafValues>
            3.1946998834609985e-01 -7.3690816760063171e-02</leafValues></_>
        <_>
          <internalNodes>
            0 -1 1893 1.1373724788427353e-01</internalNodes>
          <leafValues>
            5.5860221385955811e-02 -5.2372598648071289e-01</leafValues></_>
        <_>
          <internalNodes>
            0 -1 519 -1.4708674512803555e-02</internalNodes>
          <leafValues>
            -3.9204901456832886e-01 6.9792084395885468e-02</leafValues></_>
        <_>
          <internalNodes>
            0 -1 592 -1.3293622434139252e-01</internalNodes>
          <leafValues>
            8.9195924997329712e-01 -3.3134773373603821e-02</leafValues></_>
        <_>
          <internalNodes>
            0 -1 1485 -1.7746441066265106e-02</internalNodes>
          <leafValues>
            -4.2255464196205139e-01 6.3787460327148438e-02</leafValues></_>
        <_>
          <internalNodes>
            0 -1 175 5.4770339280366898e-02</internalNodes>
          <leafValues>
            -3.4482512623071671e-02 7.6974469423294067e-01</leafValues></_>
        <_>
          <internalNodes>
            0 -1 2127 -3.9681330323219299e-02</internalNodes>
          <leafValues>
            3.1813797354698181e-01 -7.0034407079219818e-02</leafValues></_>
        <_>
          <internalNodes>
            0 -1 85 1.1851100251078606e-02</internalNodes>
          <leafValues>
            1.1015745997428894e-01 -2.4745388329029083e-01</leafValues></_>
        <_>
          <internalNodes>
            0 -1 84 -5.6308940052986145e-02</internalNodes>
          <leafValues>
            5.3273540735244751e-01 -4.5155629515647888e-02</leafValues></_>
        <_>
          <internalNodes>
            0 -1 2022 1.8178408499807119e-03</internalNodes>
          <leafValues>
            1.2457843869924545e-01 -2.0526456832885742e-01</leafValues></_>
        <_>
          <internalNodes>
            0 -1 2022 -6.4846328459680080e-03</internalNodes>
          <leafValues>
            -2.7218633890151978e-01 1.0928561538457870e-01</leafValues></_>
        <_>
          <internalNodes>
            0 -1 1968 6.4006388187408447e-02</internalNodes>
          <leafValues>
            -8.9385889470577240e-02 3.0548229813575745e-01</leafValues></_>
        <_>
          <internalNodes>
            0 -1 644 -1.9894571602344513e-01</internalNodes>
          <leafValues>
            -5.3743314743041992e-01 4.8546865582466125e-02</leafValues></_>
        <_>
          <internalNodes>
            0 -1 362 1.1056055873632431e-01</internalNodes>
          <leafValues>
