<?xml version="1.0"?>
<opencv_storage>
<cascade>
  <stageType>BOOST</stageType>
  <featureType>HAAR</featureType>
  <height>10</height>
  <width>37</width>
  <stageParams>
    <boostType>GAB</boostType>
    <minHitRate>9.9900001287460327e-01</minHitRate>
    <maxFalseAlarm>5.0000000000000000e-01</maxFalseAlarm>
    <weightTrimRate>9.4999999999999996e-01</weightTrimRate>
    <maxDepth>1</maxDepth>
    <maxWeakCount>100</maxWeakCount></stageParams>
  <featureParams>
    <maxCatCount>0</maxCatCount>
    <featSize>1</featSize>
    <mode>ALL</mode></featureParams>
  <stageNum>50</stageNum>
  <stages>
    <!-- stage 0 -->
    <_>
      <maxWeakCount>12</maxWeakCount>
      <stageThreshold>-1.2282284498214722e+00</stageThreshold>
      <weakClassifiers>
        <_>
          <internalNodes>
            0 -1 450 -1.2775862216949463e-01</internalNodes>
          <leafValues>
            -6.8600684404373169e-01 5.4368931055068970e-01</leafValues></_>
        <_>
          <internalNodes>
            0 -1 1384 2.0428219810128212e-02</internalNodes>
          <leafValues>
            -3.1948918104171753e-01 7.4008280038833618e-01</leafValues></_>
        <_>
          <internalNodes>
            0 -1 1838 -5.9731968212872744e-04</internalNodes>
          <leafValues>
            5.4110968112945557e-01 -2.7103158831596375e-01</leafValues></_>
        <_>
          <internalNodes>
            0 -1 324 8.8113490492105484e-03</internalNodes>
          <leafValues>
            -2.2843508422374725e-01 7.0129758119583130e-01</leafValues></_>
        <_>
          <internalNodes>
            0 -1 1951 -9.5325578004121780e-03</internalNodes>
          <leafValues>
            6.0746592283248901e-01 -2.1516069769859314e-01</leafValues></_>
        <_>
          <internalNodes>
            0 -1 1321 -3.3634173450991511e-04</internalNodes>
          <leafValues>
            4.8431539535522461e-01 -2.5405335426330566e-01</leafValues></_>
        <_>
          <internalNodes>
            0 -1 1663 -2.5871908292174339e-05</internalNodes>
          <leafValues>
            3.4825170040130615e-01 -4.2515769600868225e-01</leafValues></_>
        <_>
          <internalNodes>
            0 -1 997 -1.9072111696004868e-02</internalNodes>
          <leafValues>
            -8.2635688781738281e-01 1.2660855054855347e-01</leafValues></_>
        <_>
          <internalNodes>
            0 -1 1313 1.1702768970280886e-03</internalNodes>
          <leafValues>
            -2.8380674123764038e-01 4.7704011201858521e-01</leafValues></_>
        <_>
          <internalNodes>
            0 -1 1276 4.4960711151361465e-02</internalNodes>
          <leafValues>
            1.8278202414512634e-01 -7.0133262872695923e-01</leafValues></_>
        <_>
          <internalNodes>
            0 -1 649 5.3284699097275734e-03</internalNodes>
          <leafValues>
            -1.7726659774780273e-01 7.4488794803619385e-01</leafValues></_>
        <_>
          <internalNodes>
            0 -1 300 -3.7814495153725147e-03</internalNodes>
          <leafValues>
            5.9002780914306641e-01 -1.8898938596248627e-01</leafValues></_></weakClassifiers></_>
    <!-- stage 1 -->
    <_>
      <maxWeakCount>16</maxWeakCount>
      <stageThreshold>-1.3288713693618774e+00</stageThreshold>
      <weakClassifiers>
        <_>
          <internalNodes>
            0 -1 1654 -3.0521610751748085e-03</internalNodes>
          <leafValues>
            7.2938144207000732e-01 -1.2616202235221863e-01</leafValues></_>
        <_>
          <internalNodes>
            0 -1 2284 -5.1856907084584236e-03</internalNodes>
          <leafValues>
            5.7595884799957275e-01 -1.9408354163169861e-01</leafValues></_>
        <_>
          <internalNodes>
            0 -1 1593 -1.7744977958500385e-03</internalNodes>
          <leafValues>
            4.2169189453125000e-01 -3.0558234453201294e-01</leafValues></_>
        <_>
          <internalNodes>
            0 -1 656 4.5584766194224358e-03</internalNodes>
          <leafValues>
            -2.0368655025959015e-01 5.9365195035934448e-01</leafValues></_>
        <_>
          <internalNodes>
            0 -1 671 -9.3107973225414753e-04</internalNodes>
          <leafValues>
            4.5687597990036011e-01 -2.2750243544578552e-01</leafValues></_>
        <_>
          <internalNodes>
            0 -1 2218 -1.0581216774880886e-03</internalNodes>
          <leafValues>
            3.9749431610107422e-01 -2.3227167129516602e-01</leafValues></_>
        <_>
          <internalNodes>
            0 -1 755 1.2444794923067093e-01</internalNodes>
          <leafValues>
            1.3692839443683624e-01 -8.4754043817520142e-01</leafValues></_>
        <_>
          <internalNodes>
            0 -1 1068 -6.5458476543426514e-02</internalNodes>
          <leafValues>
            -7.5406956672668457e-01 1.1372189968824387e-01</leafValues></_>
        <_>
          <internalNodes>
            0 -1 1647 1.4526577433571219e-03</internalNodes>
          <leafValues>
            -2.7162542939186096e-01 3.8499310612678528e-01</leafValues></_>
        <_>
          <internalNodes>
            0 -1 271 -8.9311301708221436e-03</internalNodes>
          <leafValues>
            5.3994703292846680e-01 -1.7405962944030762e-01</leafValues></_>
        <_>
          <internalNodes>
            0 -1 787 6.2933668959885836e-04</internalNodes>
          <leafValues>
            -3.1105339527130127e-01 3.1756907701492310e-01</leafValues></_>
        <_>
          <internalNodes>
            0 -1 40 7.2675861418247223e-02</internalNodes>
          <leafValues>
            -1.8904249370098114e-01 5.6865584850311279e-01</leafValues></_>
        <_>
          <internalNodes>
            0 -1 133 -3.8471307605504990e-02</internalNodes>
          <leafValues>
            7.4053746461868286e-01 -1.8510283529758453e-01</leafValues></_>
        <_>
          <internalNodes>
            0 -1 1899 -1.3020855840295553e-03</internalNodes>
          <leafValues>
            3.5165449976921082e-01 -2.4697843194007874e-01</leafValues></_>
        <_>
          <internalNodes>
            0 -1 406 1.0012963786721230e-02</internalNodes>
          <leafValues>
            -1.2505462765693665e-01 6.8763244152069092e-01</leafValues></_>
        <_>
          <internalNodes>
            0 -1 2196 -5.4552182555198669e-03</internalNodes>
          <leafValues>
            5.1143115758895874e-01 -1.8328770995140076e-01</leafValues></_></weakClassifiers></_>
    <!-- stage 2 -->
    <_>
      <maxWeakCount>24</maxWeakCount>
      <stageThreshold>-1.1853151321411133e+00</stageThreshold>
      <weakClassifiers>
        <_>
          <internalNodes>
            0 -1 1638 1.7013794276863337e-03</internalNodes>
          <leafValues>
            -1.1986863613128662e-01 5.9130436182022095e-01</leafValues></_>
        <_>
          <internalNodes>
            0 -1 1072 1.1271153576672077e-02</internalNodes>
          <leafValues>
            -1.3448861241340637e-01 8.3816063404083252e-01</leafValues></_>
        <_>
          <internalNodes>
            0 -1 725 -7.7044493518769741e-03</internalNodes>
          <leafValues>
            6.6556286811828613e-01 -1.1438770592212677e-01</leafValues></_>
        <_>
          <internalNodes>
            0 -1 2391 -4.4647189788520336e-03</internalNodes>
          <leafValues>
            5.1600539684295654e-01 -1.8996009230613708e-01</leafValues></_>
        <_>
          <internalNodes>
            0 -1 390 -1.5439569950103760e-01</internalNodes>
          <leafValues>
            -7.4964570999145508e-01 9.7461894154548645e-02</leafValues></_>
        <_>
          <internalNodes>
            0 -1 1180 1.4073492493480444e-03</internalNodes>
          <leafValues>
            -1.8229240179061890e-01 4.5893573760986328e-01</leafValues></_>
        <_>
          <internalNodes>
            0 -1 663 -9.5505036413669586e-02</internalNodes>
          <leafValues>
            -9.4107437133789062e-01 8.7432429194450378e-02</leafValues></_>
        <_>
          <internalNodes>
            0 -1 548 -9.5089115202426910e-03</internalNodes>
          <leafValues>
            4.5093187689781189e-01 -1.9797331094741821e-01</leafValues></_>
        <_>
          <internalNodes>
            0 -1 13 7.0510767400264740e-02</internalNodes>
          <leafValues>
            -1.6021072864532471e-01 4.8345452547073364e-01</leafValues></_>
        <_>
          <internalNodes>
            0 -1 1419 4.7380221076309681e-04</internalNodes>
          <leafValues>
            -3.0385532975196838e-01 2.9804277420043945e-01</leafValues></_>
        <_>
          <internalNodes>
            0 -1 1904 -1.7984497826546431e-03</internalNodes>
          <leafValues>
            3.9775219559669495e-01 -2.1999046206474304e-01</leafValues></_>
        <_>
          <internalNodes>
            0 -1 753 -3.3870369195938110e-02</internalNodes>
          <leafValues>
            -8.2315617799758911e-01 1.1500251293182373e-01</leafValues></_>
        <_>
          <internalNodes>
            0 -1 1685 8.3011966198682785e-03</internalNodes>
          <leafValues>
            -2.2285208106040955e-01 4.4309449195861816e-01</leafValues></_>
        <_>
          <internalNodes>
            0 -1 1209 4.1960348607972264e-04</internalNodes>
          <leafValues>
            -3.0484813451766968e-01 2.7797287702560425e-01</leafValues></_>
        <_>
          <internalNodes>
            0 -1 384 1.5094824135303497e-01</internalNodes>
          <leafValues>
            1.1157799512147903e-01 -8.3314985036849976e-01</leafValues></_>
        <_>
          <internalNodes>
            0 -1 1661 -4.4123288244009018e-02</internalNodes>
          <leafValues>
            -6.8275028467178345e-01 1.0081972181797028e-01</leafValues></_>
        <_>
          <internalNodes>
            0 -1 1566 -1.1543175205588341e-03</internalNodes>
          <leafValues>
            4.1890257596969604e-01 -2.1295589208602905e-01</leafValues></_>
        <_>
          <internalNodes>
            0 -1 963 5.5521696805953979e-02</internalNodes>
          <leafValues>
            -1.5746945142745972e-01 5.0044333934783936e-01</leafValues></_>
        <_>
          <internalNodes>
            0 -1 2133 -1.7945902654901147e-03</internalNodes>
          <leafValues>
            3.6004287004470825e-01 -2.2923958301544189e-01</leafValues></_>
        <_>
          <internalNodes>
            0 -1 740 3.1777422409504652e-03</internalNodes>
          <leafValues>
            -1.6050679981708527e-01 4.7867310047149658e-01</leafValues></_>
        <_>
          <internalNodes>
            0 -1 845 3.0032978393137455e-03</internalNodes>
          <leafValues>
            -1.2580209970474243e-01 6.1888402700424194e-01</leafValues></_>
        <_>
          <internalNodes>
            0 -1 926 -3.6491405218839645e-02</internalNodes>
          <leafValues>
            -8.0830121040344238e-01 1.1491357535123825e-01</leafValues></_>
        <_>
          <internalNodes>
            0 -1 520 3.7066869437694550e-02</internalNodes>
          <leafValues>
            1.3421125710010529e-01 -5.6741678714752197e-01</leafValues></_>
        <_>
          <internalNodes>
            0 -1 36 1.4175020158290863e-02</internalNodes>
          <leafValues>
            -1.2967395782470703e-01 6.4839994907379150e-01</leafValues></_></weakClassifiers></_>
    <!-- stage 3 -->
    <_>
      <maxWeakCount>31</maxWeakCount>
      <stageThreshold>-1.1114418506622314e+00</stageThreshold>
      <weakClassifiers>
        <_>
          <internalNodes>
            0 -1 1687 6.4101950265467167e-03</internalNodes>
          <leafValues>
            5.3418803960084915e-02 7.0994943380355835e-01</leafValues></_>
        <_>
          <internalNodes>
            0 -1 1233 4.5157741755247116e-02</internalNodes>
          <leafValues>
            -1.3927863538265228e-01 5.8992874622344971e-01</leafValues></_>
        <_>
          <internalNodes>
            0 -1 1015 -3.0916947871446609e-02</internalNodes>
          <leafValues>
            -7.4910145998001099e-01 1.3686306774616241e-01</leafValues></_>
        <_>
          <internalNodes>
            0 -1 1662 -3.0379283998627216e-05</internalNodes>
          <leafValues>
            1.5895320475101471e-01 -4.3264403939247131e-01</leafValues></_>
        <_>
          <internalNodes>
            0 -1 248 -7.1848884224891663e-02</internalNodes>
          <leafValues>
            5.0920623540878296e-01 -1.4396454393863678e-01</leafValues></_>
        <_>
          <internalNodes>
            0 -1 328 1.1052513495087624e-02</internalNodes>
          <leafValues>
            -1.1553567647933960e-01 5.7414686679840088e-01</leafValues></_>
        <_>
          <internalNodes>
            0 -1 1774 1.3735907152295113e-02</internalNodes>
          <leafValues>
            -9.0353019535541534e-02 6.4083778858184814e-01</leafValues></_>
        <_>
          <internalNodes>
            0 -1 876 1.4353623613715172e-02</internalNodes>
          <leafValues>
            -1.2929745018482208e-01 5.0402820110321045e-01</leafValues></_>
        <_>
          <internalNodes>
            0 -1 1079 -3.6023247987031937e-02</internalNodes>
          <leafValues>
            -7.6941090822219849e-01 9.1262109577655792e-02</leafValues></_>
        <_>
          <internalNodes>
            0 -1 1848 -1.0534495115280151e-02</internalNodes>
          <leafValues>
            -4.4914948940277100e-01 1.4582808315753937e-01</leafValues></_>
        <_>
          <internalNodes>
            0 -1 1165 -1.8002463504672050e-02</internalNodes>
          <leafValues>
            5.0149494409561157e-01 -1.3649113476276398e-01</leafValues></_>
        <_>
          <internalNodes>
            0 -1 607 -1.4759706333279610e-02</internalNodes>
          <leafValues>
            -5.3521001338958740e-01 1.0002505034208298e-01</leafValues></_>
        <_>
          <internalNodes>
            0 -1 423 -1.3808902353048325e-02</internalNodes>
          <leafValues>
            3.8791722059249878e-01 -1.5158040821552277e-01</leafValues></_>
        <_>
          <internalNodes>
            0 -1 73 1.3176670670509338e-01</internalNodes>
          <leafValues>
            -1.3554020226001740e-01 4.3659210205078125e-01</leafValues></_>
        <_>
          <internalNodes>
            0 -1 349 2.1898325532674789e-02</internalNodes>
          <leafValues>
            1.1661698669195175e-01 -5.8774316310882568e-01</leafValues></_>
        <_>
          <internalNodes>
            0 -1 2363 1.6078863292932510e-02</internalNodes>
          <leafValues>
            -1.2003222852945328e-01 5.4821014404296875e-01</leafValues></_>
        <_>
          <internalNodes>
            0 -1 1940 -1.6285119578242302e-02</internalNodes>
          <leafValues>
            -6.3617652654647827e-01 1.0832996666431427e-01</leafValues></_>
        <_>
          <internalNodes>
            0 -1 1433 2.2046570666134357e-03</internalNodes>
          <leafValues>
            -2.1262235939502716e-01 3.2616615295410156e-01</leafValues></_>
        <_>
          <internalNodes>
            0 -1 505 5.5956166237592697e-02</internalNodes>
          <leafValues>
            1.2424118816852570e-01 -5.0720292329788208e-01</leafValues></_>
        <_>
          <internalNodes>
            0 -1 1393 -8.2914223894476891e-03</internalNodes>
          <leafValues>
            -4.6684569120407104e-01 1.2115143239498138e-01</leafValues></_>
        <_>
          <internalNodes>
            0 -1 1776 7.5487261638045311e-03</internalNodes>
          <leafValues>
            -1.7675754427909851e-01 3.4521946310997009e-01</leafValues></_>
        <_>
          <internalNodes>
            0 -1 2192 -1.3775546103715897e-02</internalNodes>
          <leafValues>
            3.7698063254356384e-01 -1.7314919829368591e-01</leafValues></_>
        <_>
          <internalNodes>
            0 -1 1971 -7.5256869196891785e-02</internalNodes>
          <leafValues>
            -7.1148765087127686e-01 1.1124954372644424e-01</leafValues></_>
        <_>
          <internalNodes>
            0 -1 1469 -6.0470044612884521e-02</internalNodes>
          <leafValues>
            -5.7706153392791748e-01 9.3752495944499969e-02</leafValues></_>
        <_>
          <internalNodes>
            0 -1 1107 1.6803421080112457e-02</internalNodes>
          <leafValues>
            -8.4173612296581268e-02 7.1800100803375244e-01</leafValues></_>
        <_>
          <internalNodes>
            0 -1 1435 1.1228462681174278e-03</internalNodes>
          <leafValues>
            1.6551378369331360e-01 -3.9214873313903809e-01</leafValues></_>
        <_>
          <internalNodes>
            0 -1 78 1.7100609838962555e-03</internalNodes>
          <leafValues>
            1.2437651306390762e-01 -4.4316619634628296e-01</leafValues></_>
        <_>
          <internalNodes>
            0 -1 2340 2.2047914564609528e-02</internalNodes>
          <leafValues>
            -9.1614454984664917e-02 7.0851713418960571e-01</leafValues></_>
        <_>
          <internalNodes>
            0 -1 106 2.7606396470218897e-03</internalNodes>
          <leafValues>
            1.3797539472579956e-01 -4.2320382595062256e-01</leafValues></_>
        <_>
          <internalNodes>
            0 -1 1668 1.6536375042051077e-03</internalNodes>
          <leafValues>
            -2.3021547496318817e-01 2.5566974282264709e-01</leafValues></_>
        <_>
          <internalNodes>
            0 -1 1678 9.4743240624666214e-03</internalNodes>
          <leafValues>
            1.5532375872135162e-01 -4.1992464661598206e-01</leafValues></_></weakClassifiers></_>
    <!-- stage 4 -->
    <_>
      <maxWeakCount>23</maxWeakCount>
      <stageThreshold>-1.0020112991333008e+00</stageThreshold>
      <weakClassifiers>
        <_>
          <internalNodes>
            0 -1 966 5.6088835000991821e-02</internalNodes>
          <leafValues>
            8.9430890977382660e-02 8.8151657581329346e-01</leafValues></_>
        <_>
          <internalNodes>
            0 -1 796 -2.5485407561063766e-02</internalNodes>
          <leafValues>
            7.5213062763214111e-01 -9.7713537514209747e-02</leafValues></_>
        <_>
          <internalNodes>
            0 -1 1359 -1.5738446265459061e-02</internalNodes>
          <leafValues>
            6.6121131181716919e-01 -2.1220152080059052e-01</leafValues></_>
        <_>
          <internalNodes>
            0 -1 1532 -3.0767867341637611e-02</internalNodes>
          <leafValues>
            7.9812902212142944e-01 -9.6165344119071960e-02</leafValues></_>
        <_>
          <internalNodes>
            0 -1 1427 -3.5303561016917229e-03</internalNodes>
          <leafValues>
            4.6236369013786316e-01 -2.8023901581764221e-01</leafValues></_>
        <_>
          <internalNodes>
            0 -1 1862 1.0130953043699265e-02</internalNodes>
          <leafValues>
            -1.0442458093166351e-01 8.2042866945266724e-01</leafValues></_>
        <_>
          <internalNodes>
            0 -1 1139 -8.8533461093902588e-02</internalNodes>
          <leafValues>
            7.8560781478881836e-01 -8.2910306751728058e-02</leafValues></_>
        <_>
          <internalNodes>
            0 -1 1638 4.5045362785458565e-03</internalNodes>
          <leafValues>
            -2.7947205305099487e-01 4.0051096677780151e-01</leafValues></_>
        <_>
          <internalNodes>
            0 -1 655 4.0735006332397461e-03</internalNodes>
          <leafValues>
            -1.4117741584777832e-01 5.9145373106002808e-01</leafValues></_>
        <_>
          <internalNodes>
            0 -1 2149 9.6823312342166901e-03</internalNodes>
          <leafValues>
            -1.1178689450025558e-01 6.3452512025833130e-01</leafValues></_>
        <_>
          <internalNodes>
            0 -1 458 -6.2759228050708771e-02</internalNodes>
          <leafValues>
            -7.6510733366012573e-01 1.1576736718416214e-01</leafValues></_>
        <_>
          <internalNodes>
            0 -1 1112 -1.9295278936624527e-02</internalNodes>
          <leafValues>
            7.5477379560470581e-01 -1.1014325171709061e-01</leafValues></_>
        <_>
          <internalNodes>
            0 -1 668 2.6232644915580750e-02</internalNodes>
          <leafValues>
            1.7467640340328217e-01 -4.8553636670112610e-01</leafValues></_>
        <_>
          <internalNodes>
            0 -1 1023 -1.3984477147459984e-02</internalNodes>
          <leafValues>
            7.3465424776077271e-01 -1.1205866187810898e-01</leafValues></_>
        <_>
          <internalNodes>
            0 -1 866 3.4664116799831390e-02</internalNodes>
          <leafValues>
            -1.6624435782432556e-01 4.5883002877235413e-01</leafValues></_>
        <_>
          <internalNodes>
            0 -1 1038 -3.0755756422877312e-02</internalNodes>
          <leafValues>
            6.9594156742095947e-01 -7.9145289957523346e-02</leafValues></_>
        <_>
          <internalNodes>
            0 -1 538 -1.2437498196959496e-02</internalNodes>
          <leafValues>
            5.6167745590209961e-01 -1.3433469831943512e-01</leafValues></_>
        <_>
          <internalNodes>
            0 -1 98 -4.8571843653917313e-02</internalNodes>
          <leafValues>
            -5.6088733673095703e-01 1.5421251952648163e-01</leafValues></_>
        <_>
          <internalNodes>
            0 -1 2322 -1.3959595933556557e-02</internalNodes>
          <leafValues>
            8.0842232704162598e-01 -1.1142432689666748e-01</leafValues></_>
        <_>
          <internalNodes>
            0 -1 421 -4.0502317249774933e-02</internalNodes>
          <leafValues>
            -5.3566455841064453e-01 1.5275821089744568e-01</leafValues></_>
        <_>
          <internalNodes>
            0 -1 1574 -3.4987241029739380e-02</internalNodes>
          <leafValues>
            -5.0032699108123779e-01 1.4782215654850006e-01</leafValues></_>
        <_>
          <internalNodes>
            0 -1 1474 -6.1222864314913750e-03</internalNodes>
          <leafValues>
            3.3586436510086060e-01 -2.2765995562076569e-01</leafValues></_>
        <_>
          <internalNodes>
            0 -1 1449 6.5564788877964020e-02</internalNodes>
          <leafValues>
            -1.2585844099521637e-01 5.9642022848129272e-01</leafValues></_></weakClassifiers></_>
    <!-- stage 5 -->
    <_>
      <maxWeakCount>29</maxWeakCount>
      <stageThreshold>-1.1879214048385620e+00</stageThreshold>
      <weakClassifiers>
        <_>
          <internalNodes>
            0 -1 748 -4.0282443165779114e-02</internalNodes>
          <leafValues>
            -3.4317344427108765e-01 4.4833067059516907e-01</leafValues></_>
        <_>
          <internalNodes>
            0 -1 1086 1.0126194916665554e-02</internalNodes>
          <leafValues>
            -1.4413835108280182e-01 6.9029134511947632e-01</leafValues></_>
        <_>
          <internalNodes>
            0 -1 416 -5.1943678408861160e-02</internalNodes>
          <leafValues>
            7.9884368181228638e-01 -1.0622636228799820e-01</leafValues></_>
        <_>
          <internalNodes>
            0 -1 570 -1.5591025352478027e-02</internalNodes>
          <leafValues>
            6.4800721406936646e-01 -1.1903678625822067e-01</leafValues></_>
        <_>
          <internalNodes>
            0 -1 1030 -1.7612583935260773e-02</internalNodes>
          <leafValues>
            5.7777929306030273e-01 -1.2818658351898193e-01</leafValues></_>
        <_>
          <internalNodes>
            0 -1 371 3.3211484551429749e-02</internalNodes>
          <leafValues>
            -1.3667879998683929e-01 6.9506072998046875e-01</leafValues></_>
        <_>
          <internalNodes>
            0 -1 1508 -4.4203144498169422e-03</internalNodes>
          <leafValues>
            5.3417557477951050e-01 -1.6815787553787231e-01</leafValues></_>
        <_>
          <internalNodes>
            0 -1 1076 -2.9841415584087372e-02</internalNodes>
          <leafValues>
            -7.1885663270950317e-01 1.3463376462459564e-01</leafValues></_>
        <_>
          <internalNodes>
            0 -1 855 2.3964984342455864e-02</internalNodes>
          <leafValues>
            1.2070295214653015e-01 -6.0482156276702881e-01</leafValues></_>
        <_>
          <internalNodes>
            0 -1 1977 1.1670907959342003e-02</internalNodes>
          <leafValues>
            1.2829589843750000e-01 -5.1846921443939209e-01</leafValues></_>
        <_>
          <internalNodes>
            0 -1 1531 -2.5514695793390274e-02</internalNodes>
          <leafValues>
            6.7752963304519653e-01 -1.3157917559146881e-01</leafValues></_>
        <_>
          <internalNodes>
            0 -1 1111 -1.3692203909158707e-02</internalNodes>
          <leafValues>
            7.8523015975952148e-01 -6.1118852347135544e-02</leafValues></_>
        <_>
          <internalNodes>
            0 -1 1849 -2.4763867259025574e-02</internalNodes>
          <leafValues>
            -5.2775144577026367e-01 1.5394349396228790e-01</leafValues></_>
        <_>
          <internalNodes>
            0 -1 792 1.2959157116711140e-02</internalNodes>
          <leafValues>
            -1.7799837887287140e-01 4.8373237252235413e-01</leafValues></_>
        <_>
          <internalNodes>
            0 -1 2137 -3.6966716870665550e-03</internalNodes>
          <leafValues>
            5.8882862329483032e-01 -9.1339185833930969e-02</leafValues></_>
        <_>
          <internalNodes>
            0 -1 910 4.8262951895594597e-03</internalNodes>
          <leafValues>
            1.4758753776550293e-01 -4.3924078345298767e-01</leafValues></_>
        <_>
          <internalNodes>
            0 -1 2058 4.0885761380195618e-02</internalNodes>
          <leafValues>
            -6.5596759319305420e-02 8.6916017532348633e-01</leafValues></_>
        <_>
          <internalNodes>
            0 -1 1485 -1.2458816170692444e-02</internalNodes>
          <leafValues>
            -6.2341141700744629e-01 1.1540085077285767e-01</leafValues></_>
        <_>
          <internalNodes>
            0 -1 80 -2.6861317455768585e-03</internalNodes>
          <leafValues>
            -4.4318133592605591e-01 1.4397437870502472e-01</leafValues></_>
        <_>
          <internalNodes>
            0 -1 1925 4.2199023300781846e-04</internalNodes>
          <leafValues>
            1.9792377948760986e-01 -3.1915962696075439e-01</leafValues></_>
        <_>
          <internalNodes>
            0 -1 1760 7.7849682420492172e-03</internalNodes>
          <leafValues>
            -1.6208837926387787e-01 3.6426413059234619e-01</leafValues></_>
        <_>
          <internalNodes>
            0 -1 1171 -1.8214043229818344e-02</internalNodes>
          <leafValues>
            -4.1606128215789795e-01 1.7851918935775757e-01</leafValues></_>
        <_>
          <internalNodes>
            0 -1 1526 -1.7065882682800293e-02</internalNodes>
          <leafValues>
            8.1321132183074951e-01 -8.5721746087074280e-02</leafValues></_>
        <_>
          <internalNodes>
            0 -1 1543 3.7551604211330414e-02</internalNodes>
          <leafValues>
            -6.5760336816310883e-02 7.9443877935409546e-01</leafValues></_>
        <_>
          <internalNodes>
            0 -1 777 -1.4295905828475952e-02</internalNodes>
          <leafValues>
            -5.2642941474914551e-01 1.4176113903522491e-01</leafValues></_>
        <_>
          <internalNodes>
            0 -1 756 -5.2815945819020271e-03</internalNodes>
          <leafValues>
            7.1132528781890869e-01 -1.0388425737619400e-01</leafValues></_>
        <_>
          <internalNodes>
            0 -1 1257 1.5491317026317120e-02</internalNodes>
          <leafValues>
            1.3627018034458160e-01 -5.9363877773284912e-01</leafValues></_>
        <_>
          <internalNodes>
            0 -1 1915 3.2447436824440956e-03</internalNodes>
          <leafValues>
            -1.7653189599514008e-01 4.0009301900863647e-01</leafValues></_>
        <_>
          <internalNodes>
            0 -1 2398 -7.9373165499418974e-04</internalNodes>
          <leafValues>
            -3.3057790994644165e-01 2.0742189884185791e-01</leafValues></_></weakClassifiers></_>
    <!-- stage 6 -->
    <_>
      <maxWeakCount>25</maxWeakCount>
      <stageThreshold>-9.9978023767471313e-01</stageThreshold>
      <weakClassifiers>
        <_>
          <internalNodes>
            0 -1 1247 6.2737606465816498e-02</internalNodes>
          <leafValues>
            5.8479532599449158e-03 6.9139468669891357e-01</leafValues></_>
        <_>
          <internalNodes>
            0 -1 199 5.4835949093103409e-02</internalNodes>
          <leafValues>
            -8.2558728754520416e-02 7.7998548746109009e-01</leafValues></_>
        <_>
          <internalNodes>
            0 -1 709 -6.3589543104171753e-02</internalNodes>
          <leafValues>
            5.7852262258529663e-01 -1.7838010191917419e-01</leafValues></_>
        <_>
          <internalNodes>
            0 -1 1511 1.7877724021673203e-02</internalNodes>
          <leafValues>
            -1.8898116052150726e-01 4.6990510821342468e-01</leafValues></_>
        <_>
          <internalNodes>
            0 -1 1648 1.8011152278631926e-03</internalNodes>
          <leafValues>
            1.1585015803575516e-01 -5.9452652931213379e-01</leafValues></_>
        <_>
          <internalNodes>
            0 -1 1553 -2.9170203488320112e-03</internalNodes>
          <leafValues>
            -6.0532057285308838e-01 1.2462715804576874e-01</leafValues></_>
        <_>
          <internalNodes>
            0 -1 720 6.1550222337245941e-02</internalNodes>
          <leafValues>
            -1.3118924200534821e-01 6.6289329528808594e-01</leafValues></_>
        <_>
          <internalNodes>
            0 -1 1565 -5.4604643955826759e-03</internalNodes>
          <leafValues>
            -7.6553332805633545e-01 1.0179812461137772e-01</leafValues></_>
        <_>
          <internalNodes>
            0 -1 1838 -8.3929233369417489e-05</internalNodes>
          <leafValues>
            2.1659517288208008e-01 -3.0043536424636841e-01</leafValues></_>
        <_>
          <internalNodes>
            0 -1 679 3.9454530924558640e-02</internalNodes>
          <leafValues>
            -1.5408504009246826e-01 4.4058114290237427e-01</leafValues></_>
        <_>
          <internalNodes>
            0 -1 1201 -5.6671969592571259e-02</internalNodes>
          <leafValues>
            6.2081825733184814e-01 -9.3095675110816956e-02</leafValues></_>
        <_>
          <internalNodes>
            0 -1 2014 -2.4303417652845383e-02</internalNodes>
          <leafValues>
            -7.0661222934722900e-01 9.9594421684741974e-02</leafValues></_>
        <_>
          <internalNodes>
            0 -1 4 3.0665054917335510e-02</internalNodes>
          <leafValues>
            -8.9386105537414551e-02 8.8701379299163818e-01</leafValues></_>
        <_>
          <internalNodes>
            0 -1 2253 -5.1723036915063858e-02</internalNodes>
          <leafValues>
            7.0315313339233398e-01 -7.8781634569168091e-02</leafValues></_>
        <_>
          <internalNodes>
            0 -1 1151 3.0336319468915462e-03</internalNodes>
          <leafValues>
            1.1705803871154785e-01 -5.7102209329605103e-01</leafValues></_>
        <_>
          <internalNodes>
            0 -1 479 5.9361822903156281e-02</internalNodes>
          <leafValues>
            -9.5150999724864960e-02 6.7139291763305664e-01</leafValues></_>
        <_>
          <internalNodes>
            0 -1 1866 4.2153336107730865e-03</internalNodes>
          <leafValues>
            -2.0806305110454559e-01 2.6916247606277466e-01</leafValues></_>
        <_>
          <internalNodes>
            0 -1 1845 3.5553111956687644e-05</internalNodes>
          <leafValues>
            -2.5012457370758057e-01 2.2319257259368896e-01</leafValues></_>
        <_>
          <internalNodes>
            0 -1 455 -3.4668877720832825e-02</internalNodes>
          <leafValues>
            7.4381500482559204e-01 -6.9679416716098785e-02</leafValues></_>
        <_>
          <internalNodes>
            0 -1 1937 -4.2175073176622391e-03</internalNodes>
          <leafValues>
            -6.5205842256546021e-01 9.1660119593143463e-02</leafValues></_>
        <_>
          <internalNodes>
            0 -1 2251 1.4828888233751059e-03</internalNodes>
          <leafValues>
            -2.2397515177726746e-01 2.7786493301391602e-01</leafValues></_>
        <_>
          <internalNodes>
            0 -1 307 2.1443713456392288e-02</internalNodes>
          <leafValues>
            -1.0415243357419968e-01 5.7918077707290649e-01</leafValues></_>
        <_>
          <internalNodes>
            0 -1 1524 4.8615195555612445e-04</internalNodes>
          <leafValues>
            1.9626697897911072e-01 -3.1870880722999573e-01</leafValues></_>
        <_>
          <internalNodes>
            0 -1 75 6.4548417925834656e-02</internalNodes>
          <leafValues>
            -1.5035234391689301e-01 3.7753722071647644e-01</leafValues></_>
        <_>
          <internalNodes>
            0 -1 50 -4.7013144940137863e-02</internalNodes>
          <leafValues>
            5.8446300029754639e-01 -1.1503314971923828e-01</leafValues></_></weakClassifiers></_>
    <!-- stage 7 -->
    <_>
      <maxWeakCount>30</maxWeakCount>
      <stageThreshold>-1.0879219770431519e+00</stageThreshold>
      <weakClassifiers>
        <_>
          <internalNodes>
            0 -1 41 7.2760283946990967e-02</internalNodes>
          <leafValues>
            2.1864211186766624e-02 6.8484848737716675e-01</leafValues></_>
        <_>
          <internalNodes>
            0 -1 1384 4.5868091285228729e-02</internalNodes>
          <leafValues>
            -9.0329520404338837e-02 7.4886167049407959e-01</leafValues></_>
        <_>
          <internalNodes>
            0 -1 816 -1.2095711380243301e-01</internalNodes>
          <leafValues>
            6.3881397247314453e-01 -1.4821091294288635e-01</leafValues></_>
        <_>
          <internalNodes>
            0 -1 1121 6.3549064099788666e-02</internalNodes>
          <leafValues>
            -1.3483795523643494e-01 6.1294615268707275e-01</leafValues></_>
        <_>
          <internalNodes>
            0 -1 79 2.6796611491590738e-03</internalNodes>
          <leafValues>
            1.3605250418186188e-01 -5.2395910024642944e-01</leafValues></_>
        <_>
          <internalNodes>
            0 -1 209 2.1766754798591137e-03</internalNodes>
          <leafValues>
            1.1499888449907303e-01 -4.7296503186225891e-01</leafValues></_>
        <_>
          <internalNodes>
            0 -1 1564 -9.8828412592411041e-04</internalNodes>
          <leafValues>
            -4.2833980917930603e-01 1.4644080400466919e-01</leafValues></_>
        <_>
          <internalNodes>
            0 -1 1573 8.7364418432116508e-03</internalNodes>
          <leafValues>
            1.0509549826383591e-01 -6.1946803331375122e-01</leafValues></_>
        <_>
          <internalNodes>
            0 -1 1025 -4.9873813986778259e-02</internalNodes>
          <leafValues>
            7.6411771774291992e-01 -8.6448043584823608e-02</leafValues></_>
        <_>
          <internalNodes>
            0 -1 39 -1.0109128057956696e-01</internalNodes>
          <leafValues>
            6.1350727081298828e-01 -9.5029056072235107e-02</leafValues></_>
        <_>
          <internalNodes>
            0 -1 1720 -1.4444702863693237e-01</internalNodes>
          <leafValues>
            6.3687086105346680e-01 -7.8944519162178040e-02</leafValues></_>
        <_>
          <internalNodes>
            0 -1 2129 -1.5684403479099274e-02</internalNodes>
          <leafValues>
            5.2468496561050415e-01 -1.0283592343330383e-01</leafValues></_>
        <_>
          <internalNodes>
            0 -1 1546 -2.9746133368462324e-03</internalNodes>
          <leafValues>
            -5.5363965034484863e-01 1.1402337253093719e-01</leafValues></_>
        <_>
          <internalNodes>
            0 -1 67 2.7059424668550491e-02</internalNodes>
          <leafValues>
            -1.3695900142192841e-01 4.4937095046043396e-01</leafValues></_>
        <_>
          <internalNodes>
            0 -1 2279 3.0107069760560989e-02</internalNodes>
          <leafValues>
            -1.1529747396707535e-01 5.1962321996688843e-01</leafValues></_>
        <_>
          <internalNodes>
            0 -1 1160 -5.0219171680510044e-03</internalNodes>
          <leafValues>
            -6.3317811489105225e-01 9.0775087475776672e-02</leafValues></_>
        <_>
          <internalNodes>
            0 -1 49 4.0866710245609283e-02</internalNodes>
          <leafValues>
            -8.4287852048873901e-02 7.2715753316879272e-01</leafValues></_>
        <_>
          <internalNodes>
            0 -1 226 -6.7300051450729370e-02</internalNodes>
          <leafValues>
            6.5681523084640503e-01 -7.6182469725608826e-02</leafValues></_>
        <_>
          <internalNodes>
            0 -1 1266 -4.8473831266164780e-03</internalNodes>
          <leafValues>
            2.6455467939376831e-01 -2.0692645013332367e-01</leafValues></_>
        <_>
          <internalNodes>
            0 -1 1178 -2.0150272175669670e-03</internalNodes>
          <leafValues>
            -4.3632888793945312e-01 1.2954851984977722e-01</leafValues></_>
        <_>
          <internalNodes>
            0 -1 1982 2.3463014513254166e-02</internalNodes>
          <leafValues>
            -1.0377845913171768e-01 5.9126746654510498e-01</leafValues></_>
        <_>
          <internalNodes>
            0 -1 1633 -1.3271968346089125e-03</internalNodes>
          <leafValues>
            -3.1527388095855713e-01 1.7031206190586090e-01</leafValues></_>
        <_>
          <internalNodes>
            0 -1 37 -6.9804295897483826e-02</internalNodes>
          <leafValues>
            6.2831950187683105e-01 -8.0407723784446716e-02</leafValues></_>
        <_>
          <internalNodes>
            0 -1 1434 3.7840087898075581e-03</internalNodes>
          <leafValues>
            -1.6414529085159302e-01 3.1104961037635803e-01</leafValues></_>
        <_>
          <internalNodes>
            0 -1 2122 3.2854631543159485e-02</internalNodes>
          <leafValues>
            -1.0494932532310486e-01 5.5992895364761353e-01</leafValues></_>
        <_>
          <internalNodes>
            0 -1 19 7.4719250202178955e-02</internalNodes>
          <leafValues>
            -1.5404677391052246e-01 3.6446422338485718e-01</leafValues></_>
        <_>
          <internalNodes>
            0 -1 1654 -5.4939032997936010e-04</internalNodes>
          <leafValues>
            1.9138304889202118e-01 -2.8964838385581970e-01</leafValues></_>
        <_>
          <internalNodes>
            0 -1 1539 -6.8553709425032139e-03</internalNodes>
          <leafValues>
            3.9375108480453491e-01 -1.6153831779956818e-01</leafValues></_>
        <_>
          <internalNodes>
            0 -1 810 1.7000025138258934e-02</internalNodes>
          <leafValues>
            -1.3700959086418152e-01 4.8997834324836731e-01</leafValues></_>
        <_>
          <internalNodes>
            0 -1 2265 1.8805135041475296e-02</internalNodes>
          <leafValues>
            7.8301616013050079e-02 -7.7496498823165894e-01</leafValues></_></weakClassifiers></_>
    <!-- stage 8 -->
    <_>
      <maxWeakCount>35</maxWeakCount>
      <stageThreshold>-9.5857101678848267e-01</stageThreshold>
      <weakClassifiers>
        <_>
          <internalNodes>
            0 -1 1442 -1.1936187744140625e-02</internalNodes>
          <leafValues>
            6.9708031415939331e-01 9.0723752975463867e-02</leafValues></_>
        <_>
          <internalNodes>
            0 -1 1909 -1.0956232436001301e-03</internalNodes>
          <leafValues>
            -2.8876644372940063e-01 2.4075035750865936e-01</leafValues></_>
        <_>
          <internalNodes>
            0 -1 322 1.9026279449462891e-02</internalNodes>
          <leafValues>
            -9.6424110233783722e-02 6.6095429658889771e-01</leafValues></_>
        <_>
          <internalNodes>
            0 -1 385 1.4408342540264130e-02</internalNodes>
          <leafValues>
            -1.5964771807193756e-01 4.9532011151313782e-01</leafValues></_>
        <_>
          <internalNodes>
            0 -1 427 -1.4746420085430145e-01</internalNodes>
          <leafValues>
            4.8892703652381897e-01 -1.4237655699253082e-01</leafValues></_>
        <_>
          <internalNodes>
            0 -1 1529 3.3402875065803528e-02</internalNodes>
          <leafValues>
            -1.3083021342754364e-01 4.5431178808212280e-01</leafValues></_>
        <_>
          <internalNodes>
            0 -1 1728 -1.0649468749761581e-03</internalNodes>
          <leafValues>
            -3.3941385149955750e-01 1.5237924456596375e-01</leafValues></_>
        <_>
          <internalNodes>
            0 -1 482 6.9424975663423538e-03</internalNodes>
          <leafValues>
            -1.7029199004173279e-01 3.1560069322586060e-01</leafValues></_>
        <_>
          <internalNodes>
            0 -1 1001 1.3299088925123215e-02</internalNodes>
          <leafValues>
            -7.2698451578617096e-02 6.7428445816040039e-01</leafValues></_>
        <_>
          <internalNodes>
            0 -1 630 5.3415279835462570e-02</internalNodes>
          <leafValues>
            -7.0388190448284149e-02 6.9678723812103271e-01</leafValues></_>
        <_>
          <internalNodes>
            0 -1 1400 -8.8074970990419388e-03</internalNodes>
          <leafValues>
            -4.1475591063499451e-01 1.4616733789443970e-01</leafValues></_>
        <_>
          <internalNodes>
            0 -1 1516 1.3282601721584797e-03</internalNodes>
          <leafValues>
            1.3615781068801880e-01 -4.1030463576316833e-01</leafValues></_>
        <_>
          <internalNodes>
            0 -1 1190 1.6848511993885040e-02</internalNodes>
          <leafValues>
            1.2627887725830078e-01 -4.1049203276634216e-01</leafValues></_>
        <_>
          <internalNodes>
            0 -1 1423 -4.2382225394248962e-02</internalNodes>
          <leafValues>
            6.7832875251770020e-01 -7.7095694839954376e-02</leafValues></_>
        <_>
          <internalNodes>
            0 -1 1657 5.5129760876297951e-03</internalNodes>
          <leafValues>
            1.4159896969795227e-01 -3.7048283219337463e-01</leafValues></_>
        <_>
          <internalNodes>
            0 -1 66 7.0355996489524841e-02</internalNodes>
          <leafValues>
            -8.0504931509494781e-02 6.8770235776901245e-01</leafValues></_>
        <_>
          <internalNodes>
            0 -1 541 2.3747328668832779e-03</internalNodes>
          <leafValues>
            1.3621246814727783e-01 -4.0353459119796753e-01</leafValues></_>
        <_>
          <internalNodes>
            0 -1 1530 -4.3780438601970673e-02</internalNodes>
          <leafValues>
            5.4934859275817871e-01 -1.0180980712175369e-01</leafValues></_>
        <_>
          <internalNodes>
            0 -1 191 1.1123877018690109e-01</internalNodes>
          <leafValues>
            -6.4367622137069702e-02 6.1786365509033203e-01</leafValues></_>
        <_>
          <internalNodes>
            0 -1 165 4.6720150858163834e-03</internalNodes>
          <leafValues>
            1.5475378930568695e-01 -3.2218295335769653e-01</leafValues></_>
        <_>
          <internalNodes>
            0 -1 83 -3.3478118479251862e-02</internalNodes>
          <leafValues>
            -3.7460416555404663e-01 1.3610582053661346e-01</leafValues></_>
        <_>
          <internalNodes>
            0 -1 1938 3.6310073919594288e-03</internalNodes>
          <leafValues>
            -1.8982614576816559e-01 2.3908151686191559e-01</leafValues></_>
        <_>
          <internalNodes>
            0 -1 1894 -3.0343011021614075e-02</internalNodes>
          <leafValues>
            -8.3973389863967896e-01 5.5277869105339050e-02</leafValues></_>
        <_>
          <internalNodes>
            0 -1 513 -3.3732634037733078e-02</internalNodes>
          <leafValues>
            -7.3894524574279785e-01 5.0573717802762985e-02</leafValues></_>
        <_>
          <internalNodes>
            0 -1 815 -2.0013071596622467e-02</internalNodes>
          <leafValues>
            4.8102238774299622e-01 -1.0960514843463898e-01</leafValues></_>
        <_>
          <internalNodes>
            0 -1 1692 6.2008281238377094e-03</internalNodes>
          <leafValues>
            -1.9045135378837585e-01 2.4591927230358124e-01</leafValues></_>
        <_>
          <internalNodes>
            0 -1 2084 -1.7758316243998706e-04</internalNodes>
          <leafValues>
            2.3214426636695862e-01 -2.3012246191501617e-01</leafValues></_>
        <_>
          <internalNodes>
            0 -1 160 1.4081223867833614e-02</internalNodes>
          <leafValues>
            1.6059355437755585e-01 -3.1167703866958618e-01</leafValues></_>
        <_>
          <internalNodes>
            0 -1 522 -2.0858433097600937e-02</internalNodes>
          <leafValues>
            -5.4880464076995850e-01 8.7146572768688202e-02</leafValues></_>
        <_>
          <internalNodes>
            0 -1 2201 2.6973938569426537e-02</internalNodes>
          <leafValues>
            -7.8498423099517822e-02 7.2383528947830200e-01</leafValues></_>
        <_>
          <internalNodes>
            0 -1 1170 -8.3258328959345818e-03</internalNodes>
          <leafValues>
            -5.4193252325057983e-01 1.0984687507152557e-01</leafValues></_>
        <_>
          <internalNodes>
            0 -1 1417 6.8281413987278938e-03</internalNodes>
          <leafValues>
            -1.9354934990406036e-01 2.5451260805130005e-01</leafValues></_>
        <_>
          <internalNodes>
            0 -1 1109 5.2493736147880554e-03</internalNodes>
          <leafValues>
            -1.4816467463970184e-01 3.3749777078628540e-01</leafValues></_>
        <_>
          <internalNodes>
            0 -1 1450 5.7885929942131042e-02</internalNodes>
          <leafValues>
            -5.5847242474555969e-02 7.7722781896591187e-01</leafValues></_>
        <_>
          <internalNodes>
            0 -1 1215 -5.8431626530364156e-04</internalNodes>
          <leafValues>
            -3.0466407537460327e-01 1.6594195365905762e-01</leafValues></_></weakClassifiers></_>
    <!-- stage 9 -->
    <_>
      <maxWeakCount>40</maxWeakCount>
      <stageThreshold>-1.0936158895492554e+00</stageThreshold>
      <weakClassifiers>
        <_>
          <internalNodes>
            0 -1 1055 1.4663938432931900e-02</internalNodes>
          <leafValues>
            1.5092673897743225e-01 7.5757575035095215e-01</leafValues></_>
        <_>
          <internalNodes>
            0 -1 539 4.2003683745861053e-02</internalNodes>
          <leafValues>
            -7.3308400809764862e-02 6.9573646783828735e-01</leafValues></_>
        <_>
          <internalNodes>
            0 -1 516 1.5249961055815220e-02</internalNodes>
          <leafValues>
            -1.0175591707229614e-01 6.4602488279342651e-01</leafValues></_>
        <_>
          <internalNodes>
            0 -1 890 4.6002626419067383e-02</internalNodes>
          <leafValues>
            -1.1643910408020020e-01 5.3566217422485352e-01</leafValues></_>
        <_>
          <internalNodes>
            0 -1 1508 -3.1818600837141275e-03</internalNodes>
          <leafValues>
            3.3067959547042847e-01 -1.7449034750461578e-01</leafValues></_>
        <_>
          <internalNodes>
            0 -1 1348 -4.3120696209371090e-03</internalNodes>
          <leafValues>
            4.4367226958274841e-01 -1.2407808750867844e-01</leafValues></_>
        <_>
          <internalNodes>
            0 -1 741 -8.1734666600823402e-03</internalNodes>
          <leafValues>
            5.3047931194305420e-01 -9.9777050316333771e-02</leafValues></_>
        <_>
          <internalNodes>
            0 -1 992 1.4329493045806885e-02</internalNodes>
          <leafValues>
            1.0684551298618317e-01 -5.1908850669860840e-01</leafValues></_>
        <_>
          <internalNodes>
            0 -1 899 -3.0741702765226364e-02</internalNodes>
          <leafValues>
            -6.0599714517593384e-01 8.0658480525016785e-02</leafValues></_>
        <_>
          <internalNodes>
            0 -1 1100 -2.4327162653207779e-02</internalNodes>
          <leafValues>
            -5.8098781108856201e-01 8.5097901523113251e-02</leafValues></_>
        <_>
          <internalNodes>
            0 -1 1803 -2.1158827468752861e-02</internalNodes>
          <leafValues>
            -5.3770345449447632e-01 9.0368039906024933e-02</leafValues></_>
        <_>
          <internalNodes>
            0 -1 65 -1.1469524353742599e-02</internalNodes>
          <leafValues>
            -5.5690497159957886e-01 9.4840526580810547e-02</leafValues></_>
        <_>
          <internalNodes>
            0 -1 1344 2.5912134442478418e-03</internalNodes>
          <leafValues>
            -1.4357160031795502e-01 3.5926771163940430e-01</leafValues></_>
        <_>
          <internalNodes>
            0 -1 395 1.7244108021259308e-02</internalNodes>
          <leafValues>
            -1.0191231966018677e-01 5.4032778739929199e-01</leafValues></_>
        <_>
          <internalNodes>
            0 -1 466 9.7189713269472122e-03</internalNodes>
          <leafValues>
            -7.9560801386833191e-02 5.7441854476928711e-01</leafValues></_>
        <_>
          <internalNodes>
            0 -1 1671 1.2716762721538544e-02</internalNodes>
          <leafValues>
            1.0840492695569992e-01 -4.9514713883399963e-01</leafValues></_>
        <_>
          <internalNodes>
            0 -1 1679 2.1888479590415955e-02</internalNodes>
          <leafValues>
            7.5361676514148712e-02 -6.1466068029403687e-01</leafValues></_>
        <_>
          <internalNodes>
            0 -1 1261 9.7109369933605194e-02</internalNodes>
          <leafValues>
            -6.7120701074600220e-02 8.0035865306854248e-01</leafValues></_>
        <_>
          <internalNodes>
            0 -1 1275 8.9569166302680969e-03</internalNodes>
          <leafValues>
            1.7923472821712494e-01 -3.9204812049865723e-01</leafValues></_>
        <_>
          <internalNodes>
            0 -1 97 5.6235352531075478e-03</internalNodes>
          <leafValues>
            1.4832182228565216e-01 -3.1203058362007141e-01</leafValues></_>
        <_>
          <internalNodes>
            0 -1 707 -3.2957702875137329e-02</internalNodes>
          <leafValues>
            6.9696152210235596e-01 -6.9416299462318420e-02</leafValues></_>
        <_>
          <internalNodes>
            0 -1 1973 5.2296025678515434e-03</internalNodes>
          <leafValues>
            -8.9795432984828949e-02 4.9126809835433960e-01</leafValues></_>
        <_>
          <internalNodes>
            0 -1 72 1.5226587653160095e-01</internalNodes>
          <leafValues>
            -8.3603098988533020e-02 5.3331714868545532e-01</leafValues></_>
        <_>
          <internalNodes>
            0 -1 806 1.2065429240465164e-02</internalNodes>
          <leafValues>
            -8.0344304442405701e-02 5.1942336559295654e-01</leafValues></_>
        <_>
          <internalNodes>
            0 -1 1327 -2.0013451576232910e-02</internalNodes>
          <leafValues>
            -7.2092837095260620e-01 6.8189904093742371e-02</leafValues></_>
        <_>
          <internalNodes>
            0 -1 1965 -4.7307154163718224e-03</internalNodes>
          <leafValues>
            4.4726699590682983e-01 -1.1187952011823654e-01</leafValues></_>
        <_>
          <internalNodes>
            0 -1 623 -3.0995994806289673e-02</internalNodes>
          <leafValues>
            -6.0982012748718262e-01 8.3128958940505981e-02</leafValues></_>
        <_>
          <internalNodes>
            0 -1 2068 -1.1166872456669807e-02</internalNodes>
          <leafValues>
            -4.7341930866241455e-01 9.9680669605731964e-02</leafValues></_>
        <_>
          <internalNodes>
            0 -1 310 -1.0306990146636963e-01</internalNodes>
          <leafValues>
            6.8036991357803345e-01 -7.5219616293907166e-02</leafValues></_>
        <_>
          <internalNodes>
            0 -1 280 -1.2216983363032341e-02</internalNodes>
          <leafValues>
            4.8624190688133240e-01 -9.6717558801174164e-02</leafValues></_>
        <_>
          <internalNodes>
            0 -1 930 2.0902038086205721e-03</internalNodes>
          <leafValues>
            -1.2572152912616730e-01 3.5647425055503845e-01</leafValues></_>
        <_>
          <internalNodes>
            0 -1 396 1.4546394348144531e-02</internalNodes>
          <leafValues>
            9.1275162994861603e-02 -5.5503267049789429e-01</leafValues></_>
        <_>
          <internalNodes>
            0 -1 727 2.5647722184658051e-02</internalNodes>
          <leafValues>
            -5.7481698691844940e-02 9.3265914916992188e-01</leafValues></_>
        <_>
          <internalNodes>
            0 -1 2242 1.2041479349136353e-02</internalNodes>
          <leafValues>
            1.2904720008373260e-01 -4.0955182909965515e-01</leafValues></_>
        <_>
          <internalNodes>
            0 -1 1777 -2.5161717087030411e-02</internalNodes>
          <leafValues>
            6.2297439575195312e-01 -7.8537404537200928e-02</leafValues></_>
        <_>
          <internalNodes>
            0 -1 1958 1.9069822737947106e-03</internalNodes>
          <leafValues>
            -1.1635293811559677e-01 4.0412583947181702e-01</leafValues></_>
        <_>
          <internalNodes>
            0 -1 2283 -9.3156956136226654e-03</internalNodes>
          <leafValues>
            4.3699944019317627e-01 -1.0067790001630783e-01</leafValues></_>
        <_>
          <internalNodes>
            0 -1 424 6.1878010630607605e-02</internalNodes>
          <leafValues>
            -8.8466607034206390e-02 5.7784634828567505e-01</leafValues></_>
        <_>
          <internalNodes>
            0 -1 462 -1.2054701801389456e-03</internalNodes>
          <leafValues>
            -3.5306707024574280e-01 1.5026462078094482e-01</leafValues></_>
        <_>
          <internalNodes>
            0 -1 572 -3.0555527657270432e-02</internalNodes>
          <leafValues>
            -5.5674076080322266e-01 8.7051190435886383e-02</leafValues></_></weakClassifiers></_>
    <!-- stage 10 -->
    <_>
      <maxWeakCount>35</maxWeakCount>
      <stageThreshold>-9.5040184259414673e-01</stageThreshold>
      <weakClassifiers>
        <_>
          <internalNodes>
            0 -1 1555 7.1969162672758102e-03</internalNodes>
          <leafValues>
            4.9222797155380249e-02 5.7199472188949585e-01</leafValues></_>
        <_>
          <internalNodes>
            0 -1 301 2.0374268293380737e-02</internalNodes>
          <leafValues>
            -8.4232024848461151e-02 7.7798539400100708e-01</leafValues></_>
        <_>
          <internalNodes>
            0 -1 788 2.3841885849833488e-02</internalNodes>
          <leafValues>
            -1.1916390806436539e-01 6.0590583086013794e-01</leafValues></_>
        <_>
          <internalNodes>
            0 -1 1500 -6.4749628305435181e-02</internalNodes>
          <leafValues>
            -5.1484972238540649e-01 1.1645627021789551e-01</leafValues></_>
        <_>
          <internalNodes>
            0 -1 1099 -2.0218856632709503e-02</internalNodes>
          <leafValues>
            -5.1136195659637451e-01 1.2110387533903122e-01</leafValues></_>
        <_>
          <internalNodes>
            0 -1 1429 -5.0699133425951004e-03</internalNodes>
          <leafValues>
            2.9624697566032410e-01 -2.2246059775352478e-01</leafValues></_>
        <_>
          <internalNodes>
            0 -1 1915 5.1780119538307190e-03</internalNodes>
          <leafValues>
            -1.1120855808258057e-01 5.5481475591659546e-01</leafValues></_>
        <_>
          <internalNodes>
            0 -1 1915 -3.7974733859300613e-03</internalNodes>
          <leafValues>
            5.2210575342178345e-01 -1.1021348834037781e-01</leafValues></_>
        <_>
          <internalNodes>
            0 -1 653 3.6499995738267899e-02</internalNodes>
          <leafValues>
            9.7231917083263397e-02 -6.5618675947189331e-01</leafValues></_>
        <_>
          <internalNodes>
            0 -1 1766 3.2397230825154111e-05</internalNodes>
          <leafValues>
            -2.8426137566566467e-01 1.9932954013347626e-01</leafValues></_>
        <_>
          <internalNodes>
            0 -1 1300 2.7470877394080162e-02</internalNodes>
          <leafValues>
            1.1130249500274658e-01 -5.9564149379730225e-01</leafValues></_>
        <_>
          <internalNodes>
            0 -1 1269 9.1961156576871872e-03</internalNodes>
          <leafValues>
            9.5854267477989197e-02 -5.3522402048110962e-01</leafValues></_>
        <_>
          <internalNodes>
            0 -1 244 1.3905321247875690e-02</internalNodes>
          <leafValues>
            -2.6056990027427673e-01 2.1251234412193298e-01</leafValues></_>
        <_>
          <internalNodes>
            0 -1 27 -1.5736711025238037e-01</internalNodes>
          <leafValues>
            6.6897684335708618e-01 -9.2086277902126312e-02</leafValues></_>
        <_>
          <internalNodes>
            0 -1 1944 1.1450462043285370e-02</internalNodes>
          <leafValues>
            -1.1629869043827057e-01 4.3187755346298218e-01</leafValues></_>
        <_>
          <internalNodes>
            0 -1 1302 -3.6185306962579489e-03</internalNodes>
          <leafValues>
            4.5498549938201904e-01 -1.1936430633068085e-01</leafValues></_>
        <_>
          <internalNodes>
            0 -1 486 -1.1671121232211590e-02</internalNodes>
          <leafValues>
            -4.1003715991973877e-01 1.3460792601108551e-01</leafValues></_>
        <_>
          <internalNodes>
            0 -1 942 4.7068003565073013e-02</internalNodes>
          <leafValues>
            6.1037577688694000e-02 -8.2107961177825928e-01</leafValues></_>
        <_>
          <internalNodes>
            0 -1 448 4.1311647742986679e-02</internalNodes>
          <leafValues>
            1.0488695651292801e-01 -4.8601078987121582e-01</leafValues></_>
        <_>
          <internalNodes>
            0 -1 1158 6.8509667180478573e-03</internalNodes>
          <leafValues>
            -1.1676426976919174e-01 4.7242090106010437e-01</leafValues></_>
        <_>
          <internalNodes>
            0 -1 2119 2.8528191149234772e-02</internalNodes>
          <leafValues>
            8.0334112048149109e-02 -7.0819300413131714e-01</leafValues></_>
        <_>
          <internalNodes>
            0 -1 2109 -1.1446297168731689e-02</internalNodes>
          <leafValues>
            6.3381493091583252e-01 -9.9344342947006226e-02</leafValues></_>
        <_>
          <internalNodes>
            0 -1 592 -9.1171236708760262e-03</internalNodes>
          <leafValues>
            7.3604428768157959e-01 -7.2823695838451385e-02</leafValues></_>
        <_>
          <internalNodes>
            0 -1 1134 1.9468577578663826e-02</internalNodes>
          <leafValues>
            9.3017354607582092e-02 -6.5279662609100342e-01</leafValues></_>
        <_>
          <internalNodes>
            0 -1 2203 -1.7397613264620304e-03</internalNodes>
          <leafValues>
            2.2039930522441864e-01 -2.6757353544235229e-01</leafValues></_>
        <_>
          <internalNodes>
            0 -1 33 2.6306550949811935e-02</internalNodes>
          <leafValues>
            -6.3931107521057129e-02 8.9419203996658325e-01</leafValues></_>
        <_>
          <internalNodes>
            0 -1 1405 -3.6981764424126595e-05</internalNodes>
          <leafValues>
            2.8370580077171326e-01 -2.1096234023571014e-01</leafValues></_>
        <_>
          <internalNodes>
            0 -1 258 -6.9774985313415527e-02</internalNodes>
          <leafValues>
            7.7441471815109253e-01 -6.8756975233554840e-02</leafValues></_>
        <_>
          <internalNodes>
            0 -1 1525 -7.0450049825012684e-03</internalNodes>
          <leafValues>
            8.0770969390869141e-01 -5.1246639341115952e-02</leafValues></_>
        <_>
          <internalNodes>
            0 -1 345 -2.7383107692003250e-02</internalNodes>
          <leafValues>
            -4.8746505379676819e-01 1.2352108210325241e-01</leafValues></_>
        <_>
          <internalNodes>
            0 -1 1094 3.1048678793013096e-03</internalNodes>
          <leafValues>
            -1.3541527092456818e-01 4.3681669235229492e-01</leafValues></_>
        <_>
          <internalNodes>
            0 -1 2209 2.8357371687889099e-02</internalNodes>
          <leafValues>
            -5.2459318190813065e-02 8.7602967023849487e-01</leafValues></_>
        <_>
          <internalNodes>
            0 -1 1610 3.2111720647662878e-03</internalNodes>
          <leafValues>
            1.4601081609725952e-01 -3.8725805282592773e-01</leafValues></_>
        <_>
          <internalNodes>
            0 -1 521 -5.2303642034530640e-02</internalNodes>
          <leafValues>
            -4.1446495056152344e-01 1.1848792433738708e-01</leafValues></_>
        <_>
          <internalNodes>
            0 -1 459 5.0193905830383301e-02</internalNodes>
          <leafValues>
            1.1309561878442764e-01 -5.2419394254684448e-01</leafValues></_></weakClassifiers></_>
    <!-- stage 11 -->
    <_>
      <maxWeakCount>36</maxWeakCount>
      <stageThreshold>-9.6137619018554688e-01</stageThreshold>
      <weakClassifiers>
        <_>
          <internalNodes>
            0 -1 1687 6.8469918332993984e-03</internalNodes>
          <leafValues>
            8.7794430553913116e-02 6.5378153324127197e-01</leafValues></_>
        <_>
          <internalNodes>
            0 -1 1123 6.8357601761817932e-02</internalNodes>
          <leafValues>
            -1.0663729906082153e-01 6.7429018020629883e-01</leafValues></_>
        <_>
          <internalNodes>
            0 -1 656 5.6039327755570412e-03</internalNodes>
          <leafValues>
            -1.7845176160335541e-01 4.3154615163803101e-01</leafValues></_>
        <_>
          <internalNodes>
            0 -1 1843 -3.1253844499588013e-03</internalNodes>
          <leafValues>
            3.4863001108169556e-01 -1.8260867893695831e-01</leafValues></_>
        <_>
          <internalNodes>
            0 -1 1010 -3.5013495944440365e-03</internalNodes>
          <leafValues>
            4.5319080352783203e-01 -1.3425818085670471e-01</leafValues></_>
        <_>
          <internalNodes>
            0 -1 1619 -8.6197987198829651e-02</internalNodes>
          <leafValues>
            4.9220177531242371e-01 -1.1620919406414032e-01</leafValues></_>
        <_>
          <internalNodes>
            0 -1 775 8.7622217833995819e-03</internalNodes>
          <leafValues>
            -8.6792789399623871e-02 5.4170680046081543e-01</leafValues></_>
        <_>
          <internalNodes>
            0 -1 2260 1.4578344300389290e-02</internalNodes>
          <leafValues>
            -8.7458305060863495e-02 5.4887109994888306e-01</leafValues></_>
        <_>
          <internalNodes>
            0 -1 1508 -5.5274832993745804e-03</internalNodes>
          <leafValues>
            4.6396183967590332e-01 -1.0682413727045059e-01</leafValues></_>
        <_>
          <internalNodes>
            0 -1 1115 3.0078778509050608e-03</internalNodes>
          <leafValues>
            -8.8822215795516968e-02 5.8649069070816040e-01</leafValues></_>
        <_>
          <internalNodes>
            0 -1 1879 1.8063976895064116e-03</internalNodes>
          <leafValues>
            -1.1874895542860031e-01 4.3349367380142212e-01</leafValues></_>
        <_>
          <internalNodes>
            0 -1 932 2.0064120180904865e-03</internalNodes>
          <leafValues>
            -1.6472394764423370e-01 3.1166762113571167e-01</leafValues></_>
        <_>
          <internalNodes>
            0 -1 1752 -6.7006825702264905e-05</internalNodes>
          <leafValues>
            1.9238154590129852e-01 -2.5688064098358154e-01</leafValues></_>
        <_>
          <internalNodes>
            0 -1 1487 -1.5775203704833984e-02</internalNodes>
          <leafValues>
            -6.0655456781387329e-01 8.8781513273715973e-02</leafValues></_>
        <_>
          <internalNodes>
            0 -1 2092 2.1208163816481829e-03</internalNodes>
          <leafValues>
            -1.3731043040752411e-01 3.8189730048179626e-01</leafValues></_>
        <_>
          <internalNodes>
            0 -1 1049 1.9243760406970978e-01</internalNodes>
          <leafValues>
            -7.2859726846218109e-02 7.4451619386672974e-01</leafValues></_>
        <_>
          <internalNodes>
            0 -1 598 2.5405563414096832e-02</internalNodes>
          <leafValues>
            1.6025832295417786e-01 -4.5937913656234741e-01</leafValues></_>
        <_>
          <internalNodes>
            0 -1 1340 -1.8908423185348511e-01</internalNodes>
          <leafValues>
            8.1553858518600464e-01 -6.7391388118267059e-02</leafValues></_>
        <_>
          <internalNodes>
            0 -1 860 1.1474421247839928e-02</internalNodes>
          <leafValues>
            -1.0384558886289597e-01 4.4894403219223022e-01</leafValues></_>
        <_>
          <internalNodes>
            0 -1 1943 -5.6607805890962481e-04</internalNodes>
          <leafValues>
            2.4030032753944397e-01 -2.0310837030410767e-01</leafValues></_>
        <_>
          <internalNodes>
            0 -1 1205 4.3217074126005173e-03</internalNodes>
          <leafValues>
            -1.4229092001914978e-01 3.7494978308677673e-01</leafValues></_>
        <_>
          <internalNodes>
            0 -1 1111 4.3176487088203430e-03</internalNodes>
          <leafValues>
            -1.7694026231765747e-01 3.2223778963088989e-01</leafValues></_>
        <_>
          <internalNodes>
            0 -1 381 2.0278912037611008e-02</internalNodes>
          <leafValues>
            -8.5006490349769592e-02 6.2173980474472046e-01</leafValues></_>
        <_>
          <internalNodes>
            0 -1 1116 -5.7379268109798431e-03</internalNodes>
          <leafValues>
            5.5914360284805298e-01 -8.8990218937397003e-02</leafValues></_>
        <_>
          <internalNodes>
            0 -1 1457 6.1507043428719044e-03</internalNodes>
          <leafValues>
            1.8036223948001862e-01 -2.8340569138526917e-01</leafValues></_>
        <_>
          <internalNodes>
            0 -1 565 -1.2260232120752335e-02</internalNodes>
          <leafValues>
            4.6613219380378723e-01 -1.1649775505065918e-01</leafValues></_>
        <_>
          <internalNodes>
            0 -1 901 6.4008586108684540e-02</internalNodes>
          <leafValues>
            -1.1964812874794006e-01 4.0984773635864258e-01</leafValues></_>
        <_>
          <internalNodes>
            0 -1 360 -1.8441328778862953e-02</internalNodes>
          <leafValues>
            5.3480923175811768e-01 -9.4196133315563202e-02</leafValues></_>
        <_>
          <internalNodes>
            0 -1 2113 -3.5808626562356949e-02</internalNodes>
          <leafValues>
            -7.3144447803497314e-01 8.2314670085906982e-02</leafValues></_>
        <_>
          <internalNodes>
            0 -1 1864 1.0205359756946564e-01</internalNodes>
          <leafValues>
            -8.4313742816448212e-02 7.0472067594528198e-01</leafValues></_>
        <_>
          <internalNodes>
            0 -1 379 -2.4765472859144211e-02</internalNodes>
          <leafValues>
            4.4551578164100647e-01 -9.3399651348590851e-02</leafValues></_>
        <_>
          <internalNodes>
            0 -1 1451 -2.7753460017265752e-05</internalNodes>
          <leafValues>
            2.0959024131298065e-01 -2.2712585330009460e-01</leafValues></_>
        <_>
          <internalNodes>
            0 -1 2320 -2.9250886291265488e-02</internalNodes>
          <leafValues>
            7.6879709959030151e-01 -6.2901735305786133e-02</leafValues></_>
        <_>
          <internalNodes>
            0 -1 637 -2.5966640561819077e-02</internalNodes>
          <leafValues>
            -5.3561609983444214e-01 1.0100855678319931e-01</leafValues></_>
        <_>
          <internalNodes>
            0 -1 1090 -1.6594802960753441e-02</internalNodes>
          <leafValues>
            -6.3434934616088867e-01 7.3521979153156281e-02</leafValues></_>
        <_>
          <internalNodes>
            0 -1 1759 -1.5681758522987366e-03</internalNodes>
          <leafValues>
            4.4194570183753967e-01 -1.2988016009330750e-01</leafValues></_></weakClassifiers></_>
    <!-- stage 12 -->
    <_>
      <maxWeakCount>38</maxWeakCount>
      <stageThreshold>-9.2972618341445923e-01</stageThreshold>
      <weakClassifiers>
        <_>
          <internalNodes>
            0 -1 1384 3.6552540957927704e-02</internalNodes>
          <leafValues>
            1.0599078238010406e-01 8.0180180072784424e-01</leafValues></_>
        <_>
          <internalNodes>
            0 -1 321 6.9605801254510880e-03</internalNodes>
          <leafValues>
            -8.5162997245788574e-02 5.0640755891799927e-01</leafValues></_>
        <_>
          <internalNodes>
            0 -1 253 -2.5225035846233368e-02</internalNodes>
          <leafValues>
            5.3835904598236084e-01 -1.3438484072685242e-01</leafValues></_>
        <_>
          <internalNodes>
            0 -1 445 2.6056385040283203e-01</internalNodes>
          <leafValues>
            1.2221035361289978e-01 -7.9223823547363281e-01</leafValues></_>
        <_>
          <internalNodes>
            0 -1 126 1.4949688315391541e-01</internalNodes>
          <leafValues>
            -1.8146464228630066e-01 2.9993262887001038e-01</leafValues></_>
        <_>
          <internalNodes>
            0 -1 2337 5.4102530702948570e-03</internalNodes>
          <leafValues>
            -1.2418539822101593e-01 5.0511193275451660e-01</leafValues></_>
        <_>
          <internalNodes>
            0 -1 567 -1.1187885701656342e-01</internalNodes>
          <leafValues>
            6.3411706686019897e-01 -9.8450064659118652e-02</leafValues></_>
        <_>
          <internalNodes>
            0 -1 1914 3.5256063711130992e-05</internalNodes>
          <leafValues>
            -2.0429831743240356e-01 2.1742278337478638e-01</leafValues></_>
        <_>
          <internalNodes>
            0 -1 1978 3.2700857263989747e-04</internalNodes>
          <leafValues>
            -2.2640140354633331e-01 2.2634795308113098e-01</leafValues></_>
        <_>
          <internalNodes>
            0 -1 2128 -4.2473189532756805e-03</internalNodes>
          <leafValues>
            2.9458951950073242e-01 -1.7049491405487061e-01</leafValues></_>
        <_>
          <internalNodes>
            0 -1 1169 6.9588981568813324e-03</internalNodes>
          <leafValues>
            8.6371406912803650e-02 -6.1229074001312256e-01</leafValues></_>
        <_>
          <internalNodes>
            0 -1 2084 -5.3581810789182782e-05</internalNodes>
          <leafValues>
            1.9332870841026306e-01 -2.3873829841613770e-01</leafValues></_>
        <_>
          <internalNodes>
            0 -1 2351 -5.1018306985497475e-03</internalNodes>
          <leafValues>
            5.5660712718963623e-01 -8.8308878242969513e-02</leafValues></_>
        <_>
          <internalNodes>
            0 -1 263 2.9790610074996948e-02</internalNodes>
          <leafValues>
            -8.8565260171890259e-02 4.8638427257537842e-01</leafValues></_>
        <_>
          <internalNodes>
            0 -1 246 -6.7617356777191162e-02</internalNodes>
          <leafValues>
            5.1489728689193726e-01 -8.8974073529243469e-02</leafValues></_>
        <_>
          <internalNodes>
            0 -1 1408 1.7249103635549545e-02</internalNodes>
          <leafValues>
            -1.1020860821008682e-01 4.5687639713287354e-01</leafValues></_>
        <_>
          <internalNodes>
            0 -1 1002 3.6454846849665046e-05</internalNodes>
          <leafValues>
            -2.3015044629573822e-01 2.0408390462398529e-01</leafValues></_>
        <_>
          <internalNodes>
            0 -1 844 1.9866530783474445e-03</internalNodes>
          <leafValues>
            -1.0991100221872330e-01 4.1442695260047913e-01</leafValues></_>
        <_>
          <internalNodes>
            0 -1 554 -3.3028114587068558e-02</internalNodes>
          <leafValues>
            3.6538645625114441e-01 -1.2478904426097870e-01</leafValues></_>
        <_>
          <internalNodes>
            0 -1 1122 9.8030030727386475e-02</internalNodes>
          <leafValues>
            -1.0079365968704224e-01 5.1254570484161377e-01</leafValues></_>
        <_>
          <internalNodes>
            0 -1 2021 -3.5053661122219637e-05</internalNodes>
          <leafValues>
            2.5994208455085754e-01 -1.7464420199394226e-01</leafValues></_>
        <_>
          <internalNodes>
            0 -1 883 1.6344957053661346e-02</internalNodes>
          <leafValues>
            -1.1099287867546082e-01 3.9178514480590820e-01</leafValues></_>
        <_>
          <internalNodes>
            0 -1 734 1.6203093528747559e-01</internalNodes>
          <leafValues>
            9.0168334543704987e-02 -5.8799141645431519e-01</leafValues></_>
        <_>
          <internalNodes>
            0 -1 979 -1.2760981917381287e-01</internalNodes>
          <leafValues>
            -3.8930985331535339e-01 1.1464264243841171e-01</leafValues></_>
        <_>
          <internalNodes>
            0 -1 2362 -1.6610054299235344e-02</internalNodes>
          <leafValues>
            7.0883119106292725e-01 -7.0379965007305145e-02</leafValues></_>
        <_>
          <internalNodes>
            0 -1 2270 -4.4970931485295296e-03</internalNodes>
          <leafValues>
            2.7589058876037598e-01 -1.8791404366493225e-01</leafValues></_>
        <_>
          <internalNodes>
            0 -1 192 2.9893475584685802e-03</internalNodes>
          <leafValues>
            1.8449017405509949e-01 -2.4949240684509277e-01</leafValues></_>
        <_>
          <internalNodes>
            0 -1 1483 -8.4901042282581329e-03</internalNodes>
          <leafValues>
            -9.0032649040222168e-01 5.0787337124347687e-02</leafValues></_>
        <_>
          <internalNodes>
            0 -1 2040 4.5888424210716039e-05</internalNodes>
          <leafValues>
            -2.2792087495326996e-01 2.0859527587890625e-01</leafValues></_>
        <_>
          <internalNodes>
            0 -1 203 -4.4076316058635712e-02</internalNodes>
          <leafValues>
            7.8274339437484741e-01 -5.1138248294591904e-02</leafValues></_>
        <_>
          <internalNodes>
            0 -1 2267 -3.0868839530739933e-05</internalNodes>
          <leafValues>
            2.2799240052700043e-01 -1.8807978928089142e-01</leafValues></_>
        <_>
          <internalNodes>
            0 -1 1662 -3.0379283998627216e-05</internalNodes>
          <leafValues>
            1.5440772473812103e-01 -2.8278821706771851e-01</leafValues></_>
        <_>
          <internalNodes>
            0 -1 993 2.4980563670396805e-02</internalNodes>
          <leafValues>
            7.1266815066337585e-02 -5.6781911849975586e-01</leafValues></_>
        <_>
          <internalNodes>
            0 -1 1717 -3.2001078128814697e-02</internalNodes>
          <leafValues>
            4.5714962482452393e-01 -1.0063661634922028e-01</leafValues></_>
        <_>
          <internalNodes>
            0 -1 1073 2.5564055889844894e-02</internalNodes>
          <leafValues>
            -4.8921588808298111e-02 7.1231901645660400e-01</leafValues></_>
        <_>
          <internalNodes>
            0 -1 1609 4.3333359062671661e-03</internalNodes>
          <leafValues>
            -1.4986042678356171e-01 3.2122498750686646e-01</leafValues></_>
        <_>
          <internalNodes>
            0 -1 907 4.6479098498821259e-02</internalNodes>
          <leafValues>
            -1.1345620453357697e-01 4.0757659077644348e-01</leafValues></_>
        <_>
          <internalNodes>
            0 -1 25 -1.9179692864418030e-01</internalNodes>
          <leafValues>
            4.6745428442955017e-01 -9.7289092838764191e-02</leafValues></_></weakClassifiers></_>
    <!-- stage 13 -->
    <_>
      <maxWeakCount>37</maxWeakCount>
      <stageThreshold>-9.6254622936248779e-01</stageThreshold>
      <weakClassifiers>
        <_>
          <internalNodes>
            0 -1 327 1.6348754987120628e-02</internalNodes>
          <leafValues>
            1.8373984098434448e-01 8.1939798593521118e-01</leafValues></_>
        <_>
          <internalNodes>
            0 -1 577 -1.6585314646363258e-02</internalNodes>
          <leafValues>
            6.6265839338302612e-01 -6.6926971077919006e-02</leafValues></_>
        <_>
          <internalNodes>
            0 -1 375 1.8113229423761368e-02</internalNodes>
          <leafValues>
            -1.3370212912559509e-01 4.7305402159690857e-01</leafValues></_>
        <_>
          <internalNodes>
            0 -1 1564 2.2011390683474019e-05</internalNodes>
          <leafValues>
            -3.1151673197746277e-01 1.7826768755912781e-01</leafValues></_>
        <_>
          <internalNodes>
            0 -1 1977 9.9695762619376183e-03</internalNodes>
          <leafValues>
            1.1903472989797592e-01 -4.5173791050910950e-01</leafValues></_>
        <_>
          <internalNodes>
            0 -1 443 3.0887551605701447e-02</internalNodes>
          <leafValues>
            8.6820036172866821e-02 -6.2031227350234985e-01</leafValues></_>
        <_>
          <internalNodes>
            0 -1 433 -2.1551150828599930e-02</internalNodes>
          <leafValues>
            -5.6400328874588013e-01 1.1071868985891342e-01</leafValues></_>
        <_>
          <internalNodes>
            0 -1 1072 1.3667414896190166e-02</internalNodes>
          <leafValues>
            -1.1091241985559464e-01 5.0719928741455078e-01</leafValues></_>
        <_>
          <internalNodes>
            0 -1 1202 2.8293639843468554e-05</internalNodes>
          <leafValues>
            -2.0642466843128204e-01 2.7010110020637512e-01</leafValues></_>
        <_>
          <internalNodes>
            0 -1 1400 2.3989208042621613e-02</internalNodes>
          <leafValues>
            7.0034898817539215e-02 -7.4852502346038818e-01</leafValues></_>
        <_>
          <internalNodes>
            0 -1 1503 3.2013074815040454e-05</internalNodes>
          <leafValues>
            -2.7497902512550354e-01 1.9053041934967041e-01</leafValues></_>
        <_>
          <internalNodes>
            0 -1 769 -1.3171734288334846e-02</internalNodes>
          <leafValues>
            -5.4317116737365723e-01 1.0997509956359863e-01</leafValues></_>
        <_>
          <internalNodes>
            0 -1 1674 2.0453135221032426e-05</internalNodes>
          <leafValues>
            -2.2657568752765656e-01 2.3140619695186615e-01</leafValues></_>
        <_>
          <internalNodes>
            0 -1 218 1.3765564654022455e-03</internalNodes>
          <leafValues>
            1.3721077144145966e-01 -3.6930105090141296e-01</leafValues></_>
        <_>
          <internalNodes>
            0 -1 94 4.4678309932351112e-03</internalNodes>
          <leafValues>
            9.9141187965869904e-02 -4.3222457170486450e-01</leafValues></_>
        <_>
          <internalNodes>
            0 -1 1897 -2.0733978599309921e-02</internalNodes>
          <leafValues>
            5.0561755895614624e-01 -9.6984528005123138e-02</leafValues></_>
        <_>
          <internalNodes>
            0 -1 1126 -8.6554733570665121e-04</internalNodes>
          <leafValues>
            -3.2981199026107788e-01 1.5452225506305695e-01</leafValues></_>
        <_>
          <internalNodes>
            0 -1 2310 -2.1528158336877823e-02</internalNodes>
          <leafValues>
            5.5943006277084351e-01 -8.4835387766361237e-02</leafValues></_>
        <_>
          <internalNodes>
            0 -1 7 2.9909648001194000e-02</internalNodes>
          <leafValues>
            -5.7049375027418137e-02 7.4583858251571655e-01</leafValues></_>
        <_>
          <internalNodes>
            0 -1 2262 2.1428123116493225e-02</internalNodes>
          <leafValues>
            -4.3269738554954529e-02 8.5126507282257080e-01</leafValues></_>
        <_>
          <internalNodes>
            0 -1 1816 -4.1700333356857300e-02</internalNodes>
          <leafValues>
            -8.9509093761444092e-01 6.8285144865512848e-02</leafValues></_>
        <_>
          <internalNodes>
            0 -1 1 -5.6846096413210034e-04</internalNodes>
          <leafValues>
            -3.0144917964935303e-01 1.5825243294239044e-01</leafValues></_>
        <_>
          <internalNodes>
            0 -1 1651 5.1693320274353027e-03</internalNodes>
          <leafValues>
            1.1043962836265564e-01 -4.3379491567611694e-01</leafValues></_>
        <_>
          <internalNodes>
            0 -1 846 8.2529596984386444e-03</internalNodes>
          <leafValues>
            -1.4881551265716553e-01 3.5403946042060852e-01</leafValues></_>
        <_>
          <internalNodes>
            0 -1 1148 2.8378332033753395e-02</internalNodes>
          <leafValues>
            8.2718506455421448e-02 -6.7247647047042847e-01</leafValues></_>
        <_>
          <internalNodes>
            0 -1 655 2.0453135221032426e-05</internalNodes>
          <leafValues>
            -2.1805469691753387e-01 2.3805238306522369e-01</leafValues></_>
        <_>
          <internalNodes>
            0 -1 530 2.5043287678272463e-05</internalNodes>
          <leafValues>
            -2.4071842432022095e-01 2.3770682513713837e-01</leafValues></_>
        <_>
          <internalNodes>
            0 -1 838 -1.0324062779545784e-02</internalNodes>
          <leafValues>
            -4.2742109298706055e-01 1.1523263901472092e-01</leafValues></_>
        <_>
          <internalNodes>
            0 -1 593 1.5094699338078499e-02</internalNodes>
          <leafValues>
            -5.3966447710990906e-02 8.9294826984405518e-01</leafValues></_>
        <_>
          <internalNodes>
            0 -1 618 4.4525429606437683e-02</internalNodes>
          <leafValues>
            -8.1537455320358276e-02 5.2132481336593628e-01</leafValues></_>
        <_>
          <internalNodes>
            0 -1 1689 4.4530117884278297e-03</internalNodes>
          <leafValues>
            1.4096994698047638e-01 -3.9137759804725647e-01</leafValues></_>
        <_>
          <internalNodes>
            0 -1 675 2.2621527314186096e-02</internalNodes>
          <leafValues>
            9.1507531702518463e-02 -5.3630071878433228e-01</leafValues></_>
        <_>
          <internalNodes>
            0 -1 1812 1.5530661679804325e-02</internalNodes>
          <leafValues>
            5.9599917382001877e-02 -8.1350237131118774e-01</leafValues></_>
        <_>
          <internalNodes>
            0 -1 47 -2.2148597985506058e-02</internalNodes>
          <leafValues>
            6.5327256917953491e-01 -9.6115320920944214e-02</leafValues></_>
        <_>
          <internalNodes>
            0 -1 146 1.8755319714546204e-01</internalNodes>
          <leafValues>
            -1.0143771767616272e-01 4.6458035707473755e-01</leafValues></_>
        <_>
          <internalNodes>
            0 -1 428 -2.8701357223326340e-05</internalNodes>
          <leafValues>
            2.5124999880790710e-01 -1.9983017444610596e-01</leafValues></_>
        <_>
          <internalNodes>
            0 -1 1492 5.2966205403208733e-03</internalNodes>
          <leafValues>
            -1.2240509688854218e-01 4.1695412993431091e-01</leafValues></_></weakClassifiers></_>
    <!-- stage 14 -->
    <_>
      <maxWeakCount>34</maxWeakCount>
      <stageThreshold>-1.0933260917663574e+00</stageThreshold>
      <weakClassifiers>
        <_>
          <internalNodes>
            0 -1 1753 1.8367863958701491e-03</internalNodes>
          <leafValues>
            1.0289710015058517e-01 6.9696968793869019e-01</leafValues></_>
        <_>
          <internalNodes>
            0 -1 1103 3.6459953989833593e-03</internalNodes>
          <leafValues>
            -1.1342980712652206e-01 6.5700089931488037e-01</leafValues></_>
        <_>
          <internalNodes>
            0 -1 655 3.9564957842230797e-03</internalNodes>
          <leafValues>
            -1.4537322521209717e-01 5.9149307012557983e-01</leafValues></_>
        <_>
          <internalNodes>
            0 -1 1781 -3.6135171540081501e-03</internalNodes>
          <leafValues>
            5.2497142553329468e-01 -1.4288429915904999e-01</leafValues></_>
        <_>
          <internalNodes>
            0 -1 510 3.9611384272575378e-03</internalNodes>
          <leafValues>
            -1.3043735921382904e-01 4.6728375554084778e-01</leafValues></_>
        <_>
          <internalNodes>
            0 -1 736 3.2740884926170111e-03</internalNodes>
          <leafValues>
            -1.0715122520923615e-01 5.1984399557113647e-01</leafValues></_>
        <_>
          <internalNodes>
            0 -1 399 7.0475693792104721e-03</internalNodes>
          <leafValues>
            -1.5912763774394989e-01 3.1498098373413086e-01</leafValues></_>
        <_>
          <internalNodes>
            0 -1 594 -1.1798698455095291e-02</internalNodes>
          <leafValues>
            6.2333965301513672e-01 -8.9668616652488708e-02</leafValues></_>
        <_>
          <internalNodes>
            0 -1 2259 1.1840771185234189e-03</internalNodes>
          <leafValues>
            -1.2616562843322754e-01 3.8161855936050415e-01</leafValues></_>
        <_>
          <internalNodes>
            0 -1 393 -1.3291817903518677e-01</internalNodes>
          <leafValues>
            8.7550258636474609e-01 -5.8386452496051788e-02</leafValues></_>
        <_>
          <internalNodes>
            0 -1 498 1.5245642513036728e-02</internalNodes>
          <leafValues>
            -8.4519416093826294e-02 5.0336509943008423e-01</leafValues></_>
        <_>
          <internalNodes>
            0 -1 2143 1.0615218430757523e-02</internalNodes>
          <leafValues>
            -1.1597588658332825e-01 3.9783927798271179e-01</leafValues></_>
        <_>
          <internalNodes>
            0 -1 930 2.6118499226868153e-03</internalNodes>
          <leafValues>
            -1.1625278741121292e-01 4.0986409783363342e-01</leafValues></_>
        <_>
          <internalNodes>
            0 -1 2158 8.4835598245263100e-03</internalNodes>
          <leafValues>
            -8.5232615470886230e-02 5.4662400484085083e-01</leafValues></_>
        <_>
          <internalNodes>
            0 -1 1663 -2.5631105017964728e-05</internalNodes>
          <leafValues>
            1.7143160104751587e-01 -2.8422075510025024e-01</leafValues></_>
        <_>
          <internalNodes>
            0 -1 1081 5.1413733512163162e-02</internalNodes>
          <leafValues>
            7.1663655340671539e-02 -7.4730128049850464e-01</leafValues></_>
        <_>
          <internalNodes>
            0 -1 524 -1.2578645348548889e-01</internalNodes>
          <leafValues>
            -8.1616187095642090e-01 4.6838346868753433e-02</leafValues></_>
        <_>
          <internalNodes>
            0 -1 1863 -8.8029522448778152e-03</internalNodes>
          <leafValues>
            5.3571450710296631e-01 -1.0055755078792572e-01</leafValues></_>
        <_>
          <internalNodes>
            0 -1 1713 1.8203167710453272e-03</internalNodes>
          <leafValues>
            1.9804361462593079e-01 -2.8136217594146729e-01</leafValues></_>
        <_>
          <internalNodes>
            0 -1 766 5.8162459172308445e-03</internalNodes>
          <leafValues>
            -1.2107513099908829e-01 4.3519371747970581e-01</leafValues></_>
        <_>
          <internalNodes>
            0 -1 1681 6.0471538454294205e-03</internalNodes>
          <leafValues>
            5.0886649638414383e-02 -8.8267832994461060e-01</leafValues></_>
        <_>
          <internalNodes>
            0 -1 808 1.1472281068563461e-02</internalNodes>
          <leafValues>
            -1.2423681467771530e-01 4.1072514653205872e-01</leafValues></_>
        <_>
          <internalNodes>
            0 -1 444 1.9585134088993073e-01</internalNodes>
          <leafValues>
            6.8809762597084045e-02 -6.7484867572784424e-01</leafValues></_>
        <_>
          <internalNodes>
            0 -1 684 -2.1076217293739319e-02</internalNodes>
          <leafValues>
            5.3061491250991821e-01 -9.0334773063659668e-02</leafValues></_>
        <_>
          <internalNodes>
            0 -1 713 -6.0510435141623020e-03</internalNodes>
          <leafValues>
            3.4578615427017212e-01 -1.1761254817247391e-01</leafValues></_>
        <_>
          <internalNodes>
            0 -1 580 5.1810942590236664e-02</internalNodes>
          <leafValues>
            9.1413438320159912e-02 -5.2063119411468506e-01</leafValues></_>
        <_>
          <internalNodes>
            0 -1 2339 -7.8692603856325150e-03</internalNodes>
          <leafValues>
            5.9046399593353271e-01 -7.8639410436153412e-02</leafValues></_>
        <_>
          <internalNodes>
            0 -1 575 1.6250520944595337e-01</internalNodes>
          <leafValues>
            -4.2546078562736511e-02 8.3538722991943359e-01</leafValues></_>
        <_>
          <internalNodes>
            0 -1 678 3.4440413583070040e-03</internalNodes>
          <leafValues>
            -1.6495575010776520e-01 2.8598803281784058e-01</leafValues></_>
        <_>
          <internalNodes>
            0 -1 662 1.5529549121856689e-01</internalNodes>
          <leafValues>
            7.8310593962669373e-02 -6.1184227466583252e-01</leafValues></_>
        <_>
          <internalNodes>
            0 -1 951 -2.0508131012320518e-02</internalNodes>
          <leafValues>
            4.7028222680091858e-01 -1.0476962476968765e-01</leafValues></_>
        <_>
          <internalNodes>
            0 -1 688 6.2349066138267517e-03</internalNodes>
          <leafValues>
            -1.8323820829391479e-01 2.8428888320922852e-01</leafValues></_>
        <_>
          <internalNodes>
            0 -1 452 2.5061946362257004e-03</internalNodes>
          <leafValues>
            -7.5020663440227509e-02 5.3661650419235229e-01</leafValues></_>
        <_>
          <internalNodes>
            0 -1 1092 1.3984504155814648e-02</internalNodes>
          <leafValues>
            8.1684030592441559e-02 -5.5158430337905884e-01</leafValues></_></weakClassifiers></_>
    <!-- stage 15 -->
    <_>
      <maxWeakCount>45</maxWeakCount>
      <stageThreshold>-8.2900398969650269e-01</stageThreshold>
      <weakClassifiers>
        <_>
          <internalNodes>
            0 -1 1585 3.2246392220258713e-03</internalNodes>
          <leafValues>
            3.7037037312984467e-02 5.0737798213958740e-01</leafValues></_>
        <_>
          <internalNodes>
            0 -1 815 1.9532945007085800e-02</internalNodes>
          <leafValues>
            -9.0359024703502655e-02 5.2131420373916626e-01</leafValues></_>
        <_>
          <internalNodes>
            0 -1 1357 3.0230227857828140e-02</internalNodes>
          <leafValues>
            -1.1800163984298706e-01 3.9117220044136047e-01</leafValues></_>
        <_>
          <internalNodes>
            0 -1 1644 -2.2512786090373993e-03</internalNodes>
          <leafValues>
            -5.5780589580535889e-01 7.5530737638473511e-02</leafValues></_>
        <_>
          <internalNodes>
            0 -1 2134 -1.5446308068931103e-02</internalNodes>
          <leafValues>
            4.6629533171653748e-01 -9.6316367387771606e-02</leafValues></_>
        <_>
          <internalNodes>
            0 -1 891 -2.8088634833693504e-02</internalNodes>
          <leafValues>
            3.1271180510520935e-01 -1.6774190962314606e-01</leafValues></_>
        <_>
          <internalNodes>
            0 -1 1595 -2.3744606878608465e-03</internalNodes>
          <leafValues>
            -5.3377348184585571e-01 7.3293037712574005e-02</leafValues></_>
        <_>
          <internalNodes>
            0 -1 1270 2.0033061504364014e-02</internalNodes>
          <leafValues>
            -6.9161690771579742e-02 5.3057718276977539e-01</leafValues></_>
        <_>
          <internalNodes>
            0 -1 28 2.1786470897495747e-03</internalNodes>
          <leafValues>
            1.0335210710763931e-01 -3.7479063868522644e-01</leafValues></_>
        <_>
          <internalNodes>
            0 -1 1666 7.4002523906528950e-03</internalNodes>
          <leafValues>
            5.4661165922880173e-02 -7.4601322412490845e-01</leafValues></_>
        <_>
          <internalNodes>
            0 -1 747 -4.2163416743278503e-02</internalNodes>
          <leafValues>
            -5.7956081628799438e-01 5.1298528909683228e-02</leafValues></_>
        <_>
          <internalNodes>
            0 -1 744 6.1158179305493832e-03</internalNodes>
          <leafValues>
            -1.1652409285306931e-01 2.9875844717025757e-01</leafValues></_>
        <_>
          <internalNodes>
            0 -1 545 -3.1836155802011490e-02</internalNodes>
          <leafValues>
            4.2089366912841797e-01 -8.8162429630756378e-02</leafValues></_>
        <_>
          <internalNodes>
            0 -1 948 6.3352345023304224e-04</internalNodes>
          <leafValues>
            -1.7226041853427887e-01 2.7481338381767273e-01</leafValues></_>
        <_>
          <internalNodes>
            0 -1 1456 1.6623556613922119e-02</internalNodes>
          <leafValues>
            5.1114510744810104e-02 -6.9228541851043701e-01</leafValues></_>
        <_>
          <internalNodes>
            0 -1 53 -4.7227911651134491e-02</internalNodes>
          <leafValues>
            3.4437483549118042e-01 -1.0356142371892929e-01</leafValues></_>
        <_>
          <internalNodes>
            0 -1 70 5.9208847582340240e-02</internalNodes>
          <leafValues>
            -1.7026309669017792e-01 2.8722050786018372e-01</leafValues></_>
        <_>
          <internalNodes>
            0 -1 2387 -1.2073004618287086e-02</internalNodes>
          <leafValues>
            4.5101085305213928e-01 -7.4437707662582397e-02</leafValues></_>
        <_>
          <internalNodes>
            0 -1 732 -1.3277882337570190e-01</internalNodes>
          <leafValues>
            7.7088201045989990e-01 -5.2817735821008682e-02</leafValues></_>
        <_>
          <internalNodes>
            0 -1 714 -8.9086964726448059e-03</internalNodes>
          <leafValues>
            2.9508441686630249e-01 -1.1355930566787720e-01</leafValues></_>
        <_>
          <internalNodes>
            0 -1 1119 -9.0826833620667458e-03</internalNodes>
          <leafValues>
            3.2288813591003418e-01 -1.0443282127380371e-01</leafValues></_>
        <_>
          <internalNodes>
            0 -1 1934 5.4010063409805298e-02</internalNodes>
          <leafValues>
            -9.6034877002239227e-02 4.0108892321586609e-01</leafValues></_>
        <_>
          <internalNodes>
            0 -1 1942 -5.3751524537801743e-03</internalNodes>
          <leafValues>
            2.0429089665412903e-01 -1.8534959852695465e-01</leafValues></_>
        <_>
          <internalNodes>
            0 -1 1458 4.1531501337885857e-03</internalNodes>
          <leafValues>
            -1.5720175206661224e-01 2.4031420052051544e-01</leafValues></_>
        <_>
          <internalNodes>
            0 -1 2088 -2.1109959110617638e-02</internalNodes>
          <leafValues>
            3.1197181344032288e-01 -1.1995884776115417e-01</leafValues></_>
        <_>
          <internalNodes>
            0 -1 61 1.0939402505755424e-02</internalNodes>
          <leafValues>
            -7.0258460938930511e-02 5.0842398405075073e-01</leafValues></_>
        <_>
          <internalNodes>
            0 -1 1649 2.7191523462533951e-02</internalNodes>
          <leafValues>
            5.6109692901372910e-02 -6.9058382511138916e-01</leafValues></_>
        <_>
          <internalNodes>
            0 -1 141 1.4277104055508971e-03</internalNodes>
          <leafValues>
            9.6190452575683594e-02 -3.2299992442131042e-01</leafValues></_>
        <_>
          <internalNodes>
            0 -1 2074 -2.9282029718160629e-02</internalNodes>
          <leafValues>
            7.2148209810256958e-01 -4.8274744302034378e-02</leafValues></_>
        <_>
          <internalNodes>
            0 -1 2061 -1.2809457257390022e-02</internalNodes>
          <leafValues>
            -6.5528184175491333e-01 5.9799332171678543e-02</leafValues></_>
        <_>
          <internalNodes>
            0 -1 2006 2.9714845586568117e-03</internalNodes>
          <leafValues>
            1.1525709927082062e-01 -2.7986407279968262e-01</leafValues></_>
        <_>
          <internalNodes>
            0 -1 1077 9.8594829440116882e-02</internalNodes>
          <leafValues>
            4.5626755803823471e-02 -7.7539765834808350e-01</leafValues></_>
        <_>
          <internalNodes>
            0 -1 405 6.3978410325944424e-03</internalNodes>
          <leafValues>
            -1.1909855902194977e-01 3.3604258298873901e-01</leafValues></_>
        <_>
          <internalNodes>
            0 -1 1547 2.7648735791444778e-02</internalNodes>
          <leafValues>
            4.8647455871105194e-02 -7.3069024085998535e-01</leafValues></_>
        <_>
          <internalNodes>
            0 -1 884 1.3839658349752426e-03</internalNodes>
          <leafValues>
            1.0239321738481522e-01 -3.2308137416839600e-01</leafValues></_>
        <_>
          <internalNodes>
            0 -1 82 -1.9908746704459190e-02</internalNodes>
          <leafValues>
            2.8512051701545715e-01 -1.2555108964443207e-01</leafValues></_>
        <_>
          <internalNodes>
            0 -1 1499 2.1701015532016754e-02</internalNodes>
          <leafValues>
            8.1708043813705444e-02 -5.0233042240142822e-01</leafValues></_>
        <_>
          <internalNodes>
            0 -1 526 2.0583951845765114e-03</internalNodes>
          <leafValues>
            -1.8026277422904968e-01 1.9966644048690796e-01</leafValues></_>
        <_>
          <internalNodes>
            0 -1 485 4.0492825210094452e-03</internalNodes>
          <leafValues>
            1.5386913716793060e-01 -2.6145505905151367e-01</leafValues></_>
        <_>
          <internalNodes>
            0 -1 454 5.8610420674085617e-03</internalNodes>
          <leafValues>
            -9.8698809742927551e-02 3.6121135950088501e-01</leafValues></_>
        <_>
          <internalNodes>
            0 -1 1470 4.0705860592424870e-03</internalNodes>
          <leafValues>
            7.4548929929733276e-02 -5.4935151338577271e-01</leafValues></_>
        <_>
          <internalNodes>
            0 -1 89 -4.3930457904934883e-03</internalNodes>
          <leafValues>
            -3.5854828357696533e-01 9.7458563745021820e-02</leafValues></_>
        <_>
          <internalNodes>
            0 -1 1726 1.0820576921105385e-02</internalNodes>
          <leafValues>
            -8.3181641995906830e-02 4.4821414351463318e-01</leafValues></_>
        <_>
